  0.0329065118133596
  0.0329065118133596
  0.0329065118133596
 -0.0789756283520631
  0.0329065118133596
  0.0329065118133596
  0.0329065118133596
  0.0329065118133596
  0.0214334705075446
  0.0214334705075446
  0.0214334705075446
  0.0214334705075446
  0.0214334705075446
  0.0214334705075446
  -0.334362139917695
  0.0214334705075446
  0.0214334705075446
  0.0214334705075446
  0.0214334705075446
  0.0214334705075446
  0.0214334705075446
  0.0664762042360231
  0.0214334705075446
  0.0214334705075446
  0.0214334705075446
  0.0214334705075446
  -0.214334705075446
  0.0214334705075446
  0.0214334705075446
  0.0214334705075446
  0.0214334705075446
  0.0214334705075446
  0.0214334705075446
  -0.171467764060357
  0.0214334705075446
  0.0214334705075446
  -0.051440329218107
  -0.051440329218107
-0.00857338820301787
  0.0342935528120713
  0.0771604938271604
  0.0771604938271604
  0.0771604938271604
  0.0771604938271604
  0.0771604938271604
  0.0771604938271604
  0.0771604938271604
  -0.713168724279836
  0.0771604938271604
  0.0771604938271604
  0.0771604938271604
  0.0771604938271604
  0.0771604938271604
  0.0771604938271604
  0.0771604938271604
  0.0342935528120713
-0.00857338820301785
  -0.051440329218107
  -0.051440329218107
  0.0214334705075446
  0.0214334705075446
  -0.171467764060357
  0.0214334705075446
  0.0214334705075446
  0.0214334705075446
  0.0214334705075446
  0.0214334705075446
  0.0214334705075446
  -0.214334705075446
  0.0214334705075446
  0.0214334705075446
  0.0214334705075446
  0.0214334705075446
  0.0664762042360232
  0.0214334705075446
  0.0214334705075446
  0.0214334705075446
  0.0214334705075446
  0.0214334705075446
  0.0214334705075446
  -0.334362139917695
  0.0214334705075446
  0.0214334705075446
  0.0214334705075446
  0.0214334705075446
  0.0214334705075446
  0.0214334705075446
  0.0329065118133597
  0.0664762042360231
  0.0664762042360231
  0.0664762042360231
  -0.159542890166456
  0.0664762042360231
  0.0664762042360231
  0.0664762042360231
  0.0329065118133596
  0.0329065118133596
 -0.0789756283520631
  0.0329065118133596
  0.0329065118133596
  0.0214334705075446
  0.0214334705075446
  0.0214334705075446
  -0.171467764060357
  0.0214334705075446
  0.0214334705075446
  0.0214334705075446
  0.0214334705075446
  0.0214334705075446
  -0.171467764060357
  0.0214334705075446
  0.0214334705075446
  -0.051440329218107
  -0.051440329218107
  0.0342935528120713
  0.0342935528120713
  0.0771604938271604
  0.0771604938271604
  0.0771604938271604
  0.0771604938271604
  0.0771604938271604
  0.0771604938271604
  0.0771604938271604
  -0.798902606310013
  0.0771604938271604
  0.0771604938271604
  0.0771604938271604
  0.0771604938271604
  0.0771604938271604
  0.0771604938271604
  0.0771604938271604
  0.0342935528120713
  0.0342935528120713
  -0.051440329218107
  -0.051440329218107
  0.0214334705075446
  0.0214334705075446
  -0.171467764060357
  0.0214334705075446
  0.0214334705075446
  0.0214334705075446
  0.0214334705075446
  0.0214334705075446
  -0.171467764060357
  0.0214334705075446
  0.0214334705075446
  0.0214334705075446
  0.0664762042360231
  0.0664762042360231
  -0.159542890166456
  0.0664762042360231
  0.0664762042360231
   0.118463442528095
-0.00857338820301785
-0.00857338820301785
-0.00857338820301785
  0.0342935528120713
  0.0771604938271604
  0.0771604938271604
  0.0771604938271604
  0.0771604938271604
  0.0771604938271604
   -1.10054869684499
  0.0771604938271604
  0.0771604938271604
  0.0771604938271604
  0.0771604938271604
  0.0771604938271604
  0.0342935528120713
-0.00857338820301785
-0.00857338820301785
-0.00857338820301783
   0.239314335249683
   0.118463442528095
-0.00857338820301785
-0.00857338820301785
  0.0771604938271604
  0.0771604938271604
  0.0771604938271604
  0.0771604938271604
  0.0771604938271604
  0.0771604938271604
   -1.18628257887517
  0.0771604938271604
  0.0771604938271604
  0.0771604938271604
  0.0771604938271604
  0.0771604938271604
  0.0771604938271604
-0.00857338820301785
-0.00857338820301785
   0.239314335249683
  0.0771604938271604
  0.0771604938271604
  0.0771604938271604
  -0.373799725651578
  0.0771604938271604
  0.0771604938271604
  0.0771604938271604
  0.0771604938271604
  0.0771604938271604
  -0.373799725651578
  0.0771604938271604
  0.0771604938271604
  0.0771604938271604
  -0.631001371742113
  0.0771604938271604
  -0.716735253772291
  -0.339506172839506
  -0.339506172839506
  -0.339506172839506
  -0.339506172839506
 -0.0308641975308643
 -0.0308641975308643
 -0.0308641975308643
   0.277777777777778
   0.277777777777778
   0.277777777777778
   0.277777777777778
   0.277777777777778
   0.277777777777778
   0.277777777777778
   0.277777777777778
   0.632702331961584
   0.277777777777778
   0.277777777777778
   0.277777777777778
   0.277777777777778
   0.277777777777778
   0.277777777777778
   0.277777777777778
   0.277777777777778
 -0.0308641975308643
 -0.0308641975308643
 -0.0308641975308643
  -0.339506172839506
  -0.339506172839506
  -0.339506172839506
  -0.339506172839506
  -0.716735253772291
  0.0771604938271604
  -0.631001371742113
  0.0771604938271604
  0.0771604938271604
  0.0771604938271604
  -0.373799725651578
  0.0771604938271604
  0.0771604938271604
  0.0771604938271604
  0.0771604938271604
  0.0771604938271604
  -0.373799725651578
  0.0771604938271604
  0.0771604938271604
  0.0771604938271604
   0.239314335249683
-0.00857338820301785
-0.00857338820301785
  0.0771604938271604
  0.0771604938271604
  0.0771604938271604
  0.0771604938271604
  0.0771604938271604
  0.0771604938271604
   -1.18628257887517
  0.0771604938271604
  0.0771604938271604
  0.0771604938271604
  0.0771604938271604
  0.0771604938271604
  0.0771604938271604
-0.00857338820301785
-0.00857338820301785
   0.118463442528095
   0.239314335249683
-0.00857338820301783
-0.00857338820301785
-0.00857338820301785
  0.0342935528120713
  0.0771604938271604
  0.0771604938271604
  0.0771604938271604
  0.0771604938271604
  0.0771604938271604
   -1.10054869684499
  0.0771604938271604
  0.0771604938271604
  0.0771604938271604
  0.0771604938271604
  0.0771604938271604
  0.0342935528120713
-0.00857338820301785
-0.00857338820301785
-0.00857338820301784
   0.118463442528095
  0.0664762042360232
  0.0664762042360232
  -0.159542890166456
  0.0664762042360232
  0.0664762042360232
  0.0214334705075446
  0.0214334705075446
  0.0214334705075446
  -0.171467764060357
  0.0214334705075446
  0.0214334705075446
  0.0214334705075446
  0.0214334705075446
  0.0214334705075446
  -0.171467764060357
  0.0214334705075446
  0.0214334705075446
 -0.0514403292181069
 -0.0514403292181069
  0.0342935528120713
  0.0342935528120713
  0.0771604938271604
  0.0771604938271604
  0.0771604938271604
  0.0771604938271604
  0.0771604938271604
  0.0771604938271604
  0.0771604938271604
  -0.798902606310014
  0.0771604938271604
  0.0771604938271604
  0.0771604938271604
  0.0771604938271604
  0.0771604938271604
  0.0771604938271604
  0.0771604938271604
  0.0342935528120713
  0.0342935528120713
  -0.051440329218107
  -0.051440329218107
  0.0214334705075446
  0.0214334705075446
  -0.171467764060357
  0.0214334705075446
  0.0214334705075446
  0.0214334705075446
  0.0214334705075446
  0.0214334705075446
  -0.171467764060357
  0.0214334705075446
  0.0214334705075446
  0.0214334705075446
  0.0329065118133597
  0.0329065118133597
 -0.0789756283520633
  0.0329065118133597
  0.0329065118133597
  0.0664762042360232
  0.0664762042360232
  0.0664762042360232
  -0.159542890166456
  0.0664762042360232
  0.0664762042360232
  0.0664762042360232
  0.0329065118133596
  0.0214334705075446
  0.0214334705075446
  0.0214334705075446
  0.0214334705075446
  0.0214334705075446
  0.0214334705075446
  -0.334362139917695
  0.0214334705075446
  0.0214334705075446
  0.0214334705075446
  0.0214334705075446
  0.0214334705075446
  0.0214334705075446
  0.0664762042360231
  0.0214334705075446
  0.0214334705075446
  0.0214334705075446
  0.0214334705075446
  -0.214334705075446
  0.0214334705075446
  0.0214334705075446
  0.0214334705075446
  0.0214334705075446
  0.0214334705075446
  0.0214334705075446
  -0.171467764060357
  0.0214334705075446
  0.0214334705075446
  -0.051440329218107
  -0.051440329218107
-0.00857338820301785
  0.0342935528120713
  0.0771604938271604
  0.0771604938271604
  0.0771604938271604
  0.0771604938271604
  0.0771604938271604
  0.0771604938271604
  0.0771604938271604
  -0.713168724279835
  0.0771604938271604
  0.0771604938271604
  0.0771604938271604
  0.0771604938271604
  0.0771604938271604
  0.0771604938271604
  0.0771604938271604
  0.0342935528120713
-0.00857338820301785
  -0.051440329218107
 -0.0514403292181069
  0.0214334705075446
  0.0214334705075446
  -0.171467764060357
  0.0214334705075446
  0.0214334705075446
  0.0214334705075446
  0.0214334705075446
  0.0214334705075446
  0.0214334705075446
  -0.214334705075446
  0.0214334705075446
  0.0214334705075446
  0.0214334705075446
  0.0214334705075446
  0.0664762042360232
  0.0214334705075446
  0.0214334705075446
  0.0214334705075446
  0.0214334705075446
  0.0214334705075446
  0.0214334705075446
  -0.334362139917695
  0.0214334705075446
  0.0214334705075446
  0.0214334705075446
  0.0214334705075446
  0.0214334705075446
  0.0214334705075446
  0.0329065118133597
  0.0329065118133597
  0.0329065118133597
  0.0329065118133597
 -0.0789756283520633
  0.0329065118133597
  0.0329065118133597
  0.0329065118133597
