  0.118463
 0.0434819
 0.0434819
-0.0869637
 0.0434819
 0.0434819
 0.0869637
 0.0869637
 0.0869637
 0.0869637
 -0.869637
 0.0869637
 0.0869637
 0.0869637
 0.0869637
 0.0434819
 0.0434819
-0.0869637
 0.0434819
 0.0434819
 0.0385802
 0.0385802
-0.0771605
 0.0385802
 0.0385802
 0.0347222
 0.0347222
 0.0347222
 0.0347222
 0.0347222
 -0.416667
 0.0347222
 0.0347222
 0.0347222
 0.0347222
 0.0347222
 0.0347222
 0.0347222
 0.0347222
 0.0347222
 -0.416667
 0.0347222
 0.0347222
 0.0347222
 0.0347222
-0.0694444
-0.0694444
-0.0694444
-0.0694444
 0.0694444
 0.0694444
 0.0694444
 0.0694444
 0.0694444
 0.0694444
 0.0694444
 0.0694444
 0.0694444
 0.0694444
 -0.555556
 0.0694444
 0.0694444
 0.0694444
 0.0694444
 0.0694444
 0.0694444
 0.0694444
 0.0694444
 0.0694444
 0.0694444
-0.0694444
-0.0694444
-0.0694444
-0.0694444
 0.0347222
 0.0347222
 0.0347222
 0.0347222
 -0.416667
 0.0347222
 0.0347222
 0.0347222
 0.0347222
 0.0347222
 0.0347222
 0.0347222
 0.0347222
 0.0347222
 -0.416667
 0.0347222
 0.0347222
 0.0347222
 0.0347222
 0.0347222
 0.0771605
 0.0694444
 0.0694444
 0.0694444
 0.0694444
 0.0694444
 0.0694444
 -0.910494
 0.0694444
 0.0694444
 0.0694444
 0.0694444
 0.0694444
 0.0694444
 0.0771605
 0.0694444
 0.0694444
 0.0694444
 0.0694444
 0.0694444
 0.0694444
 -0.910494
 0.0694444
 0.0694444
 0.0694444
 0.0694444
 0.0694444
 0.0694444
 0.0694444
 0.0694444
 0.0694444
 -0.555556
 0.0694444
 0.0694444
 0.0694444
 0.0694444
 0.0694444
 -0.555556
 0.0694444
 0.0694444
 0.0694444
 -0.555556
 0.0694444
 -0.555556
 -0.277778
 -0.277778
 -0.277778
 -0.277778
 -0.277778
 -0.277778
  0.138889
  0.138889
  0.138889
  0.138889
  0.138889
  0.138889
  0.138889
   4.29012
  0.138889
  0.138889
  0.138889
  0.138889
  0.138889
  0.138889
  0.138889
 -0.277778
 -0.277778
 -0.277778
 -0.277778
 -0.277778
 -0.277778
 -0.555556
 0.0694444
 -0.555556
 0.0694444
 0.0694444
 0.0694444
 -0.555556
 0.0694444
 0.0694444
 0.0694444
 0.0694444
 0.0694444
 -0.555556
 0.0694444
 0.0694444
 0.0694444
 0.0694444
 0.0694444
 0.0694444
 0.0694444
 0.0694444
 0.0694444
 -0.910494
 0.0694444
 0.0694444
 0.0694444
 0.0694444
 0.0694444
 0.0694444
 0.0771605
 0.0694444
 0.0694444
 0.0694444
 0.0694444
 0.0694444
 0.0694444
 -0.910494
 0.0694444
 0.0694444
 0.0694444
 0.0694444
 0.0694444
 0.0694444
 0.0771605
 0.0347222
 0.0347222
 0.0347222
 0.0347222
 0.0347222
 -0.416667
 0.0347222
 0.0347222
 0.0347222
 0.0347222
 0.0347222
 0.0347222
 0.0347222
 0.0347222
 0.0347222
 -0.416667
 0.0347222
 0.0347222
 0.0347222
 0.0347222
-0.0694444
-0.0694444
-0.0694444
-0.0694444
 0.0694444
 0.0694444
 0.0694444
 0.0694444
 0.0694444
 0.0694444
 0.0694444
 0.0694444
 0.0694444
 0.0694444
 -0.555556
 0.0694444
 0.0694444
 0.0694444
 0.0694444
 0.0694444
 0.0694444
 0.0694444
 0.0694444
 0.0694444
 0.0694444
-0.0694444
-0.0694444
-0.0694444
-0.0694444
 0.0347222
 0.0347222
 0.0347222
 0.0347222
 -0.416667
 0.0347222
 0.0347222
 0.0347222
 0.0347222
 0.0347222
 0.0347222
 0.0347222
 0.0347222
 0.0347222
 -0.416667
 0.0347222
 0.0347222
 0.0347222
 0.0347222
 0.0347222
 0.0385802
 0.0385802
-0.0771605
 0.0385802
 0.0385802
 0.0434819
 0.0434819
-0.0869637
 0.0434819
 0.0434819
 0.0347222
 0.0347222
 0.0347222
 0.0347222
 0.0347222
 -0.416667
 0.0347222
 0.0347222
 0.0347222
 0.0347222
 0.0347222
 0.0347222
 0.0347222
 -0.277778
 0.0347222
 0.0347222
-0.0694444
-0.0694444
 0.0694444
 0.0694444
 0.0694444
 0.0694444
 0.0694444
 0.0694444
 0.0694444
 0.0694444
 0.0694444
 -0.694444
 0.0694444
 0.0694444
 0.0694444
 0.0694444
 0.0694444
 0.0694444
 0.0694444
 0.0694444
 0.0694444
-0.0694444
-0.0694444
 0.0347222
 0.0347222
 -0.277778
 0.0347222
 0.0347222
 0.0347222
 0.0347222
 0.0347222
 0.0347222
 0.0347222
 -0.416667
 0.0347222
 0.0347222
 0.0347222
 0.0347222
 0.0347222
 0.0347222
 0.0347222
 0.0347222
   0.03125
   0.03125
   0.03125
   0.03125
   0.03125
   0.03125
   0.03125
   0.03125
   -0.6875
   0.03125
   0.03125
   0.03125
   0.03125
   0.03125
   0.03125
   0.03125
   0.03125
   0.03125
   0.03125
   0.03125
   -0.3125
   0.03125
   0.03125
   0.03125
   0.03125
   0.03125
   -0.3125
   0.03125
   0.03125
     -0.25
     -0.25
    0.0625
    0.0625
    0.0625
    0.0625
    0.0625
    0.0625
    0.0625
    0.0625
  0.805556
    0.0625
    0.0625
    0.0625
    0.0625
    0.0625
    0.0625
    0.0625
    0.0625
     -0.25
     -0.25
   0.03125
   0.03125
   -0.3125
   0.03125
   0.03125
   0.03125
   0.03125
   0.03125
   -0.3125
   0.03125
   0.03125
   0.03125
   0.03125
   0.03125
   0.03125
   0.03125
   0.03125
   0.03125
   0.03125
   0.03125
   -0.6875
   0.03125
   0.03125
   0.03125
   0.03125
   0.03125
   0.03125
   0.03125
   0.03125
 0.0347222
   0.03125
   -0.1875
   0.03125
   -0.1875
   -0.0625
   -0.0625
    0.0625
    0.0625
    0.0625
    0.0625
    0.0625
    0.0625
    0.0625
    0.0625
 0.0555556
    0.0625
    0.0625
    0.0625
    0.0625
    0.0625
    0.0625
    0.0625
    0.0625
   -0.0625
   -0.0625
   -0.1875
   0.03125
   -0.1875
   0.03125
   -0.0625
    0.0625
    0.0625
    0.0625
    0.0625
    0.0625
    0.0625
    0.0625
    0.0625
    0.0625
     -0.75
    0.0625
    0.0625
    0.0625
    0.0625
    0.0625
    0.0625
    0.0625
    0.0625
    0.0625
   -0.0625
    0.0625
    0.0625
    0.0625
    0.0625
    0.0625
    0.0625
    0.0625
    0.0625
    0.0625
     -0.75
    0.0625
    0.0625
    0.0625
    0.0625
    0.0625
    0.0625
    0.0625
    0.0625
    0.0625
    0.0625
    0.0625
    0.0625
    0.0625
    0.0625
    0.0625
    0.0625
    0.0625
    0.0625
    0.0625
    -1.125
    0.0625
    0.0625
    0.0625
    0.0625
    0.0625
    0.0625
    0.0625
    0.0625
    0.0625
    0.0625
    0.0625
    0.0625
    0.0625
    0.0625
    0.0625
    0.0625
    0.0625
    -0.875
    0.0625
    0.0625
    0.0625
    0.0625
    0.0625
    0.0625
    0.0625
    0.0625
    0.0625
        -1
    0.0625
    0.0625
    -0.875
    -0.875
     -0.75
    -0.875
    -0.875
    -0.875
     -0.75
     -0.75
     -0.25
    -0.125
    -0.125
     0.125
     0.125
     0.125
     0.125
     0.125
     0.125
     0.125
     0.125
     0.125
     0.125
     0.125
     0.125
     0.125
     0.125
      10.5
     0.125
     0.125
     0.125
     0.125
     0.125
     0.125
     0.125
     0.125
     0.125
     0.125
     0.125
     0.125
     0.125
     0.125
    -0.125
    -0.125
     -0.25
     -0.75
     -0.75
    -0.875
    -0.875
    -0.875
     -0.75
    -0.875
    -0.875
    0.0625
    0.0625
        -1
    0.0625
    0.0625
    0.0625
    0.0625
    0.0625
    0.0625
    0.0625
    0.0625
    0.0625
    -0.875
    0.0625
    0.0625
    0.0625
    0.0625
    0.0625
    0.0625
    0.0625
    0.0625
    0.0625
    0.0625
    0.0625
    0.0625
    0.0625
    0.0625
    0.0625
    0.0625
    0.0625
    -1.125
    0.0625
    0.0625
    0.0625
    0.0625
    0.0625
    0.0625
    0.0625
    0.0625
    0.0625
    0.0625
    0.0625
    0.0625
    0.0625
    0.0625
    0.0625
    0.0625
    0.0625
    0.0625
    0.0625
     -0.75
    0.0625
    0.0625
    0.0625
    0.0625
    0.0625
    0.0625
    0.0625
    0.0625
    0.0625
   -0.0625
    0.0625
    0.0625
    0.0625
    0.0625
    0.0625
    0.0625
    0.0625
    0.0625
    0.0625
     -0.75
    0.0625
    0.0625
    0.0625
    0.0625
    0.0625
    0.0625
    0.0625
    0.0625
    0.0625
   -0.0625
   0.03125
   -0.1875
   0.03125
   -0.1875
   -0.0625
   -0.0625
    0.0625
    0.0625
    0.0625
    0.0625
    0.0625
    0.0625
    0.0625
    0.0625
 0.0555556
    0.0625
    0.0625
    0.0625
    0.0625
    0.0625
    0.0625
    0.0625
    0.0625
   -0.0625
   -0.0625
   -0.1875
   0.03125
   -0.1875
   0.03125
 0.0347222
   0.03125
   0.03125
   0.03125
   0.03125
   0.03125
   0.03125
   0.03125
   0.03125
   -0.6875
   0.03125
   0.03125
   0.03125
   0.03125
   0.03125
   0.03125
   0.03125
   0.03125
   0.03125
   0.03125
   0.03125
   -0.3125
   0.03125
   0.03125
   0.03125
   0.03125
   0.03125
   -0.3125
   0.03125
   0.03125
     -0.25
     -0.25
    0.0625
    0.0625
    0.0625
    0.0625
    0.0625
    0.0625
    0.0625
    0.0625
  0.805556
    0.0625
    0.0625
    0.0625
    0.0625
    0.0625
    0.0625
    0.0625
    0.0625
     -0.25
     -0.25
   0.03125
   0.03125
   -0.3125
   0.03125
   0.03125
   0.03125
   0.03125
   0.03125
   -0.3125
   0.03125
   0.03125
   0.03125
   0.03125
   0.03125
   0.03125
   0.03125
   0.03125
   0.03125
   0.03125
   0.03125
   -0.6875
   0.03125
   0.03125
   0.03125
   0.03125
   0.03125
   0.03125
   0.03125
   0.03125
 0.0347222
 0.0347222
 0.0347222
 0.0815181
 0.0815181
 -0.163036
 0.0815181
 0.0815181
 0.0869637
 0.0694444
 0.0694444
 0.0694444
 0.0694444
 0.0694444
 0.0694444
  -1.11111
 0.0694444
 0.0694444
 0.0694444
 0.0694444
 0.0694444
 0.0694444
    0.0625
    0.0625
    0.0625
    0.0625
    0.0625
    0.0625
    0.0625
    0.0625
 -0.944444
    0.0625
    0.0625
    0.0625
    0.0625
    0.0625
    0.0625
    0.0625
    0.0625
    0.0625
    0.0625
    0.0625
    0.0625
    0.0625
    0.0625
 -0.819444
    0.0625
    0.0625
    0.0625
    0.0625
    0.0625
    0.0625
    0.0625
    0.0625
    0.0625
    0.0625
    0.0625
    0.0625
 -0.819444
    0.0625
    0.0625
    0.0625
    0.0625
    0.0625
    0.0625
    0.0625
    0.0625
    0.0625
    0.0625
    0.0625
 -0.694444
    0.0625
    0.0625
    0.0625
    0.0625
    0.0625
    0.0625
    0.0625
    0.0625
    0.0625
 -0.694444
    0.0625
    0.0625
    0.0625
    0.0625
     -0.75
     -0.75
    -0.625
    -0.625
      -0.5
      -0.5
    -0.125
    -0.125
    -0.125
    -0.125
    -0.125
    -0.125
     0.125
     0.125
     0.125
     0.125
     0.125
     0.125
     0.125
     0.125
     0.125
     0.125
     0.125
     0.125
   6.83333
     0.125
     0.125
     0.125
     0.125
     0.125
     0.125
     0.125
     0.125
     0.125
     0.125
     0.125
     0.125
    -0.125
    -0.125
    -0.125
    -0.125
    -0.125
    -0.125
      -0.5
      -0.5
    -0.625
    -0.625
     -0.75
     -0.75
    0.0625
    0.0625
    0.0625
    0.0625
 -0.694444
    0.0625
    0.0625
    0.0625
    0.0625
    0.0625
    0.0625
    0.0625
    0.0625
    0.0625
 -0.694444
    0.0625
    0.0625
    0.0625
    0.0625
    0.0625
    0.0625
    0.0625
    0.0625
    0.0625
    0.0625
    0.0625
 -0.819444
    0.0625
    0.0625
    0.0625
    0.0625
    0.0625
    0.0625
    0.0625
    0.0625
    0.0625
    0.0625
    0.0625
    0.0625
 -0.819444
    0.0625
    0.0625
    0.0625
    0.0625
    0.0625
    0.0625
    0.0625
    0.0625
    0.0625
    0.0625
    0.0625
    0.0625
    0.0625
    0.0625
 -0.944444
    0.0625
    0.0625
    0.0625
    0.0625
    0.0625
    0.0625
    0.0625
    0.0625
  0.163036
 0.0694444
 0.0694444
 0.0694444
 0.0694444
 -0.694444
 0.0694444
 0.0694444
 0.0694444
 0.0694444
    0.0625
    0.0625
    0.0625
    0.0625
    0.0625
    0.0625
 -0.819444
    0.0625
    0.0625
    0.0625
    0.0625
    0.0625
    0.0625
    0.0625
    0.0625
    0.0625
    0.0625
    0.0625
    0.0625
 -0.819444
    0.0625
    0.0625
    0.0625
    0.0625
    0.0625
    0.0625
    0.0625
    0.0625
    0.0625
    0.0625
    0.0625
        -1
    0.0625
    0.0625
    0.0625
    0.0625
    0.0625
    0.0625
    0.0625
    0.0625
    0.0625
        -1
    0.0625
    0.0625
    0.0625
    0.0625
    -0.625
    -0.625
    -0.625
    -0.625
     -0.25
     -0.25
    -0.125
    -0.125
    -0.125
    -0.125
    -0.125
    -0.125
     0.125
     0.125
     0.125
     0.125
     0.125
     0.125
     0.125
     0.125
     0.125
     0.125
     0.125
     0.125
   6.55556
     0.125
     0.125
     0.125
     0.125
     0.125
     0.125
     0.125
     0.125
     0.125
     0.125
     0.125
     0.125
    -0.125
    -0.125
    -0.125
    -0.125
    -0.125
    -0.125
     -0.25
     -0.25
    -0.625
    -0.625
    -0.625
    -0.625
    0.0625
    0.0625
    0.0625
    0.0625
        -1
    0.0625
    0.0625
    0.0625
    0.0625
    0.0625
    0.0625
    0.0625
    0.0625
    0.0625
        -1
    0.0625
    0.0625
    0.0625
    0.0625
    0.0625
    0.0625
    0.0625
    0.0625
    0.0625
    0.0625
    0.0625
 -0.819444
    0.0625
    0.0625
    0.0625
    0.0625
    0.0625
    0.0625
    0.0625
    0.0625
    0.0625
    0.0625
    0.0625
    0.0625
 -0.819444
    0.0625
    0.0625
    0.0625
    0.0625
    0.0625
    0.0625
  0.138889
    0.0625
    0.0625
    -0.375
    0.0625
    0.0625
    0.0625
      -0.5
    0.0625
      -0.5
     -0.25
     -0.25
     -0.25
     -0.25
    -0.125
    -0.125
     0.125
     0.125
     0.125
     0.125
     0.125
     0.125
     0.125
     0.125
   2.36111
     0.125
     0.125
     0.125
     0.125
     0.125
     0.125
     0.125
     0.125
    -0.125
    -0.125
     -0.25
     -0.25
     -0.25
     -0.25
      -0.5
    0.0625
      -0.5
    0.0625
    0.0625
    0.0625
    -0.375
    0.0625
    0.0625
  0.138889
    0.0625
      -0.5
    0.0625
      -0.5
     -0.25
     -0.25
     -0.25
     -0.25
    -0.125
    -0.125
     0.125
     0.125
     0.125
     0.125
     0.125
     0.125
     0.125
   2.61111
     0.125
     0.125
     0.125
     0.125
     0.125
     0.125
     0.125
    -0.125
    -0.125
     -0.25
     -0.25
     -0.25
     -0.25
      -0.5
    0.0625
      -0.5
    0.0625
  0.138889
    -0.625
     -0.25
     -0.25
     -0.25
     -0.25
     0.125
     0.125
     0.125
     0.125
     0.125
     0.125
     0.125
   2.72222
     0.125
     0.125
     0.125
     0.125
     0.125
     0.125
     0.125
     -0.25
     -0.25
     -0.25
     -0.25
    -0.625
  0.138889
     -0.25
     -0.25
     -0.25
     -0.25
     0.125
     0.125
     0.125
     0.125
     0.125
     0.125
     0.125
     0.125
   2.47222
     0.125
     0.125
     0.125
     0.125
     0.125
     0.125
     0.125
     0.125
     -0.25
     -0.25
     -0.25
     -0.25
     0.125
     0.125
     0.125
     0.125
     0.125
     0.125
     0.125
     0.125
     0.125
  0.472222
     0.125
     0.125
     0.125
     0.125
     0.125
     0.125
     0.125
     0.125
     0.125
     0.125
     0.125
     0.125
     0.125
     0.125
     0.125
     0.125
     0.125
     0.125
     0.125
  0.222222
     0.125
     0.125
     0.125
     0.125
     0.125
     0.125
     0.125
     0.125
     0.125
     0.125
     0.125
     0.125
     0.125
     0.125
     0.125
     0.125
     0.125
     0.125
  0.361111
     0.125
     0.125
     0.125
     0.125
     0.125
     0.125
     0.125
     0.125
     0.125
     0.125
     0.125
     0.125
     0.125
     0.125
  0.361111
     0.125
     0.125
     0.125
     0.125
     0.125
     0.125
     0.125
     0.125
     0.125
     0.125
 -0.638889
     0.125
     0.125
     0.125
     0.125
     0.125
 -0.138889
     0.125
  -1.13889
  -1.13889
  -1.13889
     -1.75
     -1.75
      -1.5
     -1.75
     -1.75
     -1.75
      -1.5
        -1
      -0.5
      -0.5
      -0.5
      -0.5
      -0.5
      -0.5
      -0.5
      0.25
      0.25
      0.25
      0.25
      0.25
      0.25
      0.25
      0.25
      0.25
      0.25
      0.25
   4.88889
      0.25
      0.25
      0.25
      0.25
      0.25
      0.25
      0.25
      0.25
      0.25
      0.25
      0.25
      -0.5
      -0.5
      -0.5
      -0.5
      -0.5
      -0.5
      -0.5
        -1
      -1.5
     -1.75
     -1.75
     -1.75
      -1.5
     -1.75
     -1.75
  -1.13889
  -1.13889
  -1.13889
     0.125
 -0.138889
     0.125
     0.125
     0.125
     0.125
     0.125
 -0.638889
     0.125
     0.125
     0.125
     0.125
     0.125
     0.125
     0.125
     0.125
     0.125
     0.125
  0.361111
     0.125
     0.125
     0.125
     0.125
     0.125
     0.125
     0.125
     0.125
     0.125
     0.125
     0.125
     0.125
     0.125
     0.125
  0.361111
     0.125
     0.125
     0.125
     0.125
     0.125
     0.125
     0.125
     0.125
     0.125
     0.125
     0.125
     0.125
     0.125
     0.125
     0.125
     0.125
     0.125
     0.125
  0.222222
     0.125
     0.125
     0.125
     0.125
     0.125
     0.125
     0.125
     0.125
     0.125
     0.125
     0.125
     0.125
     0.125
     0.125
     0.125
     0.125
     0.125
     0.125
     0.125
  0.472222
     0.125
     0.125
     0.125
     0.125
     0.125
     0.125
     0.125
     0.125
     0.125
     -0.25
     -0.25
     -0.25
     -0.25
     0.125
     0.125
     0.125
     0.125
     0.125
     0.125
     0.125
     0.125
   2.47222
     0.125
     0.125
     0.125
     0.125
     0.125
     0.125
     0.125
     0.125
     -0.25
     -0.25
     -0.25
     -0.25
  0.138889
    -0.625
     -0.25
     -0.25
     -0.25
     -0.25
     0.125
     0.125
     0.125
     0.125
     0.125
     0.125
     0.125
   2.72222
     0.125
     0.125
     0.125
     0.125
     0.125
     0.125
     0.125
     -0.25
     -0.25
     -0.25
     -0.25
    -0.625
  0.138889
    0.0625
      -0.5
    0.0625
      -0.5
     -0.25
     -0.25
     -0.25
     -0.25
    -0.125
    -0.125
     0.125
     0.125
     0.125
     0.125
     0.125
     0.125
     0.125
   2.61111
     0.125
     0.125
     0.125
     0.125
     0.125
     0.125
     0.125
    -0.125
    -0.125
     -0.25
     -0.25
     -0.25
     -0.25
      -0.5
    0.0625
      -0.5
    0.0625
  0.138889
    0.0625
    0.0625
    -0.375
    0.0625
    0.0625
    0.0625
      -0.5
    0.0625
      -0.5
     -0.25
     -0.25
     -0.25
     -0.25
    -0.125
    -0.125
     0.125
     0.125
     0.125
     0.125
     0.125
     0.125
     0.125
     0.125
   2.36111
     0.125
     0.125
     0.125
     0.125
     0.125
     0.125
     0.125
     0.125
    -0.125
    -0.125
     -0.25
     -0.25
     -0.25
     -0.25
      -0.5
    0.0625
      -0.5
    0.0625
    0.0625
    0.0625
    -0.375
    0.0625
    0.0625
  0.138889
    0.0625
    0.0625
    0.0625
    0.0625
    0.0625
    0.0625
 -0.819444
    0.0625
    0.0625
    0.0625
    0.0625
    0.0625
    0.0625
    0.0625
    0.0625
    0.0625
    0.0625
    0.0625
    0.0625
 -0.819444
    0.0625
    0.0625
    0.0625
    0.0625
    0.0625
    0.0625
    0.0625
    0.0625
    0.0625
    0.0625
    0.0625
        -1
    0.0625
    0.0625
    0.0625
    0.0625
    0.0625
    0.0625
    0.0625
    0.0625
    0.0625
        -1
    0.0625
    0.0625
    0.0625
    0.0625
    -0.625
    -0.625
    -0.625
    -0.625
     -0.25
     -0.25
    -0.125
    -0.125
    -0.125
    -0.125
    -0.125
    -0.125
     0.125
     0.125
     0.125
     0.125
     0.125
     0.125
     0.125
     0.125
     0.125
     0.125
     0.125
     0.125
   6.55556
     0.125
     0.125
     0.125
     0.125
     0.125
     0.125
     0.125
     0.125
     0.125
     0.125
     0.125
     0.125
    -0.125
    -0.125
    -0.125
    -0.125
    -0.125
    -0.125
     -0.25
     -0.25
    -0.625
    -0.625
    -0.625
    -0.625
    0.0625
    0.0625
    0.0625
    0.0625
        -1
    0.0625
    0.0625
    0.0625
    0.0625
    0.0625
    0.0625
    0.0625
    0.0625
    0.0625
        -1
    0.0625
    0.0625
    0.0625
    0.0625
    0.0625
    0.0625
    0.0625
    0.0625
    0.0625
    0.0625
    0.0625
 -0.819444
    0.0625
    0.0625
    0.0625
    0.0625
    0.0625
    0.0625
    0.0625
    0.0625
    0.0625
    0.0625
    0.0625
    0.0625
 -0.819444
    0.0625
    0.0625
    0.0625
    0.0625
    0.0625
    0.0625
 0.0694444
 0.0694444
 0.0694444
 0.0694444
 -0.694444
 0.0694444
 0.0694444
 0.0694444
 0.0694444
  0.163036
    0.0625
    0.0625
    0.0625
    0.0625
    0.0625
    0.0625
    0.0625
    0.0625
 -0.944444
    0.0625
    0.0625
    0.0625
    0.0625
    0.0625
    0.0625
    0.0625
    0.0625
    0.0625
    0.0625
    0.0625
    0.0625
    0.0625
    0.0625
 -0.819444
    0.0625
    0.0625
    0.0625
    0.0625
    0.0625
    0.0625
    0.0625
    0.0625
    0.0625
    0.0625
    0.0625
    0.0625
 -0.819444
    0.0625
    0.0625
    0.0625
    0.0625
    0.0625
    0.0625
    0.0625
    0.0625
    0.0625
    0.0625
    0.0625
 -0.694444
    0.0625
    0.0625
    0.0625
    0.0625
    0.0625
    0.0625
    0.0625
    0.0625
    0.0625
 -0.694444
    0.0625
    0.0625
    0.0625
    0.0625
     -0.75
     -0.75
    -0.625
    -0.625
      -0.5
      -0.5
    -0.125
    -0.125
    -0.125
    -0.125
    -0.125
    -0.125
     0.125
     0.125
     0.125
     0.125
     0.125
     0.125
     0.125
     0.125
     0.125
     0.125
     0.125
     0.125
   6.83333
     0.125
     0.125
     0.125
     0.125
     0.125
     0.125
     0.125
     0.125
     0.125
     0.125
     0.125
     0.125
    -0.125
    -0.125
    -0.125
    -0.125
    -0.125
    -0.125
      -0.5
      -0.5
    -0.625
    -0.625
     -0.75
     -0.75
    0.0625
    0.0625
    0.0625
    0.0625
 -0.694444
    0.0625
    0.0625
    0.0625
    0.0625
    0.0625
    0.0625
    0.0625
    0.0625
    0.0625
 -0.694444
    0.0625
    0.0625
    0.0625
    0.0625
    0.0625
    0.0625
    0.0625
    0.0625
    0.0625
    0.0625
    0.0625
 -0.819444
    0.0625
    0.0625
    0.0625
    0.0625
    0.0625
    0.0625
    0.0625
    0.0625
    0.0625
    0.0625
    0.0625
    0.0625
 -0.819444
    0.0625
    0.0625
    0.0625
    0.0625
    0.0625
    0.0625
    0.0625
    0.0625
    0.0625
    0.0625
    0.0625
    0.0625
    0.0625
    0.0625
 -0.944444
    0.0625
    0.0625
    0.0625
    0.0625
    0.0625
    0.0625
    0.0625
    0.0625
 0.0694444
 0.0694444
 0.0694444
 0.0694444
 0.0694444
 0.0694444
  -1.11111
 0.0694444
 0.0694444
 0.0694444
 0.0694444
 0.0694444
 0.0694444
 0.0869637
 0.0815181
 0.0815181
 -0.163036
 0.0815181
 0.0815181
 0.0347222
 0.0347222
 0.0347222
   0.03125
   0.03125
   0.03125
   0.03125
   0.03125
   0.03125
   0.03125
   0.03125
   -0.6875
   0.03125
   0.03125
   0.03125
   0.03125
   0.03125
   0.03125
   0.03125
   0.03125
   0.03125
   0.03125
   0.03125
   -0.3125
   0.03125
   0.03125
   0.03125
   0.03125
   0.03125
   -0.3125
   0.03125
   0.03125
     -0.25
     -0.25
    0.0625
    0.0625
    0.0625
    0.0625
    0.0625
    0.0625
    0.0625
    0.0625
  0.805556
    0.0625
    0.0625
    0.0625
    0.0625
    0.0625
    0.0625
    0.0625
    0.0625
     -0.25
     -0.25
   0.03125
   0.03125
   -0.3125
   0.03125
   0.03125
   0.03125
   0.03125
   0.03125
   -0.3125
   0.03125
   0.03125
   0.03125
   0.03125
   0.03125
   0.03125
   0.03125
   0.03125
   0.03125
   0.03125
   0.03125
   -0.6875
   0.03125
   0.03125
   0.03125
   0.03125
   0.03125
   0.03125
   0.03125
   0.03125
 0.0347222
   0.03125
   -0.1875
   0.03125
   -0.1875
   -0.0625
   -0.0625
    0.0625
    0.0625
    0.0625
    0.0625
    0.0625
    0.0625
    0.0625
    0.0625
 0.0555556
    0.0625
    0.0625
    0.0625
    0.0625
    0.0625
    0.0625
    0.0625
    0.0625
   -0.0625
   -0.0625
   -0.1875
   0.03125
   -0.1875
   0.03125
   -0.0625
    0.0625
    0.0625
    0.0625
    0.0625
    0.0625
    0.0625
    0.0625
    0.0625
    0.0625
     -0.75
    0.0625
    0.0625
    0.0625
    0.0625
    0.0625
    0.0625
    0.0625
    0.0625
    0.0625
   -0.0625
    0.0625
    0.0625
    0.0625
    0.0625
    0.0625
    0.0625
    0.0625
    0.0625
    0.0625
     -0.75
    0.0625
    0.0625
    0.0625
    0.0625
    0.0625
    0.0625
    0.0625
    0.0625
    0.0625
    0.0625
    0.0625
    0.0625
    0.0625
    0.0625
    0.0625
    0.0625
    0.0625
    0.0625
    0.0625
    -1.125
    0.0625
    0.0625
    0.0625
    0.0625
    0.0625
    0.0625
    0.0625
    0.0625
    0.0625
    0.0625
    0.0625
    0.0625
    0.0625
    0.0625
    0.0625
    0.0625
    0.0625
    -0.875
    0.0625
    0.0625
    0.0625
    0.0625
    0.0625
    0.0625
    0.0625
    0.0625
    0.0625
        -1
    0.0625
    0.0625
    -0.875
    -0.875
     -0.75
    -0.875
    -0.875
    -0.875
     -0.75
     -0.75
     -0.25
    -0.125
    -0.125
     0.125
     0.125
     0.125
     0.125
     0.125
     0.125
     0.125
     0.125
     0.125
     0.125
     0.125
     0.125
     0.125
     0.125
      10.5
     0.125
     0.125
     0.125
     0.125
     0.125
     0.125
     0.125
     0.125
     0.125
     0.125
     0.125
     0.125
     0.125
     0.125
    -0.125
    -0.125
     -0.25
     -0.75
     -0.75
    -0.875
    -0.875
    -0.875
     -0.75
    -0.875
    -0.875
    0.0625
    0.0625
        -1
    0.0625
    0.0625
    0.0625
    0.0625
    0.0625
    0.0625
    0.0625
    0.0625
    0.0625
    -0.875
    0.0625
    0.0625
    0.0625
    0.0625
    0.0625
    0.0625
    0.0625
    0.0625
    0.0625
    0.0625
    0.0625
    0.0625
    0.0625
    0.0625
    0.0625
    0.0625
    0.0625
    -1.125
    0.0625
    0.0625
    0.0625
    0.0625
    0.0625
    0.0625
    0.0625
    0.0625
    0.0625
    0.0625
    0.0625
    0.0625
    0.0625
    0.0625
    0.0625
    0.0625
    0.0625
    0.0625
    0.0625
     -0.75
    0.0625
    0.0625
    0.0625
    0.0625
    0.0625
    0.0625
    0.0625
    0.0625
    0.0625
   -0.0625
    0.0625
    0.0625
    0.0625
    0.0625
    0.0625
    0.0625
    0.0625
    0.0625
    0.0625
     -0.75
    0.0625
    0.0625
    0.0625
    0.0625
    0.0625
    0.0625
    0.0625
    0.0625
    0.0625
   -0.0625
   0.03125
   -0.1875
   0.03125
   -0.1875
   -0.0625
   -0.0625
    0.0625
    0.0625
    0.0625
    0.0625
    0.0625
    0.0625
    0.0625
    0.0625
 0.0555556
    0.0625
    0.0625
    0.0625
    0.0625
    0.0625
    0.0625
    0.0625
    0.0625
   -0.0625
   -0.0625
   -0.1875
   0.03125
   -0.1875
   0.03125
 0.0347222
   0.03125
   0.03125
   0.03125
   0.03125
   0.03125
   0.03125
   0.03125
   0.03125
   -0.6875
   0.03125
   0.03125
   0.03125
   0.03125
   0.03125
   0.03125
   0.03125
   0.03125
   0.03125
   0.03125
   0.03125
   -0.3125
   0.03125
   0.03125
   0.03125
   0.03125
   0.03125
   -0.3125
   0.03125
   0.03125
     -0.25
     -0.25
    0.0625
    0.0625
    0.0625
    0.0625
    0.0625
    0.0625
    0.0625
    0.0625
  0.805556
    0.0625
    0.0625
    0.0625
    0.0625
    0.0625
    0.0625
    0.0625
    0.0625
     -0.25
     -0.25
   0.03125
   0.03125
   -0.3125
   0.03125
   0.03125
   0.03125
   0.03125
   0.03125
   -0.3125
   0.03125
   0.03125
   0.03125
   0.03125
   0.03125
   0.03125
   0.03125
   0.03125
   0.03125
   0.03125
   0.03125
   -0.6875
   0.03125
   0.03125
   0.03125
   0.03125
   0.03125
   0.03125
   0.03125
   0.03125
 0.0347222
 0.0347222
 0.0347222
 0.0347222
 0.0347222
 0.0347222
 0.0347222
 0.0347222
 -0.416667
 0.0347222
 0.0347222
 0.0347222
 0.0347222
 0.0347222
 0.0347222
 0.0347222
 -0.277778
 0.0347222
 0.0347222
-0.0694444
-0.0694444
 0.0694444
 0.0694444
 0.0694444
 0.0694444
 0.0694444
 0.0694444
 0.0694444
 0.0694444
 0.0694444
 -0.694444
 0.0694444
 0.0694444
 0.0694444
 0.0694444
 0.0694444
 0.0694444
 0.0694444
 0.0694444
 0.0694444
-0.0694444
-0.0694444
 0.0347222
 0.0347222
 -0.277778
 0.0347222
 0.0347222
 0.0347222
 0.0347222
 0.0347222
 0.0347222
 0.0347222
 -0.416667
 0.0347222
 0.0347222
 0.0347222
 0.0347222
 0.0347222
 0.0434819
 0.0434819
-0.0869637
 0.0434819
 0.0434819
  0.239314
 0.0815181
 0.0815181
 -0.163036
 0.0815181
 0.0815181
  0.163036
  0.163036
  0.163036
  0.163036
  -1.63036
  0.163036
  0.163036
  0.163036
  0.163036
 0.0815181
 0.0815181
 -0.163036
 0.0815181
 0.0815181
  0.118463
 0.0869637
 0.0869637
 0.0869637
 0.0869637
 -0.869637
 0.0869637
 0.0869637
 0.0869637
 0.0869637
 0.0771605
 0.0694444
 0.0694444
 0.0694444
 0.0694444
 0.0694444
 -0.771605
 0.0694444
 0.0694444
 0.0694444
 0.0694444
 0.0694444
 0.0771605
 0.0694444
 0.0694444
 0.0694444
 0.0694444
 0.0694444
 0.0694444
 -0.910494
 0.0694444
 0.0694444
 0.0694444
 0.0694444
 0.0694444
 0.0694444
 0.0694444
 0.0694444
 0.0694444
 -0.555556
 0.0694444
 0.0694444
 0.0694444
 0.0694444
 0.0694444
 -0.555556
 0.0694444
 0.0694444
 0.0694444
 -0.694444
 0.0694444
 -0.694444
 -0.277778
 -0.277778
 -0.277778
 -0.277778
 -0.138889
  0.138889
  0.138889
  0.138889
  0.138889
  0.138889
  0.138889
  0.138889
   4.01235
  0.138889
  0.138889
  0.138889
  0.138889
  0.138889
  0.138889
  0.138889
 -0.138889
 -0.277778
 -0.277778
 -0.277778
 -0.277778
 -0.694444
 0.0694444
 -0.694444
 0.0694444
 0.0694444
 0.0694444
 -0.555556
 0.0694444
 0.0694444
 0.0694444
 0.0694444
 0.0694444
 -0.555556
 0.0694444
 0.0694444
 0.0694444
 0.0694444
 0.0694444
 0.0694444
 0.0694444
 0.0694444
 0.0694444
 -0.910494
 0.0694444
 0.0694444
 0.0694444
 0.0694444
 0.0694444
 0.0694444
 0.0771605
 0.0694444
 0.0694444
 0.0694444
 0.0694444
 0.0694444
 -0.771605
 0.0694444
 0.0694444
 0.0694444
 0.0694444
 0.0694444
 0.0771605
 0.0869637
 0.0694444
 0.0694444
 0.0694444
 0.0694444
 0.0694444
 -0.972222
 0.0694444
 0.0694444
 0.0694444
 0.0694444
 0.0694444
    0.0625
    0.0625
    0.0625
    0.0625
    0.0625
    0.0625
    0.0625
    0.0625
 -0.944444
    0.0625
    0.0625
    0.0625
    0.0625
    0.0625
    0.0625
    0.0625
    0.0625
    0.0625
    0.0625
    0.0625
    0.0625
    0.0625
 -0.694444
    0.0625
    0.0625
    0.0625
    0.0625
    0.0625
    0.0625
    0.0625
    0.0625
    0.0625
 -0.569444
    0.0625
    0.0625
    0.0625
    0.0625
    0.0625
    0.0625
    0.0625
    0.0625
    0.0625
 -0.694444
    0.0625
    0.0625
    0.0625
    0.0625
    0.0625
    0.0625
    0.0625
    0.0625
    0.0625
 -0.694444
    0.0625
    0.0625
    0.0625
    0.0625
     -0.75
    -0.625
    -0.625
    -0.625
    -0.375
    -0.125
    -0.125
    -0.125
    -0.125
    -0.125
    -0.125
    -0.125
     0.125
     0.125
     0.125
     0.125
     0.125
     0.125
     0.125
     0.125
     0.125
     0.125
     0.125
     0.125
   5.58333
     0.125
     0.125
     0.125
     0.125
     0.125
     0.125
     0.125
     0.125
     0.125
     0.125
     0.125
     0.125
    -0.125
    -0.125
    -0.125
    -0.125
    -0.125
    -0.125
    -0.125
    -0.375
    -0.625
    -0.625
    -0.625
     -0.75
    0.0625
    0.0625
    0.0625
    0.0625
 -0.694444
    0.0625
    0.0625
    0.0625
    0.0625
    0.0625
    0.0625
    0.0625
    0.0625
    0.0625
 -0.694444
    0.0625
    0.0625
    0.0625
    0.0625
    0.0625
    0.0625
    0.0625
    0.0625
    0.0625
 -0.569444
    0.0625
    0.0625
    0.0625
    0.0625
    0.0625
    0.0625
    0.0625
    0.0625
    0.0625
 -0.694444
    0.0625
    0.0625
    0.0625
    0.0625
    0.0625
    0.0625
    0.0625
    0.0625
    0.0625
    0.0625
    0.0625
    0.0625
    0.0625
 -0.944444
    0.0625
    0.0625
    0.0625
    0.0625
    0.0625
    0.0625
    0.0625
    0.0625
  0.163036
 0.0694444
 0.0694444
 0.0694444
 0.0694444
 -0.694444
 0.0694444
 0.0694444
 0.0694444
 0.0694444
    0.0625
    0.0625
    0.0625
    0.0625
    0.0625
    0.0625
 -0.819444
    0.0625
    0.0625
    0.0625
    0.0625
    0.0625
    0.0625
    0.0625
    0.0625
    0.0625
    0.0625
    0.0625
    0.0625
 -0.819444
    0.0625
    0.0625
    0.0625
    0.0625
    0.0625
    0.0625
    0.0625
    0.0625
    0.0625
    0.0625
    0.0625
  -1.06944
    0.0625
    0.0625
    0.0625
    0.0625
    0.0625
    0.0625
    0.0625
    0.0625
    0.0625
  -1.06944
    0.0625
    0.0625
    0.0625
    0.0625
    -0.625
    -0.625
    -0.625
    -0.625
    -0.125
    -0.125
    -0.125
    -0.125
    -0.125
    -0.125
    -0.125
    -0.125
     0.125
     0.125
     0.125
     0.125
     0.125
     0.125
     0.125
     0.125
     0.125
     0.125
     0.125
   6.58333
     0.125
     0.125
     0.125
     0.125
     0.125
     0.125
     0.125
     0.125
     0.125
     0.125
     0.125
    -0.125
    -0.125
    -0.125
    -0.125
    -0.125
    -0.125
    -0.125
    -0.125
    -0.625
    -0.625
    -0.625
    -0.625
    0.0625
    0.0625
    0.0625
    0.0625
  -1.06944
    0.0625
    0.0625
    0.0625
    0.0625
    0.0625
    0.0625
    0.0625
    0.0625
    0.0625
  -1.06944
    0.0625
    0.0625
    0.0625
    0.0625
    0.0625
    0.0625
    0.0625
    0.0625
    0.0625
    0.0625
    0.0625
 -0.819444
    0.0625
    0.0625
    0.0625
    0.0625
    0.0625
    0.0625
    0.0625
    0.0625
    0.0625
    0.0625
    0.0625
    0.0625
 -0.819444
    0.0625
    0.0625
    0.0625
    0.0625
    0.0625
    0.0625
  0.138889
    0.0625
    0.0625
    -0.375
    0.0625
    0.0625
    0.0625
      -0.5
    0.0625
      -0.5
     -0.25
     -0.25
     -0.25
     -0.25
    -0.125
     0.125
     0.125
     0.125
     0.125
     0.125
     0.125
     0.125
   2.36111
     0.125
     0.125
     0.125
     0.125
     0.125
     0.125
     0.125
    -0.125
     -0.25
     -0.25
     -0.25
     -0.25
      -0.5
    0.0625
      -0.5
    0.0625
    0.0625
    0.0625
    -0.375
    0.0625
    0.0625
  0.138889
    0.0625
      -0.5
    0.0625
      -0.5
     -0.25
     -0.25
     -0.25
     -0.25
     0.125
     0.125
     0.125
     0.125
     0.125
     0.125
     0.125
   2.11111
     0.125
     0.125
     0.125
     0.125
     0.125
     0.125
     0.125
     -0.25
     -0.25
     -0.25
     -0.25
      -0.5
    0.0625
      -0.5
    0.0625
  0.138889
    -0.625
     -0.25
     -0.25
     -0.25
     -0.25
     0.125
     0.125
     0.125
     0.125
     0.125
     0.125
   3.11111
     0.125
     0.125
     0.125
     0.125
     0.125
     0.125
     -0.25
     -0.25
     -0.25
     -0.25
    -0.625
  0.138889
     -0.25
     -0.25
     -0.25
     -0.25
     0.125
     0.125
     0.125
     0.125
     0.125
     0.125
     0.125
   2.86111
     0.125
     0.125
     0.125
     0.125
     0.125
     0.125
     0.125
     -0.25
     -0.25
     -0.25
     -0.25
     0.125
     0.125
     0.125
     0.125
     0.125
     0.125
     0.125
     0.125
     0.125
  0.472222
     0.125
     0.125
     0.125
     0.125
     0.125
     0.125
     0.125
     0.125
     0.125
     0.125
     0.125
     0.125
     0.125
     0.125
     0.125
     0.125
     0.125
     0.125
  0.361111
     0.125
     0.125
     0.125
     0.125
     0.125
     0.125
     0.125
     0.125
     0.125
     0.125
     0.125
     0.125
     0.125
     0.125
     0.125
     0.125
     0.125
  0.361111
     0.125
     0.125
     0.125
     0.125
     0.125
     0.125
     0.125
     0.125
     0.125
     0.125
     0.125
     0.125
     0.125
     0.125
  0.361111
     0.125
     0.125
     0.125
     0.125
     0.125
     0.125
     0.125
     0.125
 -0.638889
     0.125
     0.125
 -0.888889
 -0.888889
 -0.888889
 -0.888889
  -1.88889
     -1.75
     -1.25
     -1.75
     -1.75
      -1.5
     -1.25
      -0.5
      -0.5
      -0.5
      -0.5
      -0.5
      -0.5
      -0.5
     -0.25
      0.25
      0.25
      0.25
      0.25
      0.25
      0.25
      0.25
      0.25
      0.25
      0.25
      0.25
   3.33333
      0.25
      0.25
      0.25
      0.25
      0.25
      0.25
      0.25
      0.25
      0.25
      0.25
      0.25
     -0.25
      -0.5
      -0.5
      -0.5
      -0.5
      -0.5
      -0.5
      -0.5
     -1.25
      -1.5
     -1.75
     -1.75
     -1.25
     -1.75
  -1.88889
 -0.888889
 -0.888889
 -0.888889
 -0.888889
     0.125
     0.125
 -0.638889
     0.125
     0.125
     0.125
     0.125
     0.125
     0.125
     0.125
     0.125
  0.361111
     0.125
     0.125
     0.125
     0.125
     0.125
     0.125
     0.125
     0.125
     0.125
     0.125
     0.125
     0.125
     0.125
     0.125
  0.361111
     0.125
     0.125
     0.125
     0.125
     0.125
     0.125
     0.125
     0.125
     0.125
     0.125
     0.125
     0.125
     0.125
     0.125
     0.125
     0.125
     0.125
  0.361111
     0.125
     0.125
     0.125
     0.125
     0.125
     0.125
     0.125
     0.125
     0.125
     0.125
     0.125
     0.125
     0.125
     0.125
     0.125
     0.125
     0.125
     0.125
  0.472222
     0.125
     0.125
     0.125
     0.125
     0.125
     0.125
     0.125
     0.125
     0.125
     -0.25
     -0.25
     -0.25
     -0.25
     0.125
     0.125
     0.125
     0.125
     0.125
     0.125
     0.125
   2.86111
     0.125
     0.125
     0.125
     0.125
     0.125
     0.125
     0.125
     -0.25
     -0.25
     -0.25
     -0.25
  0.138889
    -0.625
     -0.25
     -0.25
     -0.25
     -0.25
     0.125
     0.125
     0.125
     0.125
     0.125
     0.125
   3.11111
     0.125
     0.125
     0.125
     0.125
     0.125
     0.125
     -0.25
     -0.25
     -0.25
     -0.25
    -0.625
  0.138889
    0.0625
      -0.5
    0.0625
      -0.5
     -0.25
     -0.25
     -0.25
     -0.25
     0.125
     0.125
     0.125
     0.125
     0.125
     0.125
     0.125
   2.11111
     0.125
     0.125
     0.125
     0.125
     0.125
     0.125
     0.125
     -0.25
     -0.25
     -0.25
     -0.25
      -0.5
    0.0625
      -0.5
    0.0625
  0.138889
    0.0625
    0.0625
    -0.375
    0.0625
    0.0625
    0.0625
      -0.5
    0.0625
      -0.5
     -0.25
     -0.25
     -0.25
     -0.25
    -0.125
     0.125
     0.125
     0.125
     0.125
     0.125
     0.125
     0.125
   2.36111
     0.125
     0.125
     0.125
     0.125
     0.125
     0.125
     0.125
    -0.125
     -0.25
     -0.25
     -0.25
     -0.25
      -0.5
    0.0625
      -0.5
    0.0625
    0.0625
    0.0625
    -0.375
    0.0625
    0.0625
  0.138889
    0.0625
    0.0625
    0.0625
    0.0625
    0.0625
    0.0625
 -0.819444
    0.0625
    0.0625
    0.0625
    0.0625
    0.0625
    0.0625
    0.0625
    0.0625
    0.0625
    0.0625
    0.0625
    0.0625
 -0.819444
    0.0625
    0.0625
    0.0625
    0.0625
    0.0625
    0.0625
    0.0625
    0.0625
    0.0625
    0.0625
    0.0625
  -1.06944
    0.0625
    0.0625
    0.0625
    0.0625
    0.0625
    0.0625
    0.0625
    0.0625
    0.0625
  -1.06944
    0.0625
    0.0625
    0.0625
    0.0625
    -0.625
    -0.625
    -0.625
    -0.625
    -0.125
    -0.125
    -0.125
    -0.125
    -0.125
    -0.125
    -0.125
    -0.125
     0.125
     0.125
     0.125
     0.125
     0.125
     0.125
     0.125
     0.125
     0.125
     0.125
     0.125
   6.58333
     0.125
     0.125
     0.125
     0.125
     0.125
     0.125
     0.125
     0.125
     0.125
     0.125
     0.125
    -0.125
    -0.125
    -0.125
    -0.125
    -0.125
    -0.125
    -0.125
    -0.125
    -0.625
    -0.625
    -0.625
    -0.625
    0.0625
    0.0625
    0.0625
    0.0625
  -1.06944
    0.0625
    0.0625
    0.0625
    0.0625
    0.0625
    0.0625
    0.0625
    0.0625
    0.0625
  -1.06944
    0.0625
    0.0625
    0.0625
    0.0625
    0.0625
    0.0625
    0.0625
    0.0625
    0.0625
    0.0625
    0.0625
 -0.819444
    0.0625
    0.0625
    0.0625
    0.0625
    0.0625
    0.0625
    0.0625
    0.0625
    0.0625
    0.0625
    0.0625
    0.0625
 -0.819444
    0.0625
    0.0625
    0.0625
    0.0625
    0.0625
    0.0625
 0.0694444
 0.0694444
 0.0694444
 0.0694444
 -0.694444
 0.0694444
 0.0694444
 0.0694444
 0.0694444
  0.163036
    0.0625
    0.0625
    0.0625
    0.0625
    0.0625
    0.0625
    0.0625
    0.0625
 -0.944444
    0.0625
    0.0625
    0.0625
    0.0625
    0.0625
    0.0625
    0.0625
    0.0625
    0.0625
    0.0625
    0.0625
    0.0625
    0.0625
 -0.694444
    0.0625
    0.0625
    0.0625
    0.0625
    0.0625
    0.0625
    0.0625
    0.0625
    0.0625
 -0.569444
    0.0625
    0.0625
    0.0625
    0.0625
    0.0625
    0.0625
    0.0625
    0.0625
    0.0625
 -0.694444
    0.0625
    0.0625
    0.0625
    0.0625
    0.0625
    0.0625
    0.0625
    0.0625
    0.0625
 -0.694444
    0.0625
    0.0625
    0.0625
    0.0625
     -0.75
    -0.625
    -0.625
    -0.625
    -0.375
    -0.125
    -0.125
    -0.125
    -0.125
    -0.125
    -0.125
    -0.125
     0.125
     0.125
     0.125
     0.125
     0.125
     0.125
     0.125
     0.125
     0.125
     0.125
     0.125
     0.125
   5.58333
     0.125
     0.125
     0.125
     0.125
     0.125
     0.125
     0.125
     0.125
     0.125
     0.125
     0.125
     0.125
    -0.125
    -0.125
    -0.125
    -0.125
    -0.125
    -0.125
    -0.125
    -0.375
    -0.625
    -0.625
    -0.625
     -0.75
    0.0625
    0.0625
    0.0625
    0.0625
 -0.694444
    0.0625
    0.0625
    0.0625
    0.0625
    0.0625
    0.0625
    0.0625
    0.0625
    0.0625
 -0.694444
    0.0625
    0.0625
    0.0625
    0.0625
    0.0625
    0.0625
    0.0625
    0.0625
    0.0625
 -0.569444
    0.0625
    0.0625
    0.0625
    0.0625
    0.0625
    0.0625
    0.0625
    0.0625
    0.0625
 -0.694444
    0.0625
    0.0625
    0.0625
    0.0625
    0.0625
    0.0625
    0.0625
    0.0625
    0.0625
    0.0625
    0.0625
    0.0625
    0.0625
 -0.944444
    0.0625
    0.0625
    0.0625
    0.0625
    0.0625
    0.0625
    0.0625
    0.0625
 0.0694444
 0.0694444
 0.0694444
 0.0694444
 0.0694444
 -0.972222
 0.0694444
 0.0694444
 0.0694444
 0.0694444
 0.0694444
 0.0869637
  0.239314
  0.163036
  0.163036
  0.163036
  0.163036
  -1.63036
  0.163036
  0.163036
  0.163036
  0.163036
 -0.173927
 0.0694444
 0.0694444
 0.0694444
 0.0694444
 -0.555556
 0.0694444
 0.0694444
 0.0694444
 0.0694444
 -0.277778
 -0.277778
 -0.277778
 -0.277778
 -0.138889
  0.138889
  0.138889
  0.138889
  0.138889
  0.138889
  0.138889
  0.138889
  0.138889
  0.138889
  0.524691
  0.138889
  0.138889
  0.138889
  0.138889
  0.138889
  0.138889
  0.138889
  0.138889
  0.138889
 -0.138889
 -0.277778
 -0.277778
 -0.277778
 -0.277778
 0.0694444
 0.0694444
 0.0694444
 0.0694444
 -0.555556
 0.0694444
 0.0694444
 0.0694444
 0.0694444
 0.0694444
 0.0694444
 0.0694444
 0.0694444
 -0.555556
 0.0694444
 0.0694444
 0.0694444
 0.0694444
    0.0625
    0.0625
    0.0625
    0.0625
    0.0625
    0.0625
        -1
    0.0625
    0.0625
    0.0625
    0.0625
    0.0625
    0.0625
    0.0625
    0.0625
    0.0625
    0.0625
    0.0625
        -1
    0.0625
    0.0625
    0.0625
    0.0625
    0.0625
    0.0625
    0.0625
    0.0625
    0.0625
        -1
    0.0625
    0.0625
    0.0625
    0.0625
    0.0625
    0.0625
    -0.875
    0.0625
    0.0625
      -0.5
      -0.5
    -0.375
    -0.125
    -0.125
    -0.125
    -0.125
    -0.125
    -0.125
    -0.125
    -0.125
     0.125
     0.125
     0.125
     0.125
     0.125
     0.125
     0.125
     0.125
      6.25
     0.125
     0.125
     0.125
     0.125
     0.125
     0.125
     0.125
     0.125
    -0.125
    -0.125
    -0.125
    -0.125
    -0.125
    -0.125
    -0.125
    -0.125
    -0.375
      -0.5
      -0.5
    0.0625
    0.0625
    -0.875
    0.0625
    0.0625
    0.0625
    0.0625
    0.0625
    0.0625
        -1
    0.0625
    0.0625
    0.0625
    0.0625
    0.0625
    0.0625
    0.0625
    0.0625
    0.0625
        -1
    0.0625
    0.0625
    0.0625
    0.0625
    0.0625
    0.0625
    0.0625
    0.0625
    0.0625
    0.0625
    0.0625
        -1
    0.0625
    0.0625
    0.0625
    0.0625
    0.0625
    0.0625
  0.138889
    0.0625
     -0.25
    0.0625
     -0.25
    -0.125
     -0.25
     -0.25
     -0.25
    -0.125
    -0.125
     0.125
     0.125
     0.125
     0.125
     0.125
     0.125
   1.86111
     0.125
     0.125
     0.125
     0.125
     0.125
     0.125
    -0.125
    -0.125
     -0.25
     -0.25
     -0.25
    -0.125
     -0.25
    0.0625
     -0.25
    0.0625
  0.138889
     -0.25
    -0.125
     -0.25
     -0.25
     -0.25
    -0.125
     0.125
     0.125
     0.125
     0.125
     0.125
     0.125
   1.61111
     0.125
     0.125
     0.125
     0.125
     0.125
     0.125
    -0.125
     -0.25
     -0.25
     -0.25
    -0.125
     -0.25
     -0.25
     -0.25
     -0.25
     -0.25
    -0.125
     0.125
     0.125
     0.125
     0.125
     0.125
     0.125
     0.125
     0.125
   1.61111
     0.125
     0.125
     0.125
     0.125
     0.125
     0.125
     0.125
     0.125
    -0.125
     -0.25
     -0.25
     -0.25
     -0.25
     -0.25
     -0.25
    -0.125
    -0.125
     0.125
     0.125
     0.125
     0.125
     0.125
     0.125
     0.125
     0.125
   1.11111
     0.125
     0.125
     0.125
     0.125
     0.125
     0.125
     0.125
     0.125
    -0.125
    -0.125
     -0.25
     -0.25
     0.125
     0.125
     0.125
     0.125
     0.125
     0.125
     0.125
     0.125
     0.125
  0.222222
     0.125
     0.125
     0.125
     0.125
     0.125
     0.125
     0.125
     0.125
     0.125
     0.125
     0.125
     0.125
     0.125
     0.125
     0.125
     0.125
     0.125
-0.0277778
     0.125
     0.125
     0.125
     0.125
     0.125
     0.125
     0.125
     0.125
     0.125
     0.125
     0.125
     0.125
     0.125
     0.125
 -0.277778
     0.125
     0.125
     0.125
     0.125
     0.125
     0.125
     0.125
     0.125
     0.125
     0.125
     0.125
  -1.02778
     0.125
     0.125
     0.125
     0.125
     0.125
  -1.02778
  -1.38889
        -2
        -2
        -2
      -1.5
        -1
     -0.75
      -0.5
      -0.5
      -0.5
      -0.5
      -0.5
      -0.5
      -0.5
      -0.5
     -0.25
     -0.25
     -0.25
     -0.25
      0.25
      0.25
      0.25
      0.25
      0.25
      0.25
      0.25
      0.25
      0.25
      0.25
      0.25
   7.26543
      0.25
      0.25
      0.25
      0.25
      0.25
      0.25
      0.25
      0.25
      0.25
      0.25
      0.25
     -0.25
     -0.25
     -0.25
     -0.25
      -0.5
      -0.5
      -0.5
      -0.5
      -0.5
      -0.5
      -0.5
      -0.5
     -0.75
        -1
      -1.5
        -2
        -2
        -2
  -1.38889
  -1.02778
     0.125
     0.125
     0.125
     0.125
     0.125
  -1.02778
     0.125
     0.125
     0.125
     0.125
     0.125
     0.125
     0.125
     0.125
     0.125
     0.125
     0.125
 -0.277778
     0.125
     0.125
     0.125
     0.125
     0.125
     0.125
     0.125
     0.125
     0.125
     0.125
     0.125
     0.125
     0.125
     0.125
-0.0277778
     0.125
     0.125
     0.125
     0.125
     0.125
     0.125
     0.125
     0.125
     0.125
     0.125
     0.125
     0.125
     0.125
     0.125
     0.125
     0.125
     0.125
  0.222222
     0.125
     0.125
     0.125
     0.125
     0.125
     0.125
     0.125
     0.125
     0.125
     -0.25
     -0.25
    -0.125
    -0.125
     0.125
     0.125
     0.125
     0.125
     0.125
     0.125
     0.125
     0.125
   1.11111
     0.125
     0.125
     0.125
     0.125
     0.125
     0.125
     0.125
     0.125
    -0.125
    -0.125
     -0.25
     -0.25
     -0.25
     -0.25
     -0.25
     -0.25
    -0.125
     0.125
     0.125
     0.125
     0.125
     0.125
     0.125
     0.125
     0.125
   1.61111
     0.125
     0.125
     0.125
     0.125
     0.125
     0.125
     0.125
     0.125
    -0.125
     -0.25
     -0.25
     -0.25
     -0.25
     -0.25
    -0.125
     -0.25
     -0.25
     -0.25
    -0.125
     0.125
     0.125
     0.125
     0.125
     0.125
     0.125
   1.61111
     0.125
     0.125
     0.125
     0.125
     0.125
     0.125
    -0.125
     -0.25
     -0.25
     -0.25
    -0.125
     -0.25
  0.138889
    0.0625
     -0.25
    0.0625
     -0.25
    -0.125
     -0.25
     -0.25
     -0.25
    -0.125
    -0.125
     0.125
     0.125
     0.125
     0.125
     0.125
     0.125
   1.86111
     0.125
     0.125
     0.125
     0.125
     0.125
     0.125
    -0.125
    -0.125
     -0.25
     -0.25
     -0.25
    -0.125
     -0.25
    0.0625
     -0.25
    0.0625
  0.138889
    0.0625
    0.0625
    0.0625
    0.0625
    0.0625
    0.0625
        -1
    0.0625
    0.0625
    0.0625
    0.0625
    0.0625
    0.0625
    0.0625
    0.0625
    0.0625
    0.0625
    0.0625
        -1
    0.0625
    0.0625
    0.0625
    0.0625
    0.0625
    0.0625
    0.0625
    0.0625
    0.0625
        -1
    0.0625
    0.0625
    0.0625
    0.0625
    0.0625
    0.0625
    -0.875
    0.0625
    0.0625
      -0.5
      -0.5
    -0.375
    -0.125
    -0.125
    -0.125
    -0.125
    -0.125
    -0.125
    -0.125
    -0.125
     0.125
     0.125
     0.125
     0.125
     0.125
     0.125
     0.125
     0.125
      6.25
     0.125
     0.125
     0.125
     0.125
     0.125
     0.125
     0.125
     0.125
    -0.125
    -0.125
    -0.125
    -0.125
    -0.125
    -0.125
    -0.125
    -0.125
    -0.375
      -0.5
      -0.5
    0.0625
    0.0625
    -0.875
    0.0625
    0.0625
    0.0625
    0.0625
    0.0625
    0.0625
        -1
    0.0625
    0.0625
    0.0625
    0.0625
    0.0625
    0.0625
    0.0625
    0.0625
    0.0625
        -1
    0.0625
    0.0625
    0.0625
    0.0625
    0.0625
    0.0625
    0.0625
    0.0625
    0.0625
    0.0625
    0.0625
        -1
    0.0625
    0.0625
    0.0625
    0.0625
    0.0625
    0.0625
 0.0694444
 0.0694444
 0.0694444
 0.0694444
 -0.555556
 0.0694444
 0.0694444
 0.0694444
 0.0694444
 -0.326073
  0.173927
 -0.277778
 -0.277778
 -0.277778
 -0.277778
  0.138889
  0.138889
  0.138889
  0.138889
  0.138889
  0.138889
  0.138889
  0.138889
  0.138889
 -0.308642
  0.138889
  0.138889
  0.138889
  0.138889
  0.138889
  0.138889
  0.138889
  0.138889
  0.138889
 -0.277778
 -0.277778
 -0.277778
 -0.277778
  0.138889
    -0.125
     -0.25
     -0.25
     -0.25
     -0.25
     -0.25
    -0.125
     0.125
     0.125
     0.125
     0.125
     0.125
     0.125
     0.125
     0.125
   1.36111
     0.125
     0.125
     0.125
     0.125
     0.125
     0.125
     0.125
     0.125
    -0.125
     -0.25
     -0.25
     -0.25
     -0.25
     -0.25
    -0.125
     -0.25
     -0.25
     -0.25
     -0.25
     -0.25
    -0.125
     0.125
     0.125
     0.125
     0.125
     0.125
     0.125
     0.125
     0.125
   1.61111
     0.125
     0.125
     0.125
     0.125
     0.125
     0.125
     0.125
     0.125
    -0.125
     -0.25
     -0.25
     -0.25
     -0.25
     -0.25
     -0.25
     -0.25
     -0.25
     -0.25
    -0.125
     0.125
     0.125
     0.125
     0.125
     0.125
     0.125
     0.125
     0.125
   1.97222
     0.125
     0.125
     0.125
     0.125
     0.125
     0.125
     0.125
     0.125
    -0.125
     -0.25
     -0.25
     -0.25
     -0.25
     -0.25
     -0.25
    -0.125
    -0.125
     0.125
     0.125
     0.125
     0.125
     0.125
     0.125
     0.125
     0.125
   1.72222
     0.125
     0.125
     0.125
     0.125
     0.125
     0.125
     0.125
     0.125
    -0.125
    -0.125
     -0.25
     -0.25
     0.125
     0.125
     0.125
     0.125
     0.125
     0.125
     0.125
     0.125
     0.125
 -0.277778
     0.125
     0.125
     0.125
     0.125
     0.125
     0.125
     0.125
     0.125
     0.125
     0.125
     0.125
     0.125
     0.125
     0.125
     0.125
     0.125
-0.0277778
     0.125
     0.125
     0.125
     0.125
     0.125
     0.125
     0.125
     0.125
     0.125
     0.125
     0.125
     0.125
     0.125
 -0.277778
     0.125
     0.125
     0.125
     0.125
     0.125
     0.125
     0.125
     0.125
 -0.277778
     0.125
     0.125
  -1.88889
  -1.88889
     -1.75
     -1.75
     -1.75
        -1
     -0.75
     -0.75
      -0.5
      -0.5
      -0.5
      -0.5
      -0.5
      -0.5
      -0.5
      -0.5
     -0.25
     -0.25
     -0.25
      0.25
      0.25
      0.25
      0.25
      0.25
      0.25
      0.25
   7.82099
      0.25
      0.25
      0.25
      0.25
      0.25
      0.25
      0.25
     -0.25
     -0.25
     -0.25
      -0.5
      -0.5
      -0.5
      -0.5
      -0.5
      -0.5
      -0.5
      -0.5
     -0.75
     -0.75
        -1
     -1.75
     -1.75
     -1.75
  -1.88889
  -1.88889
     0.125
     0.125
 -0.277778
     0.125
     0.125
     0.125
     0.125
     0.125
     0.125
     0.125
     0.125
 -0.277778
     0.125
     0.125
     0.125
     0.125
     0.125
     0.125
     0.125
     0.125
     0.125
     0.125
     0.125
     0.125
     0.125
-0.0277778
     0.125
     0.125
     0.125
     0.125
     0.125
     0.125
     0.125
     0.125
     0.125
     0.125
     0.125
     0.125
     0.125
     0.125
     0.125
     0.125
 -0.277778
     0.125
     0.125
     0.125
     0.125
     0.125
     0.125
     0.125
     0.125
     0.125
     -0.25
     -0.25
    -0.125
    -0.125
     0.125
     0.125
     0.125
     0.125
     0.125
     0.125
     0.125
     0.125
   1.72222
     0.125
     0.125
     0.125
     0.125
     0.125
     0.125
     0.125
     0.125
    -0.125
    -0.125
     -0.25
     -0.25
     -0.25
     -0.25
     -0.25
     -0.25
    -0.125
     0.125
     0.125
     0.125
     0.125
     0.125
     0.125
     0.125
     0.125
   1.97222
     0.125
     0.125
     0.125
     0.125
     0.125
     0.125
     0.125
     0.125
    -0.125
     -0.25
     -0.25
     -0.25
     -0.25
     -0.25
     -0.25
     -0.25
     -0.25
     -0.25
    -0.125
     0.125
     0.125
     0.125
     0.125
     0.125
     0.125
     0.125
     0.125
   1.61111
     0.125
     0.125
     0.125
     0.125
     0.125
     0.125
     0.125
     0.125
    -0.125
     -0.25
     -0.25
     -0.25
     -0.25
     -0.25
    -0.125
     -0.25
     -0.25
     -0.25
     -0.25
     -0.25
    -0.125
     0.125
     0.125
     0.125
     0.125
     0.125
     0.125
     0.125
     0.125
   1.36111
     0.125
     0.125
     0.125
     0.125
     0.125
     0.125
     0.125
     0.125
    -0.125
     -0.25
     -0.25
     -0.25
     -0.25
     -0.25
    -0.125
  0.138889
  0.326073
 -0.833333
     -0.25
    -0.125
     0.125
     0.125
     0.125
     0.125
     0.125
     0.125
     0.125
     0.125
     0.125
  -1.02778
     0.125
     0.125
     0.125
     0.125
     0.125
     0.125
     0.125
     0.125
     0.125
    -0.125
     -0.25
    -0.125
     0.125
     0.125
     0.125
     0.125
     0.125
     0.125
     0.125
 -0.277778
     0.125
     0.125
     0.125
     0.125
     0.125
     0.125
     0.125
    -0.125
     0.125
     0.125
     0.125
     0.125
     0.125
     0.125
 -0.277778
     0.125
     0.125
     0.125
     0.125
     0.125
     0.125
     0.125
     0.125
      -0.5
     0.125
     0.125
     -0.25
     -0.25
     -0.25
     -0.75
        -1
        -1
     -0.75
     -0.75
     -0.75
     -0.75
     -0.75
     -0.25
     -0.25
     -0.25
     -0.25
      0.25
      0.25
      0.25
      0.25
      0.25
      0.25
      0.25
      0.25
      0.25
   6.33333
      0.25
      0.25
      0.25
      0.25
      0.25
      0.25
      0.25
      0.25
      0.25
     -0.25
     -0.25
     -0.25
     -0.25
     -0.75
     -0.75
     -0.75
     -0.75
     -0.75
        -1
        -1
     -0.75
     -0.25
     -0.25
     -0.25
     0.125
     0.125
      -0.5
     0.125
     0.125
     0.125
     0.125
     0.125
     0.125
     0.125
     0.125
 -0.277778
     0.125
     0.125
     0.125
     0.125
     0.125
     0.125
    -0.125
     0.125
     0.125
     0.125
     0.125
     0.125
     0.125
     0.125
 -0.277778
     0.125
     0.125
     0.125
     0.125
     0.125
     0.125
     0.125
    -0.125
     -0.25
    -0.125
     0.125
     0.125
     0.125
     0.125
     0.125
     0.125
     0.125
     0.125
     0.125
  -1.02778
     0.125
     0.125
     0.125
     0.125
     0.125
     0.125
     0.125
     0.125
     0.125
    -0.125
     -0.25
 -0.555556
    -0.125
     0.125
     0.125
     0.125
     0.125
     0.125
     0.125
-0.0277778
     0.125
     0.125
     0.125
     0.125
     0.125
     0.125
    -0.125
     0.125
     0.125
     0.125
     0.125
     0.125
     0.125
 -0.277778
     0.125
     0.125
     0.125
     0.125
     0.125
     0.125
     0.125
     -0.25
     0.125
     -0.25
     -0.25
        -1
        -1
     -0.75
     -0.75
     -0.75
     -0.75
     -0.75
     -0.75
     -0.25
     -0.25
     -0.25
     -0.25
      0.25
      0.25
      0.25
      0.25
      0.25
      0.25
      0.25
      0.25
      0.25
      0.25
   4.83333
      0.25
      0.25
      0.25
      0.25
      0.25
      0.25
      0.25
      0.25
      0.25
      0.25
     -0.25
     -0.25
     -0.25
     -0.25
     -0.75
     -0.75
     -0.75
     -0.75
     -0.75
     -0.75
        -1
        -1
     -0.25
     -0.25
     0.125
     -0.25
     0.125
     0.125
     0.125
     0.125
     0.125
     0.125
     0.125
 -0.277778
     0.125
     0.125
     0.125
     0.125
     0.125
     0.125
    -0.125
     0.125
     0.125
     0.125
     0.125
     0.125
     0.125
-0.0277778
     0.125
     0.125
     0.125
     0.125
     0.125
     0.125
    -0.125
 -0.277778
     0.125
     0.125
     0.125
     0.125
     0.125
     0.125
-0.0277778
     0.125
     0.125
     0.125
     0.125
     0.125
     0.125
     -0.25
     -1.25
     -1.25
     -0.75
      -0.5
      -0.5
     -0.75
     -0.75
     -0.75
     -0.25
     -0.25
     -0.25
      0.25
      0.25
      0.25
      0.25
      0.25
      0.25
      0.25
      0.25
      0.25
      0.25
   2.11111
      0.25
      0.25
      0.25
      0.25
      0.25
      0.25
      0.25
      0.25
      0.25
      0.25
     -0.25
     -0.25
     -0.25
     -0.75
     -0.75
     -0.75
      -0.5
      -0.5
     -0.75
     -1.25
     -1.25
     -0.25
     0.125
     0.125
     0.125
     0.125
     0.125
     0.125
-0.0277778
     0.125
     0.125
     0.125
     0.125
     0.125
     0.125
 -0.277778
     -0.25
     -0.25
     -1.25
     -1.25
      -0.5
     -0.75
     -0.75
     -0.75
     -0.75
     -0.75
     -0.25
     -0.25
      0.25
      0.25
      0.25
      0.25
      0.25
      0.25
      0.25
      0.25
      0.25
      0.25
      0.25
   2.61111
      0.25
      0.25
      0.25
      0.25
      0.25
      0.25
      0.25
      0.25
      0.25
      0.25
      0.25
     -0.25
     -0.25
     -0.75
     -0.75
     -0.75
     -0.75
     -0.75
      -0.5
     -1.25
     -1.25
     -0.25
     -0.25
        -1
     -0.75
     -0.75
     -0.75
     -0.75
     -0.75
     -0.75
     -0.75
     -0.75
     -0.25
     -0.25
      0.25
      0.25
      0.25
      0.25
      0.25
      0.25
      0.25
      0.25
   7.11111
      0.25
      0.25
      0.25
      0.25
      0.25
      0.25
      0.25
      0.25
     -0.25
     -0.25
     -0.75
     -0.75
     -0.75
     -0.75
     -0.75
     -0.75
     -0.75
     -0.75
        -1
     -0.75
     -0.75
     -0.75
     -0.75
     -0.75
     -0.75
     -0.75
      -0.5
     -0.25
      0.25
      0.25
      0.25
      0.25
      0.25
      0.25
      0.25
      0.25
   6.33333
      0.25
      0.25
      0.25
      0.25
      0.25
      0.25
      0.25
      0.25
     -0.25
      -0.5
     -0.75
     -0.75
     -0.75
     -0.75
     -0.75
     -0.75
     -0.75
     -0.75
     -0.75
     -0.75
     -0.75
     -0.75
     -0.75
     -0.25
     -0.25
      0.25
      0.25
      0.25
      0.25
      0.25
      0.25
      0.25
      0.25
      0.25
   5.55556
      0.25
      0.25
      0.25
      0.25
      0.25
      0.25
      0.25
      0.25
      0.25
     -0.25
     -0.25
     -0.75
     -0.75
     -0.75
     -0.75
     -0.75
     -0.75
     -0.75
     -0.75
      -0.5
      -0.5
      -0.5
     -0.25
      0.25
      0.25
      0.25
      0.25
      0.25
      0.25
      0.25
      0.25
      0.25
   5.05556
      0.25
      0.25
      0.25
      0.25
      0.25
      0.25
      0.25
      0.25
      0.25
     -0.25
      -0.5
      -0.5
      -0.5
     -0.75
     -0.75
     -0.25
     -0.25
      0.25
      0.25
      0.25
      0.25
      0.25
      0.25
   8.77778
      0.25
      0.25
      0.25
      0.25
      0.25
      0.25
     -0.25
     -0.25
      0.25
      0.25
      0.25
      0.25
      0.25
      0.25
      0.25
       8.5
      0.25
      0.25
      0.25
      0.25
      0.25
      0.25
      0.25
      0.25
      0.25
      0.25
      0.25
      0.25
   8.44444
      0.25
      0.25
      0.25
      0.25
      0.25
      0.25
      0.25
      0.25
      0.25
   7.44444
      0.25
      0.25
      0.25
      0.25
      0.25
      0.25
      0.25
   7.44444
      0.25
      0.25
      0.25
      0.25
      0.25
   5.94444
      0.25
      0.25
      0.25
   3.66667
      0.25
   1.94444
  0.944444
  0.944444
  0.944444
  0.444444
  -1.77778
      -2.5
      -2.5
        -2
        -1
        -1
        -1
      -1.5
        -3
        -3
      -1.5
      -1.5
      -1.5
      -1.5
      -1.5
        -1
        -1
        -1
        -1
      -0.5
      -0.5
       0.5
       0.5
       0.5
       0.5
       0.5
       0.5
       0.5
       0.5
       0.5
       0.5
  -46.5052
       0.5
       0.5
       0.5
       0.5
       0.5
       0.5
       0.5
       0.5
       0.5
       0.5
      -0.5
      -0.5
        -1
        -1
        -1
        -1
      -1.5
      -1.5
      -1.5
      -1.5
      -1.5
        -3
        -3
      -1.5
        -1
        -1
        -1
        -2
      -2.5
      -2.5
  -1.77778
  0.444444
  0.944444
  0.944444
  0.944444
   1.94444
      0.25
   3.66667
      0.25
      0.25
      0.25
   5.94444
      0.25
      0.25
      0.25
      0.25
      0.25
   7.44444
      0.25
      0.25
      0.25
      0.25
      0.25
      0.25
      0.25
   7.44444
      0.25
      0.25
      0.25
      0.25
      0.25
      0.25
      0.25
      0.25
      0.25
   8.44444
      0.25
      0.25
      0.25
      0.25
      0.25
      0.25
      0.25
      0.25
      0.25
      0.25
      0.25
      0.25
       8.5
      0.25
      0.25
      0.25
      0.25
      0.25
      0.25
      0.25
     -0.25
     -0.25
      0.25
      0.25
      0.25
      0.25
      0.25
      0.25
   8.77778
      0.25
      0.25
      0.25
      0.25
      0.25
      0.25
     -0.25
     -0.25
     -0.75
     -0.75
      -0.5
      -0.5
      -0.5
     -0.25
      0.25
      0.25
      0.25
      0.25
      0.25
      0.25
      0.25
      0.25
      0.25
   5.05556
      0.25
      0.25
      0.25
      0.25
      0.25
      0.25
      0.25
      0.25
      0.25
     -0.25
      -0.5
      -0.5
      -0.5
     -0.75
     -0.75
     -0.75
     -0.75
     -0.75
     -0.75
     -0.75
     -0.75
     -0.25
     -0.25
      0.25
      0.25
      0.25
      0.25
      0.25
      0.25
      0.25
      0.25
      0.25
   5.55556
      0.25
      0.25
      0.25
      0.25
      0.25
      0.25
      0.25
      0.25
      0.25
     -0.25
     -0.25
     -0.75
     -0.75
     -0.75
     -0.75
     -0.75
     -0.75
     -0.75
     -0.75
     -0.75
     -0.75
     -0.75
     -0.75
     -0.75
      -0.5
     -0.25
      0.25
      0.25
      0.25
      0.25
      0.25
      0.25
      0.25
      0.25
   6.33333
      0.25
      0.25
      0.25
      0.25
      0.25
      0.25
      0.25
      0.25
     -0.25
      -0.5
     -0.75
     -0.75
     -0.75
     -0.75
     -0.75
     -0.75
     -0.75
        -1
     -0.75
     -0.75
     -0.75
     -0.75
     -0.75
     -0.75
     -0.75
     -0.75
     -0.25
     -0.25
      0.25
      0.25
      0.25
      0.25
      0.25
      0.25
      0.25
      0.25
   7.11111
      0.25
      0.25
      0.25
      0.25
      0.25
      0.25
      0.25
      0.25
     -0.25
     -0.25
     -0.75
     -0.75
     -0.75
     -0.75
     -0.75
     -0.75
     -0.75
     -0.75
        -1
     -0.25
     -0.25
     -1.25
     -1.25
      -0.5
     -0.75
     -0.75
     -0.75
     -0.75
     -0.75
     -0.25
     -0.25
      0.25
      0.25
      0.25
      0.25
      0.25
      0.25
      0.25
      0.25
      0.25
      0.25
      0.25
   2.61111
      0.25
      0.25
      0.25
      0.25
      0.25
      0.25
      0.25
      0.25
      0.25
      0.25
      0.25
     -0.25
     -0.25
     -0.75
     -0.75
     -0.75
     -0.75
     -0.75
      -0.5
     -1.25
     -1.25
     -0.25
     -0.25
 -0.277778
     0.125
     0.125
     0.125
     0.125
     0.125
     0.125
-0.0277778
     0.125
     0.125
     0.125
     0.125
     0.125
     0.125
     -0.25
     -1.25
     -1.25
     -0.75
      -0.5
      -0.5
     -0.75
     -0.75
     -0.75
     -0.25
     -0.25
     -0.25
      0.25
      0.25
      0.25
      0.25
      0.25
      0.25
      0.25
      0.25
      0.25
      0.25
   2.11111
      0.25
      0.25
      0.25
      0.25
      0.25
      0.25
      0.25
      0.25
      0.25
      0.25
     -0.25
     -0.25
     -0.25
     -0.75
     -0.75
     -0.75
      -0.5
      -0.5
     -0.75
     -1.25
     -1.25
     -0.25
     0.125
     0.125
     0.125
     0.125
     0.125
     0.125
-0.0277778
     0.125
     0.125
     0.125
     0.125
     0.125
     0.125
 -0.277778
    -0.125
     0.125
     0.125
     0.125
     0.125
     0.125
     0.125
-0.0277778
     0.125
     0.125
     0.125
     0.125
     0.125
     0.125
    -0.125
     0.125
     0.125
     0.125
     0.125
     0.125
     0.125
 -0.277778
     0.125
     0.125
     0.125
     0.125
     0.125
     0.125
     0.125
     -0.25
     0.125
     -0.25
     -0.25
        -1
        -1
     -0.75
     -0.75
     -0.75
     -0.75
     -0.75
     -0.75
     -0.25
     -0.25
     -0.25
     -0.25
      0.25
      0.25
      0.25
      0.25
      0.25
      0.25
      0.25
      0.25
      0.25
      0.25
   4.83333
      0.25
      0.25
      0.25
      0.25
      0.25
      0.25
      0.25
      0.25
      0.25
      0.25
     -0.25
     -0.25
     -0.25
     -0.25
     -0.75
     -0.75
     -0.75
     -0.75
     -0.75
     -0.75
        -1
        -1
     -0.25
     -0.25
     0.125
     -0.25
     0.125
     0.125
     0.125
     0.125
     0.125
     0.125
     0.125
 -0.277778
     0.125
     0.125
     0.125
     0.125
     0.125
     0.125
    -0.125
     0.125
     0.125
     0.125
     0.125
     0.125
     0.125
-0.0277778
     0.125
     0.125
     0.125
     0.125
     0.125
     0.125
    -0.125
 -0.555556
     -0.25
    -0.125
     0.125
     0.125
     0.125
     0.125
     0.125
     0.125
     0.125
     0.125
     0.125
  -1.02778
     0.125
     0.125
     0.125
     0.125
     0.125
     0.125
     0.125
     0.125
     0.125
    -0.125
     -0.25
    -0.125
     0.125
     0.125
     0.125
     0.125
     0.125
     0.125
     0.125
 -0.277778
     0.125
     0.125
     0.125
     0.125
     0.125
     0.125
     0.125
    -0.125
     0.125
     0.125
     0.125
     0.125
     0.125
     0.125
 -0.277778
     0.125
     0.125
     0.125
     0.125
     0.125
     0.125
     0.125
     0.125
      -0.5
     0.125
     0.125
     -0.25
     -0.25
     -0.25
     -0.75
        -1
        -1
     -0.75
     -0.75
     -0.75
     -0.75
     -0.75
     -0.25
     -0.25
     -0.25
     -0.25
      0.25
      0.25
      0.25
      0.25
      0.25
      0.25
      0.25
      0.25
      0.25
   6.33333
      0.25
      0.25
      0.25
      0.25
      0.25
      0.25
      0.25
      0.25
      0.25
     -0.25
     -0.25
     -0.25
     -0.25
     -0.75
     -0.75
     -0.75
     -0.75
     -0.75
        -1
        -1
     -0.75
     -0.25
     -0.25
     -0.25
     0.125
     0.125
      -0.5
     0.125
     0.125
     0.125
     0.125
     0.125
     0.125
     0.125
     0.125
 -0.277778
     0.125
     0.125
     0.125
     0.125
     0.125
     0.125
    -0.125
     0.125
     0.125
     0.125
     0.125
     0.125
     0.125
     0.125
 -0.277778
     0.125
     0.125
     0.125
     0.125
     0.125
     0.125
     0.125
    -0.125
     -0.25
    -0.125
     0.125
     0.125
     0.125
     0.125
     0.125
     0.125
     0.125
     0.125
     0.125
  -1.02778
     0.125
     0.125
     0.125
     0.125
     0.125
     0.125
     0.125
     0.125
     0.125
    -0.125
     -0.25
 -0.833333
  0.326073
  0.138889
    -0.125
     -0.25
     -0.25
     -0.25
     -0.25
     -0.25
    -0.125
     0.125
     0.125
     0.125
     0.125
     0.125
     0.125
     0.125
     0.125
   1.36111
     0.125
     0.125
     0.125
     0.125
     0.125
     0.125
     0.125
     0.125
    -0.125
     -0.25
     -0.25
     -0.25
     -0.25
     -0.25
    -0.125
     -0.25
     -0.25
     -0.25
     -0.25
     -0.25
    -0.125
     0.125
     0.125
     0.125
     0.125
     0.125
     0.125
     0.125
     0.125
   1.61111
     0.125
     0.125
     0.125
     0.125
     0.125
     0.125
     0.125
     0.125
    -0.125
     -0.25
     -0.25
     -0.25
     -0.25
     -0.25
     -0.25
     -0.25
     -0.25
     -0.25
    -0.125
     0.125
     0.125
     0.125
     0.125
     0.125
     0.125
     0.125
     0.125
   1.97222
     0.125
     0.125
     0.125
     0.125
     0.125
     0.125
     0.125
     0.125
    -0.125
     -0.25
     -0.25
     -0.25
     -0.25
     -0.25
     -0.25
    -0.125
    -0.125
     0.125
     0.125
     0.125
     0.125
     0.125
     0.125
     0.125
     0.125
   1.72222
     0.125
     0.125
     0.125
     0.125
     0.125
     0.125
     0.125
     0.125
    -0.125
    -0.125
     -0.25
     -0.25
     0.125
     0.125
     0.125
     0.125
     0.125
     0.125
     0.125
     0.125
     0.125
 -0.277778
     0.125
     0.125
     0.125
     0.125
     0.125
     0.125
     0.125
     0.125
     0.125
     0.125
     0.125
     0.125
     0.125
     0.125
     0.125
     0.125
-0.0277778
     0.125
     0.125
     0.125
     0.125
     0.125
     0.125
     0.125
     0.125
     0.125
     0.125
     0.125
     0.125
     0.125
 -0.277778
     0.125
     0.125
     0.125
     0.125
     0.125
     0.125
     0.125
     0.125
 -0.277778
     0.125
     0.125
  -1.88889
  -1.88889
     -1.75
     -1.75
     -1.75
        -1
     -0.75
     -0.75
      -0.5
      -0.5
      -0.5
      -0.5
      -0.5
      -0.5
      -0.5
      -0.5
     -0.25
     -0.25
     -0.25
      0.25
      0.25
      0.25
      0.25
      0.25
      0.25
      0.25
   7.82099
      0.25
      0.25
      0.25
      0.25
      0.25
      0.25
      0.25
     -0.25
     -0.25
     -0.25
      -0.5
      -0.5
      -0.5
      -0.5
      -0.5
      -0.5
      -0.5
      -0.5
     -0.75
     -0.75
        -1
     -1.75
     -1.75
     -1.75
  -1.88889
  -1.88889
     0.125
     0.125
 -0.277778
     0.125
     0.125
     0.125
     0.125
     0.125
     0.125
     0.125
     0.125
 -0.277778
     0.125
     0.125
     0.125
     0.125
     0.125
     0.125
     0.125
     0.125
     0.125
     0.125
     0.125
     0.125
     0.125
-0.0277778
     0.125
     0.125
     0.125
     0.125
     0.125
     0.125
     0.125
     0.125
     0.125
     0.125
     0.125
     0.125
     0.125
     0.125
     0.125
     0.125
 -0.277778
     0.125
     0.125
     0.125
     0.125
     0.125
     0.125
     0.125
     0.125
     0.125
     -0.25
     -0.25
    -0.125
    -0.125
     0.125
     0.125
     0.125
     0.125
     0.125
     0.125
     0.125
     0.125
   1.72222
     0.125
     0.125
     0.125
     0.125
     0.125
     0.125
     0.125
     0.125
    -0.125
    -0.125
     -0.25
     -0.25
     -0.25
     -0.25
     -0.25
     -0.25
    -0.125
     0.125
     0.125
     0.125
     0.125
     0.125
     0.125
     0.125
     0.125
   1.97222
     0.125
     0.125
     0.125
     0.125
     0.125
     0.125
     0.125
     0.125
    -0.125
     -0.25
     -0.25
     -0.25
     -0.25
     -0.25
     -0.25
     -0.25
     -0.25
     -0.25
    -0.125
     0.125
     0.125
     0.125
     0.125
     0.125
     0.125
     0.125
     0.125
   1.61111
     0.125
     0.125
     0.125
     0.125
     0.125
     0.125
     0.125
     0.125
    -0.125
     -0.25
     -0.25
     -0.25
     -0.25
     -0.25
    -0.125
     -0.25
     -0.25
     -0.25
     -0.25
     -0.25
    -0.125
     0.125
     0.125
     0.125
     0.125
     0.125
     0.125
     0.125
     0.125
   1.36111
     0.125
     0.125
     0.125
     0.125
     0.125
     0.125
     0.125
     0.125
    -0.125
     -0.25
     -0.25
     -0.25
     -0.25
     -0.25
    -0.125
  0.138889
 -0.277778
 -0.277778
 -0.277778
 -0.277778
  0.138889
  0.138889
  0.138889
  0.138889
  0.138889
  0.138889
  0.138889
  0.138889
  0.138889
 -0.308642
  0.138889
  0.138889
  0.138889
  0.138889
  0.138889
  0.138889
  0.138889
  0.138889
  0.138889
 -0.277778
 -0.277778
 -0.277778
 -0.277778
  0.173927
 -0.326073
 0.0694444
 0.0694444
 0.0694444
 0.0694444
 -0.555556
 0.0694444
 0.0694444
 0.0694444
 0.0694444
    0.0625
    0.0625
    0.0625
    0.0625
    0.0625
    0.0625
        -1
    0.0625
    0.0625
    0.0625
    0.0625
    0.0625
    0.0625
    0.0625
    0.0625
    0.0625
    0.0625
    0.0625
        -1
    0.0625
    0.0625
    0.0625
    0.0625
    0.0625
    0.0625
    0.0625
    0.0625
    0.0625
        -1
    0.0625
    0.0625
    0.0625
    0.0625
    0.0625
    0.0625
    -0.875
    0.0625
    0.0625
      -0.5
      -0.5
    -0.375
    -0.125
    -0.125
    -0.125
    -0.125
    -0.125
    -0.125
    -0.125
    -0.125
     0.125
     0.125
     0.125
     0.125
     0.125
     0.125
     0.125
     0.125
      6.25
     0.125
     0.125
     0.125
     0.125
     0.125
     0.125
     0.125
     0.125
    -0.125
    -0.125
    -0.125
    -0.125
    -0.125
    -0.125
    -0.125
    -0.125
    -0.375
      -0.5
      -0.5
    0.0625
    0.0625
    -0.875
    0.0625
    0.0625
    0.0625
    0.0625
    0.0625
    0.0625
        -1
    0.0625
    0.0625
    0.0625
    0.0625
    0.0625
    0.0625
    0.0625
    0.0625
    0.0625
        -1
    0.0625
    0.0625
    0.0625
    0.0625
    0.0625
    0.0625
    0.0625
    0.0625
    0.0625
    0.0625
    0.0625
        -1
    0.0625
    0.0625
    0.0625
    0.0625
    0.0625
    0.0625
  0.138889
    0.0625
     -0.25
    0.0625
     -0.25
    -0.125
     -0.25
     -0.25
     -0.25
    -0.125
    -0.125
     0.125
     0.125
     0.125
     0.125
     0.125
     0.125
   1.86111
     0.125
     0.125
     0.125
     0.125
     0.125
     0.125
    -0.125
    -0.125
     -0.25
     -0.25
     -0.25
    -0.125
     -0.25
    0.0625
     -0.25
    0.0625
  0.138889
     -0.25
    -0.125
     -0.25
     -0.25
     -0.25
    -0.125
     0.125
     0.125
     0.125
     0.125
     0.125
     0.125
   1.61111
     0.125
     0.125
     0.125
     0.125
     0.125
     0.125
    -0.125
     -0.25
     -0.25
     -0.25
    -0.125
     -0.25
     -0.25
     -0.25
     -0.25
     -0.25
    -0.125
     0.125
     0.125
     0.125
     0.125
     0.125
     0.125
     0.125
     0.125
   1.61111
     0.125
     0.125
     0.125
     0.125
     0.125
     0.125
     0.125
     0.125
    -0.125
     -0.25
     -0.25
     -0.25
     -0.25
     -0.25
     -0.25
    -0.125
    -0.125
     0.125
     0.125
     0.125
     0.125
     0.125
     0.125
     0.125
     0.125
   1.11111
     0.125
     0.125
     0.125
     0.125
     0.125
     0.125
     0.125
     0.125
    -0.125
    -0.125
     -0.25
     -0.25
     0.125
     0.125
     0.125
     0.125
     0.125
     0.125
     0.125
     0.125
     0.125
  0.222222
     0.125
     0.125
     0.125
     0.125
     0.125
     0.125
     0.125
     0.125
     0.125
     0.125
     0.125
     0.125
     0.125
     0.125
     0.125
     0.125
     0.125
-0.0277778
     0.125
     0.125
     0.125
     0.125
     0.125
     0.125
     0.125
     0.125
     0.125
     0.125
     0.125
     0.125
     0.125
     0.125
 -0.277778
     0.125
     0.125
     0.125
     0.125
     0.125
     0.125
     0.125
     0.125
     0.125
     0.125
     0.125
  -1.02778
     0.125
     0.125
     0.125
     0.125
     0.125
  -1.02778
  -1.38889
        -2
        -2
        -2
      -1.5
        -1
     -0.75
      -0.5
      -0.5
      -0.5
      -0.5
      -0.5
      -0.5
      -0.5
      -0.5
     -0.25
     -0.25
     -0.25
     -0.25
      0.25
      0.25
      0.25
      0.25
      0.25
      0.25
      0.25
      0.25
      0.25
      0.25
      0.25
   7.26543
      0.25
      0.25
      0.25
      0.25
      0.25
      0.25
      0.25
      0.25
      0.25
      0.25
      0.25
     -0.25
     -0.25
     -0.25
     -0.25
      -0.5
      -0.5
      -0.5
      -0.5
      -0.5
      -0.5
      -0.5
      -0.5
     -0.75
        -1
      -1.5
        -2
        -2
        -2
  -1.38889
  -1.02778
     0.125
     0.125
     0.125
     0.125
     0.125
  -1.02778
     0.125
     0.125
     0.125
     0.125
     0.125
     0.125
     0.125
     0.125
     0.125
     0.125
     0.125
 -0.277778
     0.125
     0.125
     0.125
     0.125
     0.125
     0.125
     0.125
     0.125
     0.125
     0.125
     0.125
     0.125
     0.125
     0.125
-0.0277778
     0.125
     0.125
     0.125
     0.125
     0.125
     0.125
     0.125
     0.125
     0.125
     0.125
     0.125
     0.125
     0.125
     0.125
     0.125
     0.125
     0.125
  0.222222
     0.125
     0.125
     0.125
     0.125
     0.125
     0.125
     0.125
     0.125
     0.125
     -0.25
     -0.25
    -0.125
    -0.125
     0.125
     0.125
     0.125
     0.125
     0.125
     0.125
     0.125
     0.125
   1.11111
     0.125
     0.125
     0.125
     0.125
     0.125
     0.125
     0.125
     0.125
    -0.125
    -0.125
     -0.25
     -0.25
     -0.25
     -0.25
     -0.25
     -0.25
    -0.125
     0.125
     0.125
     0.125
     0.125
     0.125
     0.125
     0.125
     0.125
   1.61111
     0.125
     0.125
     0.125
     0.125
     0.125
     0.125
     0.125
     0.125
    -0.125
     -0.25
     -0.25
     -0.25
     -0.25
     -0.25
    -0.125
     -0.25
     -0.25
     -0.25
    -0.125
     0.125
     0.125
     0.125
     0.125
     0.125
     0.125
   1.61111
     0.125
     0.125
     0.125
     0.125
     0.125
     0.125
    -0.125
     -0.25
     -0.25
     -0.25
    -0.125
     -0.25
  0.138889
    0.0625
     -0.25
    0.0625
     -0.25
    -0.125
     -0.25
     -0.25
     -0.25
    -0.125
    -0.125
     0.125
     0.125
     0.125
     0.125
     0.125
     0.125
   1.86111
     0.125
     0.125
     0.125
     0.125
     0.125
     0.125
    -0.125
    -0.125
     -0.25
     -0.25
     -0.25
    -0.125
     -0.25
    0.0625
     -0.25
    0.0625
  0.138889
    0.0625
    0.0625
    0.0625
    0.0625
    0.0625
    0.0625
        -1
    0.0625
    0.0625
    0.0625
    0.0625
    0.0625
    0.0625
    0.0625
    0.0625
    0.0625
    0.0625
    0.0625
        -1
    0.0625
    0.0625
    0.0625
    0.0625
    0.0625
    0.0625
    0.0625
    0.0625
    0.0625
        -1
    0.0625
    0.0625
    0.0625
    0.0625
    0.0625
    0.0625
    -0.875
    0.0625
    0.0625
      -0.5
      -0.5
    -0.375
    -0.125
    -0.125
    -0.125
    -0.125
    -0.125
    -0.125
    -0.125
    -0.125
     0.125
     0.125
     0.125
     0.125
     0.125
     0.125
     0.125
     0.125
      6.25
     0.125
     0.125
     0.125
     0.125
     0.125
     0.125
     0.125
     0.125
    -0.125
    -0.125
    -0.125
    -0.125
    -0.125
    -0.125
    -0.125
    -0.125
    -0.375
      -0.5
      -0.5
    0.0625
    0.0625
    -0.875
    0.0625
    0.0625
    0.0625
    0.0625
    0.0625
    0.0625
        -1
    0.0625
    0.0625
    0.0625
    0.0625
    0.0625
    0.0625
    0.0625
    0.0625
    0.0625
        -1
    0.0625
    0.0625
    0.0625
    0.0625
    0.0625
    0.0625
    0.0625
    0.0625
    0.0625
    0.0625
    0.0625
        -1
    0.0625
    0.0625
    0.0625
    0.0625
    0.0625
    0.0625
 0.0694444
 0.0694444
 0.0694444
 0.0694444
 -0.555556
 0.0694444
 0.0694444
 0.0694444
 0.0694444
 0.0694444
 0.0694444
 0.0694444
 0.0694444
 -0.555556
 0.0694444
 0.0694444
 0.0694444
 0.0694444
 -0.277778
 -0.277778
 -0.277778
 -0.277778
 -0.138889
  0.138889
  0.138889
  0.138889
  0.138889
  0.138889
  0.138889
  0.138889
  0.138889
  0.138889
  0.524691
  0.138889
  0.138889
  0.138889
  0.138889
  0.138889
  0.138889
  0.138889
  0.138889
  0.138889
 -0.138889
 -0.277778
 -0.277778
 -0.277778
 -0.277778
 0.0694444
 0.0694444
 0.0694444
 0.0694444
 -0.555556
 0.0694444
 0.0694444
 0.0694444
 0.0694444
 -0.173927
  0.163036
  0.163036
  0.163036
  0.163036
  -1.63036
  0.163036
  0.163036
  0.163036
  0.163036
  0.239314
 0.0869637
 0.0694444
 0.0694444
 0.0694444
 0.0694444
 0.0694444
 -0.972222
 0.0694444
 0.0694444
 0.0694444
 0.0694444
 0.0694444
    0.0625
    0.0625
    0.0625
    0.0625
    0.0625
    0.0625
    0.0625
    0.0625
 -0.944444
    0.0625
    0.0625
    0.0625
    0.0625
    0.0625
    0.0625
    0.0625
    0.0625
    0.0625
    0.0625
    0.0625
    0.0625
    0.0625
 -0.694444
    0.0625
    0.0625
    0.0625
    0.0625
    0.0625
    0.0625
    0.0625
    0.0625
    0.0625
 -0.569444
    0.0625
    0.0625
    0.0625
    0.0625
    0.0625
    0.0625
    0.0625
    0.0625
    0.0625
 -0.694444
    0.0625
    0.0625
    0.0625
    0.0625
    0.0625
    0.0625
    0.0625
    0.0625
    0.0625
 -0.694444
    0.0625
    0.0625
    0.0625
    0.0625
     -0.75
    -0.625
    -0.625
    -0.625
    -0.375
    -0.125
    -0.125
    -0.125
    -0.125
    -0.125
    -0.125
    -0.125
     0.125
     0.125
     0.125
     0.125
     0.125
     0.125
     0.125
     0.125
     0.125
     0.125
     0.125
     0.125
   5.58333
     0.125
     0.125
     0.125
     0.125
     0.125
     0.125
     0.125
     0.125
     0.125
     0.125
     0.125
     0.125
    -0.125
    -0.125
    -0.125
    -0.125
    -0.125
    -0.125
    -0.125
    -0.375
    -0.625
    -0.625
    -0.625
     -0.75
    0.0625
    0.0625
    0.0625
    0.0625
 -0.694444
    0.0625
    0.0625
    0.0625
    0.0625
    0.0625
    0.0625
    0.0625
    0.0625
    0.0625
 -0.694444
    0.0625
    0.0625
    0.0625
    0.0625
    0.0625
    0.0625
    0.0625
    0.0625
    0.0625
 -0.569444
    0.0625
    0.0625
    0.0625
    0.0625
    0.0625
    0.0625
    0.0625
    0.0625
    0.0625
 -0.694444
    0.0625
    0.0625
    0.0625
    0.0625
    0.0625
    0.0625
    0.0625
    0.0625
    0.0625
    0.0625
    0.0625
    0.0625
    0.0625
 -0.944444
    0.0625
    0.0625
    0.0625
    0.0625
    0.0625
    0.0625
    0.0625
    0.0625
  0.163036
 0.0694444
 0.0694444
 0.0694444
 0.0694444
 -0.694444
 0.0694444
 0.0694444
 0.0694444
 0.0694444
    0.0625
    0.0625
    0.0625
    0.0625
    0.0625
    0.0625
 -0.819444
    0.0625
    0.0625
    0.0625
    0.0625
    0.0625
    0.0625
    0.0625
    0.0625
    0.0625
    0.0625
    0.0625
    0.0625
 -0.819444
    0.0625
    0.0625
    0.0625
    0.0625
    0.0625
    0.0625
    0.0625
    0.0625
    0.0625
    0.0625
    0.0625
  -1.06944
    0.0625
    0.0625
    0.0625
    0.0625
    0.0625
    0.0625
    0.0625
    0.0625
    0.0625
  -1.06944
    0.0625
    0.0625
    0.0625
    0.0625
    -0.625
    -0.625
    -0.625
    -0.625
    -0.125
    -0.125
    -0.125
    -0.125
    -0.125
    -0.125
    -0.125
    -0.125
     0.125
     0.125
     0.125
     0.125
     0.125
     0.125
     0.125
     0.125
     0.125
     0.125
     0.125
   6.58333
     0.125
     0.125
     0.125
     0.125
     0.125
     0.125
     0.125
     0.125
     0.125
     0.125
     0.125
    -0.125
    -0.125
    -0.125
    -0.125
    -0.125
    -0.125
    -0.125
    -0.125
    -0.625
    -0.625
    -0.625
    -0.625
    0.0625
    0.0625
    0.0625
    0.0625
  -1.06944
    0.0625
    0.0625
    0.0625
    0.0625
    0.0625
    0.0625
    0.0625
    0.0625
    0.0625
  -1.06944
    0.0625
    0.0625
    0.0625
    0.0625
    0.0625
    0.0625
    0.0625
    0.0625
    0.0625
    0.0625
    0.0625
 -0.819444
    0.0625
    0.0625
    0.0625
    0.0625
    0.0625
    0.0625
    0.0625
    0.0625
    0.0625
    0.0625
    0.0625
    0.0625
 -0.819444
    0.0625
    0.0625
    0.0625
    0.0625
    0.0625
    0.0625
  0.138889
    0.0625
    0.0625
    -0.375
    0.0625
    0.0625
    0.0625
      -0.5
    0.0625
      -0.5
     -0.25
     -0.25
     -0.25
     -0.25
    -0.125
     0.125
     0.125
     0.125
     0.125
     0.125
     0.125
     0.125
   2.36111
     0.125
     0.125
     0.125
     0.125
     0.125
     0.125
     0.125
    -0.125
     -0.25
     -0.25
     -0.25
     -0.25
      -0.5
    0.0625
      -0.5
    0.0625
    0.0625
    0.0625
    -0.375
    0.0625
    0.0625
  0.138889
    0.0625
      -0.5
    0.0625
      -0.5
     -0.25
     -0.25
     -0.25
     -0.25
     0.125
     0.125
     0.125
     0.125
     0.125
     0.125
     0.125
   2.11111
     0.125
     0.125
     0.125
     0.125
     0.125
     0.125
     0.125
     -0.25
     -0.25
     -0.25
     -0.25
      -0.5
    0.0625
      -0.5
    0.0625
  0.138889
    -0.625
     -0.25
     -0.25
     -0.25
     -0.25
     0.125
     0.125
     0.125
     0.125
     0.125
     0.125
   3.11111
     0.125
     0.125
     0.125
     0.125
     0.125
     0.125
     -0.25
     -0.25
     -0.25
     -0.25
    -0.625
  0.138889
     -0.25
     -0.25
     -0.25
     -0.25
     0.125
     0.125
     0.125
     0.125
     0.125
     0.125
     0.125
   2.86111
     0.125
     0.125
     0.125
     0.125
     0.125
     0.125
     0.125
     -0.25
     -0.25
     -0.25
     -0.25
     0.125
     0.125
     0.125
     0.125
     0.125
     0.125
     0.125
     0.125
     0.125
  0.472222
     0.125
     0.125
     0.125
     0.125
     0.125
     0.125
     0.125
     0.125
     0.125
     0.125
     0.125
     0.125
     0.125
     0.125
     0.125
     0.125
     0.125
     0.125
  0.361111
     0.125
     0.125
     0.125
     0.125
     0.125
     0.125
     0.125
     0.125
     0.125
     0.125
     0.125
     0.125
     0.125
     0.125
     0.125
     0.125
     0.125
  0.361111
     0.125
     0.125
     0.125
     0.125
     0.125
     0.125
     0.125
     0.125
     0.125
     0.125
     0.125
     0.125
     0.125
     0.125
  0.361111
     0.125
     0.125
     0.125
     0.125
     0.125
     0.125
     0.125
     0.125
 -0.638889
     0.125
     0.125
 -0.888889
 -0.888889
 -0.888889
 -0.888889
  -1.88889
     -1.75
     -1.25
     -1.75
     -1.75
      -1.5
     -1.25
      -0.5
      -0.5
      -0.5
      -0.5
      -0.5
      -0.5
      -0.5
     -0.25
      0.25
      0.25
      0.25
      0.25
      0.25
      0.25
      0.25
      0.25
      0.25
      0.25
      0.25
   3.33333
      0.25
      0.25
      0.25
      0.25
      0.25
      0.25
      0.25
      0.25
      0.25
      0.25
      0.25
     -0.25
      -0.5
      -0.5
      -0.5
      -0.5
      -0.5
      -0.5
      -0.5
     -1.25
      -1.5
     -1.75
     -1.75
     -1.25
     -1.75
  -1.88889
 -0.888889
 -0.888889
 -0.888889
 -0.888889
     0.125
     0.125
 -0.638889
     0.125
     0.125
     0.125
     0.125
     0.125
     0.125
     0.125
     0.125
  0.361111
     0.125
     0.125
     0.125
     0.125
     0.125
     0.125
     0.125
     0.125
     0.125
     0.125
     0.125
     0.125
     0.125
     0.125
  0.361111
     0.125
     0.125
     0.125
     0.125
     0.125
     0.125
     0.125
     0.125
     0.125
     0.125
     0.125
     0.125
     0.125
     0.125
     0.125
     0.125
     0.125
  0.361111
     0.125
     0.125
     0.125
     0.125
     0.125
     0.125
     0.125
     0.125
     0.125
     0.125
     0.125
     0.125
     0.125
     0.125
     0.125
     0.125
     0.125
     0.125
  0.472222
     0.125
     0.125
     0.125
     0.125
     0.125
     0.125
     0.125
     0.125
     0.125
     -0.25
     -0.25
     -0.25
     -0.25
     0.125
     0.125
     0.125
     0.125
     0.125
     0.125
     0.125
   2.86111
     0.125
     0.125
     0.125
     0.125
     0.125
     0.125
     0.125
     -0.25
     -0.25
     -0.25
     -0.25
  0.138889
    -0.625
     -0.25
     -0.25
     -0.25
     -0.25
     0.125
     0.125
     0.125
     0.125
     0.125
     0.125
   3.11111
     0.125
     0.125
     0.125
     0.125
     0.125
     0.125
     -0.25
     -0.25
     -0.25
     -0.25
    -0.625
  0.138889
    0.0625
      -0.5
    0.0625
      -0.5
     -0.25
     -0.25
     -0.25
     -0.25
     0.125
     0.125
     0.125
     0.125
     0.125
     0.125
     0.125
   2.11111
     0.125
     0.125
     0.125
     0.125
     0.125
     0.125
     0.125
     -0.25
     -0.25
     -0.25
     -0.25
      -0.5
    0.0625
      -0.5
    0.0625
  0.138889
    0.0625
    0.0625
    -0.375
    0.0625
    0.0625
    0.0625
      -0.5
    0.0625
      -0.5
     -0.25
     -0.25
     -0.25
     -0.25
    -0.125
     0.125
     0.125
     0.125
     0.125
     0.125
     0.125
     0.125
   2.36111
     0.125
     0.125
     0.125
     0.125
     0.125
     0.125
     0.125
    -0.125
     -0.25
     -0.25
     -0.25
     -0.25
      -0.5
    0.0625
      -0.5
    0.0625
    0.0625
    0.0625
    -0.375
    0.0625
    0.0625
  0.138889
    0.0625
    0.0625
    0.0625
    0.0625
    0.0625
    0.0625
 -0.819444
    0.0625
    0.0625
    0.0625
    0.0625
    0.0625
    0.0625
    0.0625
    0.0625
    0.0625
    0.0625
    0.0625
    0.0625
 -0.819444
    0.0625
    0.0625
    0.0625
    0.0625
    0.0625
    0.0625
    0.0625
    0.0625
    0.0625
    0.0625
    0.0625
  -1.06944
    0.0625
    0.0625
    0.0625
    0.0625
    0.0625
    0.0625
    0.0625
    0.0625
    0.0625
  -1.06944
    0.0625
    0.0625
    0.0625
    0.0625
    -0.625
    -0.625
    -0.625
    -0.625
    -0.125
    -0.125
    -0.125
    -0.125
    -0.125
    -0.125
    -0.125
    -0.125
     0.125
     0.125
     0.125
     0.125
     0.125
     0.125
     0.125
     0.125
     0.125
     0.125
     0.125
   6.58333
     0.125
     0.125
     0.125
     0.125
     0.125
     0.125
     0.125
     0.125
     0.125
     0.125
     0.125
    -0.125
    -0.125
    -0.125
    -0.125
    -0.125
    -0.125
    -0.125
    -0.125
    -0.625
    -0.625
    -0.625
    -0.625
    0.0625
    0.0625
    0.0625
    0.0625
  -1.06944
    0.0625
    0.0625
    0.0625
    0.0625
    0.0625
    0.0625
    0.0625
    0.0625
    0.0625
  -1.06944
    0.0625
    0.0625
    0.0625
    0.0625
    0.0625
    0.0625
    0.0625
    0.0625
    0.0625
    0.0625
    0.0625
 -0.819444
    0.0625
    0.0625
    0.0625
    0.0625
    0.0625
    0.0625
    0.0625
    0.0625
    0.0625
    0.0625
    0.0625
    0.0625
 -0.819444
    0.0625
    0.0625
    0.0625
    0.0625
    0.0625
    0.0625
 0.0694444
 0.0694444
 0.0694444
 0.0694444
 -0.694444
 0.0694444
 0.0694444
 0.0694444
 0.0694444
  0.163036
    0.0625
    0.0625
    0.0625
    0.0625
    0.0625
    0.0625
    0.0625
    0.0625
 -0.944444
    0.0625
    0.0625
    0.0625
    0.0625
    0.0625
    0.0625
    0.0625
    0.0625
    0.0625
    0.0625
    0.0625
    0.0625
    0.0625
 -0.694444
    0.0625
    0.0625
    0.0625
    0.0625
    0.0625
    0.0625
    0.0625
    0.0625
    0.0625
 -0.569444
    0.0625
    0.0625
    0.0625
    0.0625
    0.0625
    0.0625
    0.0625
    0.0625
    0.0625
 -0.694444
    0.0625
    0.0625
    0.0625
    0.0625
    0.0625
    0.0625
    0.0625
    0.0625
    0.0625
 -0.694444
    0.0625
    0.0625
    0.0625
    0.0625
     -0.75
    -0.625
    -0.625
    -0.625
    -0.375
    -0.125
    -0.125
    -0.125
    -0.125
    -0.125
    -0.125
    -0.125
     0.125
     0.125
     0.125
     0.125
     0.125
     0.125
     0.125
     0.125
     0.125
     0.125
     0.125
     0.125
   5.58333
     0.125
     0.125
     0.125
     0.125
     0.125
     0.125
     0.125
     0.125
     0.125
     0.125
     0.125
     0.125
    -0.125
    -0.125
    -0.125
    -0.125
    -0.125
    -0.125
    -0.125
    -0.375
    -0.625
    -0.625
    -0.625
     -0.75
    0.0625
    0.0625
    0.0625
    0.0625
 -0.694444
    0.0625
    0.0625
    0.0625
    0.0625
    0.0625
    0.0625
    0.0625
    0.0625
    0.0625
 -0.694444
    0.0625
    0.0625
    0.0625
    0.0625
    0.0625
    0.0625
    0.0625
    0.0625
    0.0625
 -0.569444
    0.0625
    0.0625
    0.0625
    0.0625
    0.0625
    0.0625
    0.0625
    0.0625
    0.0625
 -0.694444
    0.0625
    0.0625
    0.0625
    0.0625
    0.0625
    0.0625
    0.0625
    0.0625
    0.0625
    0.0625
    0.0625
    0.0625
    0.0625
 -0.944444
    0.0625
    0.0625
    0.0625
    0.0625
    0.0625
    0.0625
    0.0625
    0.0625
 0.0694444
 0.0694444
 0.0694444
 0.0694444
 0.0694444
 -0.972222
 0.0694444
 0.0694444
 0.0694444
 0.0694444
 0.0694444
 0.0869637
 0.0771605
 0.0694444
 0.0694444
 0.0694444
 0.0694444
 0.0694444
 -0.771605
 0.0694444
 0.0694444
 0.0694444
 0.0694444
 0.0694444
 0.0771605
 0.0694444
 0.0694444
 0.0694444
 0.0694444
 0.0694444
 0.0694444
 -0.910494
 0.0694444
 0.0694444
 0.0694444
 0.0694444
 0.0694444
 0.0694444
 0.0694444
 0.0694444
 0.0694444
 -0.555556
 0.0694444
 0.0694444
 0.0694444
 0.0694444
 0.0694444
 -0.555556
 0.0694444
 0.0694444
 0.0694444
 -0.694444
 0.0694444
 -0.694444
 -0.277778
 -0.277778
 -0.277778
 -0.277778
 -0.138889
  0.138889
  0.138889
  0.138889
  0.138889
  0.138889
  0.138889
  0.138889
   4.01235
  0.138889
  0.138889
  0.138889
  0.138889
  0.138889
  0.138889
  0.138889
 -0.138889
 -0.277778
 -0.277778
 -0.277778
 -0.277778
 -0.694444
 0.0694444
 -0.694444
 0.0694444
 0.0694444
 0.0694444
 -0.555556
 0.0694444
 0.0694444
 0.0694444
 0.0694444
 0.0694444
 -0.555556
 0.0694444
 0.0694444
 0.0694444
 0.0694444
 0.0694444
 0.0694444
 0.0694444
 0.0694444
 0.0694444
 -0.910494
 0.0694444
 0.0694444
 0.0694444
 0.0694444
 0.0694444
 0.0694444
 0.0771605
 0.0694444
 0.0694444
 0.0694444
 0.0694444
 0.0694444
 -0.771605
 0.0694444
 0.0694444
 0.0694444
 0.0694444
 0.0694444
 0.0771605
 0.0869637
 0.0869637
 0.0869637
 0.0869637
 -0.869637
 0.0869637
 0.0869637
 0.0869637
 0.0869637
  0.118463
 0.0815181
 0.0815181
 -0.163036
 0.0815181
 0.0815181
  0.163036
  0.163036
  0.163036
  0.163036
  -1.63036
  0.163036
  0.163036
  0.163036
  0.163036
 0.0815181
 0.0815181
 -0.163036
 0.0815181
 0.0815181
  0.239314
 0.0434819
 0.0434819
-0.0869637
 0.0434819
 0.0434819
 0.0347222
 0.0347222
 0.0347222
 0.0347222
 0.0347222
 -0.416667
 0.0347222
 0.0347222
 0.0347222
 0.0347222
 0.0347222
 0.0347222
 0.0347222
 -0.277778
 0.0347222
 0.0347222
-0.0694444
-0.0694444
 0.0694444
 0.0694444
 0.0694444
 0.0694444
 0.0694444
 0.0694444
 0.0694444
 0.0694444
 0.0694444
 -0.694444
 0.0694444
 0.0694444
 0.0694444
 0.0694444
 0.0694444
 0.0694444
 0.0694444
 0.0694444
 0.0694444
-0.0694444
-0.0694444
 0.0347222
 0.0347222
 -0.277778
 0.0347222
 0.0347222
 0.0347222
 0.0347222
 0.0347222
 0.0347222
 0.0347222
 -0.416667
 0.0347222
 0.0347222
 0.0347222
 0.0347222
 0.0347222
 0.0347222
 0.0347222
 0.0347222
   0.03125
   0.03125
   0.03125
   0.03125
   0.03125
   0.03125
   0.03125
   0.03125
   -0.6875
   0.03125
   0.03125
   0.03125
   0.03125
   0.03125
   0.03125
   0.03125
   0.03125
   0.03125
   0.03125
   0.03125
   -0.3125
   0.03125
   0.03125
   0.03125
   0.03125
   0.03125
   -0.3125
   0.03125
   0.03125
     -0.25
     -0.25
    0.0625
    0.0625
    0.0625
    0.0625
    0.0625
    0.0625
    0.0625
    0.0625
  0.805556
    0.0625
    0.0625
    0.0625
    0.0625
    0.0625
    0.0625
    0.0625
    0.0625
     -0.25
     -0.25
   0.03125
   0.03125
   -0.3125
   0.03125
   0.03125
   0.03125
   0.03125
   0.03125
   -0.3125
   0.03125
   0.03125
   0.03125
   0.03125
   0.03125
   0.03125
   0.03125
   0.03125
   0.03125
   0.03125
   0.03125
   -0.6875
   0.03125
   0.03125
   0.03125
   0.03125
   0.03125
   0.03125
   0.03125
   0.03125
 0.0347222
   0.03125
   -0.1875
   0.03125
   -0.1875
   -0.0625
   -0.0625
    0.0625
    0.0625
    0.0625
    0.0625
    0.0625
    0.0625
    0.0625
    0.0625
 0.0555556
    0.0625
    0.0625
    0.0625
    0.0625
    0.0625
    0.0625
    0.0625
    0.0625
   -0.0625
   -0.0625
   -0.1875
   0.03125
   -0.1875
   0.03125
   -0.0625
    0.0625
    0.0625
    0.0625
    0.0625
    0.0625
    0.0625
    0.0625
    0.0625
    0.0625
     -0.75
    0.0625
    0.0625
    0.0625
    0.0625
    0.0625
    0.0625
    0.0625
    0.0625
    0.0625
   -0.0625
    0.0625
    0.0625
    0.0625
    0.0625
    0.0625
    0.0625
    0.0625
    0.0625
    0.0625
     -0.75
    0.0625
    0.0625
    0.0625
    0.0625
    0.0625
    0.0625
    0.0625
    0.0625
    0.0625
    0.0625
    0.0625
    0.0625
    0.0625
    0.0625
    0.0625
    0.0625
    0.0625
    0.0625
    0.0625
    -1.125
    0.0625
    0.0625
    0.0625
    0.0625
    0.0625
    0.0625
    0.0625
    0.0625
    0.0625
    0.0625
    0.0625
    0.0625
    0.0625
    0.0625
    0.0625
    0.0625
    0.0625
    -0.875
    0.0625
    0.0625
    0.0625
    0.0625
    0.0625
    0.0625
    0.0625
    0.0625
    0.0625
        -1
    0.0625
    0.0625
    -0.875
    -0.875
     -0.75
    -0.875
    -0.875
    -0.875
     -0.75
     -0.75
     -0.25
    -0.125
    -0.125
     0.125
     0.125
     0.125
     0.125
     0.125
     0.125
     0.125
     0.125
     0.125
     0.125
     0.125
     0.125
     0.125
     0.125
      10.5
     0.125
     0.125
     0.125
     0.125
     0.125
     0.125
     0.125
     0.125
     0.125
     0.125
     0.125
     0.125
     0.125
     0.125
    -0.125
    -0.125
     -0.25
     -0.75
     -0.75
    -0.875
    -0.875
    -0.875
     -0.75
    -0.875
    -0.875
    0.0625
    0.0625
        -1
    0.0625
    0.0625
    0.0625
    0.0625
    0.0625
    0.0625
    0.0625
    0.0625
    0.0625
    -0.875
    0.0625
    0.0625
    0.0625
    0.0625
    0.0625
    0.0625
    0.0625
    0.0625
    0.0625
    0.0625
    0.0625
    0.0625
    0.0625
    0.0625
    0.0625
    0.0625
    0.0625
    -1.125
    0.0625
    0.0625
    0.0625
    0.0625
    0.0625
    0.0625
    0.0625
    0.0625
    0.0625
    0.0625
    0.0625
    0.0625
    0.0625
    0.0625
    0.0625
    0.0625
    0.0625
    0.0625
    0.0625
     -0.75
    0.0625
    0.0625
    0.0625
    0.0625
    0.0625
    0.0625
    0.0625
    0.0625
    0.0625
   -0.0625
    0.0625
    0.0625
    0.0625
    0.0625
    0.0625
    0.0625
    0.0625
    0.0625
    0.0625
     -0.75
    0.0625
    0.0625
    0.0625
    0.0625
    0.0625
    0.0625
    0.0625
    0.0625
    0.0625
   -0.0625
   0.03125
   -0.1875
   0.03125
   -0.1875
   -0.0625
   -0.0625
    0.0625
    0.0625
    0.0625
    0.0625
    0.0625
    0.0625
    0.0625
    0.0625
 0.0555556
    0.0625
    0.0625
    0.0625
    0.0625
    0.0625
    0.0625
    0.0625
    0.0625
   -0.0625
   -0.0625
   -0.1875
   0.03125
   -0.1875
   0.03125
 0.0347222
   0.03125
   0.03125
   0.03125
   0.03125
   0.03125
   0.03125
   0.03125
   0.03125
   -0.6875
   0.03125
   0.03125
   0.03125
   0.03125
   0.03125
   0.03125
   0.03125
   0.03125
   0.03125
   0.03125
   0.03125
   -0.3125
   0.03125
   0.03125
   0.03125
   0.03125
   0.03125
   -0.3125
   0.03125
   0.03125
     -0.25
     -0.25
    0.0625
    0.0625
    0.0625
    0.0625
    0.0625
    0.0625
    0.0625
    0.0625
  0.805556
    0.0625
    0.0625
    0.0625
    0.0625
    0.0625
    0.0625
    0.0625
    0.0625
     -0.25
     -0.25
   0.03125
   0.03125
   -0.3125
   0.03125
   0.03125
   0.03125
   0.03125
   0.03125
   -0.3125
   0.03125
   0.03125
   0.03125
   0.03125
   0.03125
   0.03125
   0.03125
   0.03125
   0.03125
   0.03125
   0.03125
   -0.6875
   0.03125
   0.03125
   0.03125
   0.03125
   0.03125
   0.03125
   0.03125
   0.03125
 0.0347222
 0.0347222
 0.0347222
 0.0815181
 0.0815181
 -0.163036
 0.0815181
 0.0815181
 0.0869637
 0.0694444
 0.0694444
 0.0694444
 0.0694444
 0.0694444
 0.0694444
  -1.11111
 0.0694444
 0.0694444
 0.0694444
 0.0694444
 0.0694444
 0.0694444
    0.0625
    0.0625
    0.0625
    0.0625
    0.0625
    0.0625
    0.0625
    0.0625
 -0.944444
    0.0625
    0.0625
    0.0625
    0.0625
    0.0625
    0.0625
    0.0625
    0.0625
    0.0625
    0.0625
    0.0625
    0.0625
    0.0625
    0.0625
 -0.819444
    0.0625
    0.0625
    0.0625
    0.0625
    0.0625
    0.0625
    0.0625
    0.0625
    0.0625
    0.0625
    0.0625
    0.0625
 -0.819444
    0.0625
    0.0625
    0.0625
    0.0625
    0.0625
    0.0625
    0.0625
    0.0625
    0.0625
    0.0625
    0.0625
 -0.694444
    0.0625
    0.0625
    0.0625
    0.0625
    0.0625
    0.0625
    0.0625
    0.0625
    0.0625
 -0.694444
    0.0625
    0.0625
    0.0625
    0.0625
     -0.75
     -0.75
    -0.625
    -0.625
      -0.5
      -0.5
    -0.125
    -0.125
    -0.125
    -0.125
    -0.125
    -0.125
     0.125
     0.125
     0.125
     0.125
     0.125
     0.125
     0.125
     0.125
     0.125
     0.125
     0.125
     0.125
   6.83333
     0.125
     0.125
     0.125
     0.125
     0.125
