  0.0647424830844349
 0.00914069772593322
 0.00914069772593322
 -0.0036562790903733
 0.00914069772593322
 0.00914069772593322
  0.0146251163614931
  0.0146251163614931
  0.0329065118133596
  0.0329065118133596
  0.0329065118133596
  0.0329065118133596
  -0.387565583579569
  0.0329065118133596
  0.0329065118133596
  0.0329065118133596
  0.0329065118133596
  0.0146251163614931
  0.0146251163614931
 0.00914069772593322
 0.00914069772593322
 -0.0036562790903733
 0.00914069772593322
 0.00914069772593322
 0.00914069772593322
 0.00914069772593322
 -0.0036562790903733
 0.00914069772593322
 0.00914069772593322
 0.00595374180765126
 0.00595374180765126
 0.00595374180765126
 0.00595374180765126
 0.00595374180765126
 -0.0809708885840573
 0.00595374180765126
 0.00595374180765126
 0.00595374180765126
 0.00595374180765126
 0.00595374180765126
 0.00595374180765126
 0.00595374180765126
 0.00595374180765126
 0.00595374180765126
 -0.0809708885840572
 0.00595374180765126
 0.00595374180765126
 0.00595374180765126
 0.00595374180765126
-0.00238149672306051
-0.00238149672306051
-0.00238149672306051
-0.00238149672306051
  0.0214334705075446
  0.0214334705075446
  0.0214334705075446
  0.0214334705075446
  0.0214334705075446
  0.0214334705075446
  0.0214334705075446
  0.0214334705075446
  0.0214334705075446
  -0.334362139917695
  0.0214334705075446
  0.0214334705075446
  0.0214334705075446
  0.0214334705075446
  0.0214334705075446
  0.0214334705075446
  0.0214334705075446
  0.0214334705075446
  0.0214334705075446
-0.00238149672306051
-0.00238149672306051
-0.00238149672306051
-0.00238149672306051
 0.00595374180765126
 0.00595374180765126
 0.00595374180765126
 0.00595374180765126
 -0.0809708885840573
 0.00595374180765126
 0.00595374180765126
 0.00595374180765126
 0.00595374180765126
 0.00595374180765126
 0.00595374180765126
 0.00595374180765126
 0.00595374180765126
 0.00595374180765126
 -0.0809708885840573
 0.00595374180765126
 0.00595374180765126
 0.00595374180765126
 0.00595374180765126
 0.00595374180765126
  0.0184656122877842
  0.0184656122877842
-0.00738624491511372
  0.0184656122877842
  0.0184656122877842
  0.0329065118133596
 0.00595374180765126
 0.00595374180765126
  -0.014288980338363
 0.00595374180765126
 0.00595374180765126
-0.00238149672306051
-0.00238149672306051
 0.00952598689224202
 0.00952598689224202
  0.0214334705075446
  0.0214334705075446
  0.0214334705075446
  0.0214334705075446
  -0.308603871361073
  0.0214334705075446
  0.0214334705075446
  0.0214334705075446
  0.0214334705075446
 0.00952598689224202
 0.00952598689224202
-0.00238149672306051
-0.00238149672306051
 0.00595374180765126
 0.00595374180765126
 -0.0142889803383631
 0.00595374180765126
 0.00595374180765126
  0.0664762042360231
  0.0329065118133596
-0.00238149672306051
-0.00238149672306051
 0.00952598689224202
 0.00952598689224202
  0.0214334705075446
  0.0214334705075446
  0.0214334705075446
  0.0214334705075446
  -0.308603871361073
  0.0214334705075446
  0.0214334705075446
  0.0214334705075446
  0.0214334705075446
 0.00952598689224202
 0.00952598689224202
-0.00238149672306051
-0.00238149672306051
  0.0664762042360231
  0.0214334705075446
  0.0214334705075446
  0.0214334705075446
  0.0214334705075446
  -0.228623685413809
  0.0214334705075446
  0.0214334705075446
  0.0214334705075446
  0.0214334705075446
  0.0214334705075446
  0.0214334705075446
   -0.18575674439872
  0.0214334705075446
  0.0214334705075446
  0.0214334705075446
  -0.209571711629325
  0.0214334705075446
  -0.209571711629325
 -0.0943072702331961
  -0.051440329218107
  -0.051440329218107
  -0.051440329218107
  0.0342935528120713
  0.0342935528120713
  0.0342935528120713
  0.0342935528120713
  0.0342935528120713
  0.0771604938271604
  0.0771604938271604
  0.0771604938271604
  0.0771604938271604
  0.0771604938271604
  0.0771604938271604
  0.0771604938271604
  0.0771604938271604
  0.0771604938271604
  -0.213504039018442
  0.0771604938271604
  0.0771604938271604
  0.0771604938271604
  0.0771604938271604
  0.0771604938271604
  0.0771604938271604
  0.0771604938271604
  0.0771604938271604
  0.0771604938271604
  0.0342935528120713
  0.0342935528120713
  0.0342935528120713
  0.0342935528120713
  0.0342935528120713
  -0.051440329218107
  -0.051440329218107
  -0.051440329218107
 -0.0943072702331961
  -0.209571711629325
  0.0214334705075446
  -0.209571711629325
  0.0214334705075446
  0.0214334705075446
  0.0214334705075446
   -0.18575674439872
  0.0214334705075446
  0.0214334705075446
  0.0214334705075446
  0.0214334705075446
  0.0214334705075446
  0.0214334705075446
  -0.228623685413809
  0.0214334705075446
  0.0214334705075446
  0.0214334705075446
  0.0214334705075446
  0.0664762042360232
-0.00238149672306051
-0.00238149672306051
 0.00952598689224202
 0.00952598689224202
  0.0214334705075446
  0.0214334705075446
  0.0214334705075446
  0.0214334705075446
  -0.308603871361073
  0.0214334705075446
  0.0214334705075446
  0.0214334705075446
  0.0214334705075446
 0.00952598689224202
 0.00952598689224202
-0.00238149672306051
-0.00238149672306051
  0.0329065118133597
  0.0664762042360232
 0.00595374180765126
 0.00595374180765126
 -0.0142889803383631
 0.00595374180765126
 0.00595374180765126
-0.00238149672306051
-0.00238149672306051
 0.00952598689224202
 0.00952598689224202
  0.0214334705075446
  0.0214334705075446
  0.0214334705075446
  0.0214334705075446
  -0.308603871361073
  0.0214334705075446
  0.0214334705075446
  0.0214334705075446
  0.0214334705075446
 0.00952598689224202
 0.00952598689224202
-0.00238149672306051
-0.00238149672306051
 0.00595374180765126
 0.00595374180765126
  -0.014288980338363
 0.00595374180765126
 0.00595374180765126
  0.0329065118133597
  0.0184656122877842
  0.0184656122877842
 -0.0073862449151137
  0.0184656122877842
  0.0184656122877842
 0.00595374180765126
 0.00595374180765126
 0.00595374180765126
 0.00595374180765126
 0.00595374180765126
 -0.0809708885840572
 0.00595374180765126
 0.00595374180765126
 0.00595374180765126
 0.00595374180765126
 0.00595374180765126
 0.00595374180765126
 0.00595374180765126
 0.00595374180765126
 0.00595374180765126
 -0.0809708885840573
 0.00595374180765126
 0.00595374180765126
 0.00595374180765126
 0.00595374180765126
-0.00238149672306051
-0.00238149672306051
-0.00238149672306051
-0.00238149672306051
  0.0214334705075446
  0.0214334705075446
  0.0214334705075446
  0.0214334705075446
  0.0214334705075446
  0.0214334705075446
  0.0214334705075446
  0.0214334705075446
  0.0214334705075446
  -0.334362139917695
  0.0214334705075446
  0.0214334705075446
  0.0214334705075446
  0.0214334705075446
  0.0214334705075446
  0.0214334705075446
  0.0214334705075446
  0.0214334705075446
  0.0214334705075446
-0.00238149672306051
-0.00238149672306051
-0.00238149672306051
-0.00238149672306051
 0.00595374180765126
 0.00595374180765126
 0.00595374180765126
 0.00595374180765126
 -0.0809708885840572
 0.00595374180765126
 0.00595374180765126
 0.00595374180765126
 0.00595374180765126
 0.00595374180765126
 0.00595374180765126
 0.00595374180765126
 0.00595374180765126
 0.00595374180765126
 -0.0809708885840573
 0.00595374180765126
 0.00595374180765126
 0.00595374180765126
 0.00595374180765126
 0.00595374180765126
 0.00914069772593324
 0.00914069772593324
-0.00365627909037332
 0.00914069772593324
 0.00914069772593324
   0.139852695744638
  0.0184656122877842
  0.0184656122877842
-0.00738624491511372
  0.0184656122877842
  0.0184656122877842
  0.0295449796604547
  0.0295449796604547
  0.0664762042360231
  0.0664762042360231
  0.0664762042360231
  0.0664762042360231
   -0.78294196100205
  0.0664762042360231
  0.0664762042360231
  0.0664762042360231
  0.0664762042360231
  0.0295449796604547
  0.0295449796604547
  0.0184656122877842
  0.0184656122877842
-0.00738624491511371
  0.0184656122877842
  0.0184656122877842
   0.190915025252559
  0.0647424830844349
  0.0146251163614931
  0.0146251163614931
  0.0329065118133596
  0.0329065118133596
  0.0329065118133596
  0.0329065118133596
  -0.387565583579569
  0.0329065118133596
  0.0329065118133596
  0.0329065118133596
  0.0329065118133596
  0.0146251163614931
  0.0146251163614931
  0.0329065118133596
 0.00595374180765126
 0.00595374180765126
 -0.0142889803383631
 0.00595374180765126
 0.00595374180765126
-0.00238149672306051
-0.00238149672306051
 0.00952598689224202
 0.00952598689224202
  0.0214334705075446
  0.0214334705075446
  0.0214334705075446
  0.0214334705075446
  -0.308603871361073
  0.0214334705075446
  0.0214334705075446
  0.0214334705075446
  0.0214334705075446
 0.00952598689224202
 0.00952598689224202
-0.00238149672306051
-0.00238149672306051
 0.00595374180765126
 0.00595374180765126
 -0.0142889803383631
 0.00595374180765126
 0.00595374180765126
  0.0664762042360231
  0.0329065118133596
-0.00238149672306051
-0.00238149672306051
 0.00952598689224202
 0.00952598689224202
  0.0214334705075446
  0.0214334705075446
  0.0214334705075446
  0.0214334705075446
  -0.308603871361073
  0.0214334705075446
  0.0214334705075446
  0.0214334705075446
  0.0214334705075446
 0.00952598689224202
 0.00952598689224202
-0.00238149672306051
-0.00238149672306051
  0.0664762042360231
  0.0214334705075446
  0.0214334705075446
  0.0214334705075446
  0.0214334705075446
  -0.228623685413809
  0.0214334705075446
  0.0214334705075446
  0.0214334705075446
  0.0214334705075446
  0.0214334705075446
  0.0214334705075446
   -0.18575674439872
  0.0214334705075446
  0.0214334705075446
  0.0214334705075446
  -0.209571711629325
  0.0214334705075446
  -0.209571711629325
 -0.0943072702331961
  -0.051440329218107
  -0.051440329218107
  -0.051440329218107
  0.0342935528120713
  0.0342935528120713
  0.0342935528120713
  0.0342935528120713
  0.0342935528120713
  0.0771604938271604
  0.0771604938271604
  0.0771604938271604
  0.0771604938271604
  0.0771604938271604
  0.0771604938271604
  0.0771604938271604
  0.0771604938271604
  0.0771604938271604
  -0.213504039018441
  0.0771604938271604
  0.0771604938271604
  0.0771604938271604
  0.0771604938271604
  0.0771604938271604
  0.0771604938271604
  0.0771604938271604
  0.0771604938271604
  0.0771604938271604
  0.0342935528120713
  0.0342935528120713
  0.0342935528120713
  0.0342935528120713
  0.0342935528120713
  -0.051440329218107
 -0.0514403292181069
  -0.051440329218107
 -0.0943072702331961
  -0.209571711629325
  0.0214334705075446
  -0.209571711629325
  0.0214334705075446
  0.0214334705075446
  0.0214334705075446
   -0.18575674439872
  0.0214334705075446
  0.0214334705075446
  0.0214334705075446
  0.0214334705075446
  0.0214334705075446
  0.0214334705075446
  -0.228623685413809
  0.0214334705075446
  0.0214334705075446
  0.0214334705075446
  0.0214334705075446
  0.0664762042360232
-0.00238149672306051
-0.00238149672306051
 0.00952598689224202
 0.00952598689224202
  0.0214334705075446
  0.0214334705075446
  0.0214334705075446
  0.0214334705075446
  -0.308603871361073
  0.0214334705075446
  0.0214334705075446
  0.0214334705075446
  0.0214334705075446
 0.00952598689224202
 0.00952598689224202
-0.00238149672306051
-0.00238149672306051
  0.0329065118133597
  0.0664762042360232
 0.00595374180765126
 0.00595374180765126
 -0.0142889803383631
 0.00595374180765126
 0.00595374180765126
-0.00238149672306051
-0.00238149672306051
 0.00952598689224202
 0.00952598689224202
  0.0214334705075446
  0.0214334705075446
  0.0214334705075446
  0.0214334705075446
  -0.308603871361073
  0.0214334705075446
  0.0214334705075446
  0.0214334705075446
  0.0214334705075446
 0.00952598689224202
 0.00952598689224202
-0.00238149672306051
-0.00238149672306051
 0.00595374180765126
 0.00595374180765126
 -0.0142889803383631
 0.00595374180765126
 0.00595374180765126
  0.0329065118133597
   0.139852695744638
  0.0295449796604547
  0.0295449796604547
  0.0664762042360231
  0.0664762042360231
  0.0664762042360231
  0.0664762042360231
   -0.78294196100205
  0.0664762042360231
  0.0664762042360231
  0.0664762042360231
  0.0664762042360231
  0.0295449796604547
  0.0295449796604547
   0.190915025252559
  0.0329065118133596
 -0.0789756283520631
  0.0329065118133596
  0.0329065118133596
-0.00238149672306051
-0.00238149672306051
  0.0214334705075446
  0.0214334705075446
  0.0214334705075446
  0.0214334705075446
  0.0214334705075446
  -0.343888126809937
  0.0214334705075446
  0.0214334705075446
  0.0214334705075446
  0.0214334705075446
  0.0214334705075446
-0.00238149672306051
-0.00238149672306051
  0.0664762042360231
  0.0214334705075446
  0.0214334705075446
  0.0214334705075446
  -0.108596250571559
  0.0214334705075446
  0.0214334705075446
  0.0214334705075446
  0.0214334705075446
  0.0214334705075446
  -0.108596250571559
  0.0214334705075446
  0.0214334705075446
   -0.11335924401768
   -0.11335924401768
  -0.051440329218107
  -0.051440329218107
  -0.051440329218107
-0.00857338820301785
  0.0771604938271604
  0.0771604938271604
  0.0771604938271604
  0.0771604938271604
  0.0771604938271604
  0.0771604938271604
  0.0771604938271604
  0.0771604938271604
   -0.32400548696845
  0.0771604938271604
  0.0771604938271604
  0.0771604938271604
  0.0771604938271604
  0.0771604938271604
  0.0771604938271604
  0.0771604938271604
  0.0771604938271604
-0.00857338820301785
  -0.051440329218107
  -0.051440329218107
  -0.051440329218107
   -0.11335924401768
   -0.11335924401768
  0.0214334705075446
  0.0214334705075446
  -0.108596250571559
  0.0214334705075446
  0.0214334705075446
  0.0214334705075446
  0.0214334705075446
  0.0214334705075446
  -0.108596250571559
  0.0214334705075446
  0.0214334705075446
  0.0214334705075446
  0.0664762042360232
-0.00238149672306051
-0.00238149672306051
  0.0214334705075446
  0.0214334705075446
  0.0214334705075446
  0.0214334705075446
  0.0214334705075446
  -0.343888126809937
  0.0214334705075446
  0.0214334705075446
  0.0214334705075446
  0.0214334705075446
  0.0214334705075446
-0.00238149672306051
-0.00238149672306051
  0.0329065118133597
  0.0664762042360231
  -0.159542890166456
  0.0664762042360231
 -0.0789756283520631
  0.0214334705075446
  0.0214334705075446
  0.0214334705075446
  -0.108596250571559
  0.0214334705075446
  0.0214334705075446
  0.0214334705075446
  0.0214334705075446
  0.0214334705075446
  -0.108596250571559
  0.0214334705075446
  0.0214334705075446
   -0.11335924401768
   -0.11335924401768
  -0.051440329218107
  -0.051440329218107
  -0.051440329218107
-0.00857338820301785
  0.0771604938271604
  0.0771604938271604
  0.0771604938271604
  0.0771604938271604
  0.0771604938271604
  0.0771604938271604
  0.0771604938271604
  0.0771604938271604
   -0.32400548696845
  0.0771604938271604
  0.0771604938271604
  0.0771604938271604
  0.0771604938271604
  0.0771604938271604
  0.0771604938271604
  0.0771604938271604
  0.0771604938271604
-0.00857338820301785
  -0.051440329218107
  -0.051440329218107
  -0.051440329218107
   -0.11335924401768
   -0.11335924401768
  0.0214334705075446
  0.0214334705075446
  -0.108596250571559
  0.0214334705075446
  0.0214334705075446
  0.0214334705075446
  0.0214334705075446
  0.0214334705075446
  -0.108596250571559
  0.0214334705075446
  0.0214334705075446
  0.0214334705075446
  -0.159542890166456
   0.118463442528095
 -0.0943072702331961
 -0.0943072702331961
 -0.0943072702331961
-0.00857338820301785
  0.0771604938271604
  0.0771604938271604
  0.0771604938271604
  0.0771604938271604
  0.0771604938271604
  0.0771604938271604
  0.0771604938271604
  0.0771604938271604
  0.0771604938271604
  0.0771604938271604
  0.0771604938271604
   -1.49682975156226
  0.0771604938271604
  0.0771604938271604
  0.0771604938271604
  0.0771604938271604
  0.0771604938271604
  0.0771604938271604
  0.0771604938271604
  0.0771604938271604
  0.0771604938271604
  0.0771604938271604
  0.0771604938271604
-0.00857338820301785
 -0.0943072702331961
 -0.0943072702331961
 -0.0943072702331961
   0.239314335249683
 -0.0943072702331961
 -0.0943072702331961
  0.0771604938271604
  0.0771604938271604
  0.0771604938271604
  0.0771604938271604
  0.0771604938271604
  0.0771604938271604
  0.0771604938271604
  0.0771604938271604
  0.0771604938271604
  0.0771604938271604
  0.0771604938271604
   -1.23619875019052
  0.0771604938271604
  0.0771604938271604
  0.0771604938271604
  0.0771604938271604
  0.0771604938271604
  0.0771604938271604
  0.0771604938271604
  0.0771604938271604
  0.0771604938271604
  0.0771604938271604
  0.0771604938271604
 -0.0943072702331961
 -0.0943072702331961
-0.00857338820301785
  0.0771604938271604
  0.0771604938271604
  0.0771604938271604
  0.0771604938271604
  0.0771604938271604
   -0.38648071940253
  0.0771604938271604
  0.0771604938271604
  0.0771604938271604
  0.0771604938271604
  0.0771604938271604
-0.00857338820301785
  0.0771604938271604
  0.0771604938271604
  0.0771604938271604
  0.0771604938271604
  -0.232159731748209
  0.0771604938271604
  0.0771604938271604
  0.0771604938271604
  0.0771604938271604
  -0.270919067215364
   -0.44238683127572
   -0.44238683127572
  -0.528120713305898
  -0.716735253772291
   -0.56241426611797
   -0.56241426611797
   -0.56241426611797
   -0.56241426611797
  -0.648148148148148
  -0.648148148148148
  -0.493827160493827
 -0.0308641975308643
 -0.0308641975308643
 -0.0308641975308643
 -0.0308641975308643
 -0.0308641975308643
 -0.0308641975308643
   0.277777777777778
   0.277777777777778
   0.277777777777778
   0.277777777777778
   0.277777777777778
   0.277777777777778
    8.40953363878703
   0.277777777777778
   0.277777777777778
   0.277777777777778
   0.277777777777778
   0.277777777777778
   0.277777777777778
 -0.0308641975308643
 -0.0308641975308643
 -0.0308641975308643
 -0.0308641975308643
 -0.0308641975308643
 -0.0308641975308643
  -0.493827160493827
  -0.648148148148148
  -0.648148148148148
   -0.56241426611797
   -0.56241426611797
   -0.56241426611797
   -0.56241426611797
  -0.716735253772291
  -0.528120713305898
   -0.44238683127572
   -0.44238683127572
  -0.270919067215364
  0.0771604938271604
  0.0771604938271604
  0.0771604938271604
  0.0771604938271604
   -0.23215973174821
  0.0771604938271604
  0.0771604938271604
  0.0771604938271604
  0.0771604938271604
-0.00857338820301785
  0.0771604938271604
  0.0771604938271604
  0.0771604938271604
  0.0771604938271604
  0.0771604938271604
  -0.386480719402531
  0.0771604938271604
  0.0771604938271604
  0.0771604938271604
  0.0771604938271604
  0.0771604938271604
-0.00857338820301785
 -0.0943072702331961
 -0.0943072702331961
  0.0771604938271604
  0.0771604938271604
  0.0771604938271604
  0.0771604938271604
  0.0771604938271604
  0.0771604938271604
  0.0771604938271604
  0.0771604938271604
  0.0771604938271604
  0.0771604938271604
  0.0771604938271604
   -1.23619875019052
  0.0771604938271604
  0.0771604938271604
  0.0771604938271604
  0.0771604938271604
  0.0771604938271604
  0.0771604938271604
  0.0771604938271604
  0.0771604938271604
  0.0771604938271604
  0.0771604938271604
  0.0771604938271604
 -0.0943072702331961
 -0.0943072702331961
   0.239314335249683
 -0.0943072702331961
 -0.0943072702331961
 -0.0943072702331961
-0.00857338820301785
  0.0771604938271604
  0.0771604938271604
  0.0771604938271604
  0.0771604938271604
  0.0771604938271604
  0.0771604938271604
  0.0771604938271604
  0.0771604938271604
  0.0771604938271604
  0.0771604938271604
  0.0771604938271604
   -1.49682975156226
  0.0771604938271604
  0.0771604938271604
  0.0771604938271604
  0.0771604938271604
  0.0771604938271604
  0.0771604938271604
  0.0771604938271604
  0.0771604938271604
  0.0771604938271604
  0.0771604938271604
  0.0771604938271604
-0.00857338820301785
 -0.0943072702331961
 -0.0943072702331961
 -0.0943072702331961
   0.118463442528095
  -0.159542890166456
  0.0214334705075446
  0.0214334705075446
  0.0214334705075446
  -0.108596250571559
  0.0214334705075446
  0.0214334705075446
  0.0214334705075446
  0.0214334705075446
  0.0214334705075446
  -0.108596250571559
  0.0214334705075446
  0.0214334705075446
   -0.11335924401768
   -0.11335924401768
  -0.051440329218107
  -0.051440329218107
  -0.051440329218107
-0.00857338820301785
  0.0771604938271604
  0.0771604938271604
  0.0771604938271604
  0.0771604938271604
  0.0771604938271604
  0.0771604938271604
  0.0771604938271604
  0.0771604938271604
  -0.324005486968445
  0.0771604938271604
  0.0771604938271604
  0.0771604938271604
  0.0771604938271604
  0.0771604938271604
  0.0771604938271604
  0.0771604938271604
  0.0771604938271604
-0.00857338820301785
  -0.051440329218107
  -0.051440329218107
  -0.051440329218107
   -0.11335924401768
   -0.11335924401768
  0.0214334705075446
  0.0214334705075446
  -0.108596250571559
  0.0214334705075446
  0.0214334705075446
  0.0214334705075446
  0.0214334705075446
  0.0214334705075446
  -0.108596250571559
  0.0214334705075446
  0.0214334705075446
  0.0214334705075446
 -0.0789756283520633
  0.0664762042360232
  -0.159542890166456
  0.0664762042360232
  0.0329065118133596
-0.00238149672306051
-0.00238149672306051
  0.0214334705075446
  0.0214334705075446
  0.0214334705075446
  0.0214334705075446
  0.0214334705075446
  -0.343888126809937
  0.0214334705075446
  0.0214334705075446
  0.0214334705075446
  0.0214334705075446
  0.0214334705075446
-0.00238149672306051
-0.00238149672306051
  0.0664762042360231
  0.0214334705075446
  0.0214334705075446
  0.0214334705075446
  -0.108596250571559
  0.0214334705075446
  0.0214334705075446
  0.0214334705075446
  0.0214334705075446
  0.0214334705075446
  -0.108596250571559
  0.0214334705075446
  0.0214334705075446
   -0.11335924401768
   -0.11335924401768
  -0.051440329218107
  -0.051440329218107
  -0.051440329218107
-0.00857338820301785
  0.0771604938271604
  0.0771604938271604
  0.0771604938271604
  0.0771604938271604
  0.0771604938271604
  0.0771604938271604
  0.0771604938271604
  0.0771604938271604
   -0.32400548696845
  0.0771604938271604
  0.0771604938271604
  0.0771604938271604
  0.0771604938271604
  0.0771604938271604
  0.0771604938271604
  0.0771604938271604
  0.0771604938271604
-0.00857338820301785
  -0.051440329218107
  -0.051440329218107
  -0.051440329218107
   -0.11335924401768
   -0.11335924401768
  0.0214334705075446
  0.0214334705075446
  -0.108596250571559
  0.0214334705075446
  0.0214334705075446
  0.0214334705075446
  0.0214334705075446
  0.0214334705075446
  -0.108596250571559
  0.0214334705075446
  0.0214334705075446
  0.0214334705075446
  0.0664762042360232
-0.00238149672306051
-0.00238149672306051
  0.0214334705075446
  0.0214334705075446
  0.0214334705075446
  0.0214334705075446
  0.0214334705075446
  -0.343888126809937
  0.0214334705075446
  0.0214334705075446
  0.0214334705075446
  0.0214334705075446
  0.0214334705075446
-0.00238149672306051
-0.00238149672306051
  0.0329065118133597
  0.0329065118133597
 -0.0789756283520633
  0.0329065118133597
    0.19091502525256
  0.0295449796604547
  0.0295449796604547
  0.0664762042360232
  0.0664762042360232
  0.0664762042360232
  0.0664762042360232
  -0.782941961002052
  0.0664762042360232
  0.0664762042360232
  0.0664762042360232
  0.0664762042360232
  0.0295449796604547
  0.0295449796604547
   0.139852695744639
  0.0329065118133596
 0.00595374180765126
 0.00595374180765126
  -0.014288980338363
 0.00595374180765126
 0.00595374180765126
-0.00238149672306051
-0.00238149672306051
 0.00952598689224202
 0.00952598689224202
  0.0214334705075446
  0.0214334705075446
  0.0214334705075446
  0.0214334705075446
  -0.308603871361073
  0.0214334705075446
  0.0214334705075446
  0.0214334705075446
  0.0214334705075446
 0.00952598689224202
 0.00952598689224202
-0.00238149672306051
-0.00238149672306051
 0.00595374180765126
 0.00595374180765126
 -0.0142889803383631
 0.00595374180765126
 0.00595374180765126
  0.0664762042360231
  0.0329065118133596
-0.00238149672306051
-0.00238149672306051
 0.00952598689224202
 0.00952598689224202
  0.0214334705075446
  0.0214334705075446
  0.0214334705075446
  0.0214334705075446
  -0.308603871361073
  0.0214334705075446
  0.0214334705075446
  0.0214334705075446
  0.0214334705075446
 0.00952598689224202
 0.00952598689224202
-0.00238149672306051
-0.00238149672306051
  0.0664762042360231
  0.0214334705075446
  0.0214334705075446
  0.0214334705075446
  0.0214334705075446
  -0.228623685413809
  0.0214334705075446
  0.0214334705075446
  0.0214334705075446
  0.0214334705075446
  0.0214334705075446
  0.0214334705075446
   -0.18575674439872
  0.0214334705075446
  0.0214334705075446
  0.0214334705075446
  -0.209571711629325
  0.0214334705075446
  -0.209571711629325
 -0.0943072702331961
  -0.051440329218107
  -0.051440329218107
  -0.051440329218107
  0.0342935528120713
  0.0342935528120713
  0.0342935528120713
  0.0342935528120713
  0.0342935528120713
  0.0771604938271604
  0.0771604938271604
  0.0771604938271604
  0.0771604938271604
  0.0771604938271604
  0.0771604938271604
  0.0771604938271604
  0.0771604938271604
  0.0771604938271604
   -0.21350403901844
  0.0771604938271604
  0.0771604938271604
  0.0771604938271604
  0.0771604938271604
  0.0771604938271604
  0.0771604938271604
  0.0771604938271604
  0.0771604938271604
  0.0771604938271604
  0.0342935528120713
  0.0342935528120713
  0.0342935528120713
  0.0342935528120713
  0.0342935528120713
  -0.051440329218107
  -0.051440329218107
  -0.051440329218107
 -0.0943072702331961
  -0.209571711629325
  0.0214334705075446
  -0.209571711629325
  0.0214334705075446
  0.0214334705075446
  0.0214334705075446
   -0.18575674439872
  0.0214334705075446
  0.0214334705075446
  0.0214334705075446
  0.0214334705075446
  0.0214334705075446
  0.0214334705075446
  -0.228623685413809
  0.0214334705075446
  0.0214334705075446
  0.0214334705075446
  0.0214334705075446
  0.0664762042360232
-0.00238149672306051
-0.00238149672306051
 0.00952598689224202
 0.00952598689224202
  0.0214334705075446
  0.0214334705075446
  0.0214334705075446
  0.0214334705075446
  -0.308603871361073
  0.0214334705075446
  0.0214334705075446
  0.0214334705075446
  0.0214334705075446
 0.00952598689224202
 0.00952598689224202
-0.00238149672306051
-0.00238149672306051
  0.0329065118133597
  0.0664762042360232
 0.00595374180765126
 0.00595374180765126
  -0.014288980338363
 0.00595374180765126
 0.00595374180765126
-0.00238149672306051
-0.00238149672306051
 0.00952598689224202
 0.00952598689224202
  0.0214334705075446
  0.0214334705075446
  0.0214334705075446
  0.0214334705075446
  -0.308603871361073
  0.0214334705075446
  0.0214334705075446
  0.0214334705075446
  0.0214334705075446
 0.00952598689224202
 0.00952598689224202
-0.00238149672306051
-0.00238149672306051
 0.00595374180765126
 0.00595374180765126
  -0.014288980338363
 0.00595374180765126
 0.00595374180765126
  0.0329065118133597
  0.0146251163614932
  0.0146251163614932
  0.0329065118133597
  0.0329065118133597
  0.0329065118133597
  0.0329065118133597
   -0.38756558357957
  0.0329065118133597
  0.0329065118133597
  0.0329065118133597
  0.0329065118133597
  0.0146251163614932
  0.0146251163614932
  0.0647424830844348
    0.19091502525256
  0.0184656122877842
  0.0184656122877842
-0.00738624491511369
  0.0184656122877842
  0.0184656122877842
  0.0295449796604547
  0.0295449796604547
  0.0664762042360232
  0.0664762042360232
  0.0664762042360232
  0.0664762042360232
  -0.782941961002051
  0.0664762042360232
  0.0664762042360232
  0.0664762042360232
  0.0664762042360232
  0.0295449796604547
  0.0295449796604547
  0.0184656122877842
  0.0184656122877842
-0.00738624491511368
  0.0184656122877842
  0.0184656122877842
   0.139852695744639
 0.00914069772593322
 0.00914069772593322
 -0.0036562790903733
 0.00914069772593322
 0.00914069772593322
 0.00595374180765126
 0.00595374180765126
 0.00595374180765126
 0.00595374180765126
 0.00595374180765126
 -0.0809708885840573
 0.00595374180765126
 0.00595374180765126
 0.00595374180765126
 0.00595374180765126
 0.00595374180765126
 0.00595374180765126
 0.00595374180765126
 0.00595374180765126
 0.00595374180765126
 -0.0809708885840572
 0.00595374180765126
 0.00595374180765126
 0.00595374180765126
 0.00595374180765126
-0.00238149672306051
-0.00238149672306051
-0.00238149672306051
-0.00238149672306051
  0.0214334705075446
  0.0214334705075446
  0.0214334705075446
  0.0214334705075446
  0.0214334705075446
  0.0214334705075446
  0.0214334705075446
  0.0214334705075446
  0.0214334705075446
  -0.334362139917695
  0.0214334705075446
  0.0214334705075446
  0.0214334705075446
  0.0214334705075446
  0.0214334705075446
  0.0214334705075446
  0.0214334705075446
  0.0214334705075446
  0.0214334705075446
-0.00238149672306051
-0.00238149672306051
-0.00238149672306051
-0.00238149672306051
 0.00595374180765126
 0.00595374180765126
 0.00595374180765126
 0.00595374180765126
 -0.0809708885840573
 0.00595374180765126
 0.00595374180765126
 0.00595374180765126
 0.00595374180765126
 0.00595374180765126
 0.00595374180765126
 0.00595374180765126
 0.00595374180765126
 0.00595374180765126
 -0.0809708885840573
 0.00595374180765126
 0.00595374180765126
 0.00595374180765126
 0.00595374180765126
 0.00595374180765126
  0.0184656122877842
  0.0184656122877842
-0.00738624491511372
  0.0184656122877842
  0.0184656122877842
  0.0329065118133596
 0.00595374180765126
 0.00595374180765126
  -0.014288980338363
 0.00595374180765126
 0.00595374180765126
-0.00238149672306051
-0.00238149672306051
 0.00952598689224202
 0.00952598689224202
  0.0214334705075446
  0.0214334705075446
  0.0214334705075446
  0.0214334705075446
  -0.308603871361073
  0.0214334705075446
  0.0214334705075446
  0.0214334705075446
  0.0214334705075446
 0.00952598689224202
 0.00952598689224202
-0.00238149672306051
-0.00238149672306051
 0.00595374180765126
 0.00595374180765126
  -0.014288980338363
 0.00595374180765126
 0.00595374180765126
  0.0664762042360231
  0.0329065118133596
-0.00238149672306051
-0.00238149672306051
 0.00952598689224202
 0.00952598689224202
  0.0214334705075446
  0.0214334705075446
  0.0214334705075446
  0.0214334705075446
  -0.308603871361073
  0.0214334705075446
  0.0214334705075446
  0.0214334705075446
  0.0214334705075446
 0.00952598689224202
 0.00952598689224202
-0.00238149672306051
-0.00238149672306051
  0.0664762042360231
  0.0214334705075446
  0.0214334705075446
  0.0214334705075446
  0.0214334705075446
  -0.228623685413809
  0.0214334705075446
  0.0214334705075446
  0.0214334705075446
  0.0214334705075446
  0.0214334705075446
  0.0214334705075446
   -0.18575674439872
  0.0214334705075446
  0.0214334705075446
  0.0214334705075446
  -0.209571711629325
  0.0214334705075446
  -0.209571711629325
 -0.0943072702331961
  -0.051440329218107
 -0.0514403292181069
  -0.051440329218107
  0.0342935528120713
  0.0342935528120713
  0.0342935528120713
  0.0342935528120713
  0.0342935528120713
  0.0771604938271604
  0.0771604938271604
  0.0771604938271604
  0.0771604938271604
  0.0771604938271604
  0.0771604938271604
  0.0771604938271604
  0.0771604938271604
  0.0771604938271604
   -0.21350403901844
  0.0771604938271604
  0.0771604938271604
  0.0771604938271604
  0.0771604938271604
  0.0771604938271604
  0.0771604938271604
  0.0771604938271604
  0.0771604938271604
  0.0771604938271604
  0.0342935528120713
  0.0342935528120713
  0.0342935528120713
  0.0342935528120713
  0.0342935528120713
  -0.051440329218107
  -0.051440329218107
  -0.051440329218107
 -0.0943072702331961
  -0.209571711629325
  0.0214334705075446
  -0.209571711629325
  0.0214334705075446
  0.0214334705075446
  0.0214334705075446
   -0.18575674439872
  0.0214334705075446
  0.0214334705075446
  0.0214334705075446
  0.0214334705075446
  0.0214334705075446
  0.0214334705075446
  -0.228623685413809
  0.0214334705075446
  0.0214334705075446
  0.0214334705075446
  0.0214334705075446
  0.0664762042360232
-0.00238149672306051
-0.00238149672306051
 0.00952598689224202
 0.00952598689224202
  0.0214334705075446
  0.0214334705075446
  0.0214334705075446
  0.0214334705075446
  -0.308603871361073
  0.0214334705075446
  0.0214334705075446
  0.0214334705075446
  0.0214334705075446
 0.00952598689224202
 0.00952598689224202
-0.00238149672306051
-0.00238149672306051
  0.0329065118133597
  0.0664762042360232
 0.00595374180765126
 0.00595374180765126
  -0.014288980338363
 0.00595374180765126
 0.00595374180765126
-0.00238149672306051
-0.00238149672306051
 0.00952598689224202
 0.00952598689224202
  0.0214334705075446
  0.0214334705075446
  0.0214334705075446
  0.0214334705075446
  -0.308603871361073
  0.0214334705075446
  0.0214334705075446
  0.0214334705075446
  0.0214334705075446
 0.00952598689224202
 0.00952598689224202
-0.00238149672306051
-0.00238149672306051
 0.00595374180765126
 0.00595374180765126
 -0.0142889803383631
 0.00595374180765126
 0.00595374180765126
  0.0329065118133597
  0.0184656122877842
  0.0184656122877842
-0.00738624491511371
  0.0184656122877842
  0.0184656122877842
 0.00595374180765126
 0.00595374180765126
 0.00595374180765126
 0.00595374180765126
 0.00595374180765126
 -0.0809708885840572
 0.00595374180765126
 0.00595374180765126
 0.00595374180765126
 0.00595374180765126
 0.00595374180765126
 0.00595374180765126
 0.00595374180765126
 0.00595374180765126
 0.00595374180765126
 -0.0809708885840572
 0.00595374180765126
 0.00595374180765126
 0.00595374180765126
 0.00595374180765126
-0.00238149672306051
-0.00238149672306051
-0.00238149672306051
-0.00238149672306051
  0.0214334705075446
  0.0214334705075446
  0.0214334705075446
  0.0214334705075446
  0.0214334705075446
  0.0214334705075446
  0.0214334705075446
  0.0214334705075446
  0.0214334705075446
  -0.334362139917695
  0.0214334705075446
  0.0214334705075446
  0.0214334705075446
  0.0214334705075446
  0.0214334705075446
  0.0214334705075446
  0.0214334705075446
  0.0214334705075446
  0.0214334705075446
-0.00238149672306051
-0.00238149672306051
-0.00238149672306051
-0.00238149672306051
 0.00595374180765126
 0.00595374180765126
 0.00595374180765126
 0.00595374180765126
 -0.0809708885840572
 0.00595374180765126
 0.00595374180765126
 0.00595374180765126
 0.00595374180765126
 0.00595374180765126
 0.00595374180765126
 0.00595374180765126
 0.00595374180765126
 0.00595374180765126
 -0.0809708885840572
 0.00595374180765126
 0.00595374180765126
 0.00595374180765126
 0.00595374180765126
 0.00595374180765126
 0.00914069772593324
 0.00914069772593324
-0.00365627909037332
 0.00914069772593324
 0.00914069772593324
 0.00914069772593324
 0.00914069772593324
-0.00365627909037332
 0.00914069772593324
 0.00914069772593324
  0.0146251163614932
  0.0146251163614932
  0.0329065118133597
  0.0329065118133597
  0.0329065118133597
  0.0329065118133597
   -0.38756558357957
  0.0329065118133597
  0.0329065118133597
  0.0329065118133597
  0.0329065118133597
  0.0146251163614932
  0.0146251163614932
 0.00914069772593324
 0.00914069772593324
-0.00365627909037332
 0.00914069772593324
 0.00914069772593324
  0.0647424830844348
