  0.0179840230790097
  0.0179840230790097
  0.0179840230790097
 -0.0431616553896233
  0.0179840230790097
  0.0179840230790097
  0.0179840230790097
  0.0140335872156072
 0.00253908270164811
 0.00406253232263698
 0.00253908270164811
 0.00406253232263698
 0.00914069772593322
 0.00914069772593322
 0.00914069772593322
 0.00914069772593322
 0.00914069772593322
  -0.150719949169832
 0.00914069772593322
 0.00914069772593322
 0.00914069772593322
 0.00914069772593322
 0.00914069772593322
 0.00406253232263698
 0.00253908270164811
 0.00406253232263698
 0.00253908270164811
             0.02835
 0.00406253232263698
 0.00914069772593322
 0.00914069772593322
 0.00914069772593322
 0.00914069772593322
 -0.0995320419046062
 0.00914069772593322
 0.00914069772593322
 0.00914069772593322
 0.00914069772593322
 0.00406253232263698
 0.00914069772593322
 0.00914069772593322
 0.00914069772593322
 0.00914069772593322
 -0.0995320419046062
 0.00914069772593322
 0.00914069772593322
 0.00914069772593322
 0.00914069772593322
 0.00914069772593322
 -0.0402190699941062
 0.00914069772593322
 -0.0402190699941062
 -0.0219376745422397
 -0.0219376745422397
  0.0146251163614931
  0.0329065118133596
  0.0329065118133596
  0.0329065118133596
  0.0329065118133596
  0.0329065118133596
  0.0329065118133596
  0.0329065118133596
  0.0329065118133596
  0.0329065118133596
  0.0329065118133596
  0.0329065118133596
  -0.470707745081728
  0.0329065118133596
  0.0329065118133596
  0.0329065118133596
  0.0329065118133596
  0.0329065118133596
  0.0329065118133596
  0.0329065118133596
  0.0329065118133596
  0.0329065118133596
  0.0329065118133596
  0.0329065118133596
  0.0146251163614931
 -0.0219376745422397
 -0.0219376745422397
 -0.0402190699941062
 0.00914069772593322
 -0.0402190699941062
 0.00914069772593322
 0.00914069772593322
 0.00914069772593322
 0.00914069772593322
 0.00914069772593322
 -0.0995320419046062
 0.00914069772593322
 0.00914069772593322
 0.00914069772593322
 0.00914069772593322
 0.00406253232263698
 0.00914069772593322
 0.00914069772593322
 0.00914069772593322
 0.00914069772593322
 -0.0995320419046062
 0.00914069772593322
 0.00914069772593322
 0.00914069772593322
 0.00914069772593322
 0.00406253232263698
             0.02835
 0.00253908270164811
 0.00406253232263698
 0.00253908270164811
 0.00406253232263698
 0.00914069772593322
 0.00914069772593322
 0.00914069772593322
 0.00914069772593322
 0.00914069772593322
  -0.150719949169832
 0.00914069772593322
 0.00914069772593322
 0.00914069772593322
 0.00914069772593322
 0.00914069772593322
 0.00406253232263698
 0.00253908270164811
 0.00406253232263698
 0.00253908270164811
  0.0140335872156072
  0.0179840230790097
 0.00253908270164811
 0.00406253232263698
 0.00253908270164811
 0.00406253232263698
 0.00914069772593322
 0.00914069772593322
 0.00914069772593322
 0.00914069772593322
 0.00914069772593322
  -0.150719949169832
 0.00914069772593322
 0.00914069772593322
 0.00914069772593322
 0.00914069772593322
 0.00914069772593322
 0.00406253232263698
 0.00253908270164811
 0.00406253232263698
 0.00253908270164811
 0.00914069772593321
 0.00165381716879202
 0.00165381716879202
 -0.0125690104828193
 0.00165381716879202
 0.00165381716879202
 0.00264610747006723
 0.00264610747006723
 0.00595374180765126
 0.00595374180765126
 0.00595374180765126
 0.00595374180765126
 0.00595374180765126
 0.00595374180765126
 0.00595374180765126
  -0.124896272587173
 0.00595374180765126
 0.00595374180765126
 0.00595374180765126
 0.00595374180765126
 0.00595374180765126
 0.00595374180765126
 0.00595374180765126
 0.00264610747006723
 0.00264610747006723
 0.00165381716879202
 0.00165381716879202
 -0.0125690104828193
 0.00165381716879202
 0.00165381716879202
  0.0184656122877842
 0.00914069772593321
 0.00264610747006723
 0.00264610747006723
 0.00595374180765126
 0.00595374180765126
 0.00595374180765126
 0.00595374180765126
 0.00595374180765126
 0.00595374180765126
  -0.112988788971871
 0.00595374180765126
 0.00595374180765126
 0.00595374180765126
 0.00595374180765126
 0.00595374180765126
 0.00595374180765126
 0.00264610747006723
 0.00264610747006723
  0.0184656122877842
 0.00595374180765126
 0.00595374180765126
 0.00595374180765126
 0.00595374180765126
 -0.0862631035241917
 0.00595374180765126
 0.00595374180765126
 0.00595374180765126
 0.00595374180765126
 0.00595374180765126
 0.00595374180765126
 0.00595374180765126
 -0.0862631035241917
 0.00595374180765126
 0.00595374180765126
 0.00595374180765126
 0.00595374180765126
 -0.0809708885840572
 0.00595374180765126
 -0.0809708885840572
 -0.0690634049687547
-0.00238149672306051
-0.00238149672306051
-0.00238149672306051
 0.00952598689224202
  0.0214334705075446
  0.0214334705075446
  0.0214334705075446
  0.0214334705075446
  0.0214334705075446
  0.0214334705075446
  0.0214334705075446
  0.0214334705075446
  0.0214334705075446
  0.0214334705075446
  0.0214334705075446
  0.0214334705075446
  0.0214334705075446
  0.0917373706582669
  0.0214334705075446
  0.0214334705075446
  0.0214334705075446
  0.0214334705075446
  0.0214334705075446
  0.0214334705075446
  0.0214334705075446
  0.0214334705075446
  0.0214334705075446
  0.0214334705075446
  0.0214334705075446
  0.0214334705075446
  0.0214334705075446
 0.00952598689224202
-0.00238149672306051
-0.00238149672306051
-0.00238149672306051
 -0.0690634049687547
 -0.0809708885840573
 0.00595374180765126
 -0.0809708885840572
 0.00595374180765126
 0.00595374180765126
 0.00595374180765126
 0.00595374180765126
 -0.0862631035241917
 0.00595374180765126
 0.00595374180765126
 0.00595374180765126
 0.00595374180765126
 0.00595374180765126
 0.00595374180765126
 0.00595374180765126
 -0.0862631035241917
 0.00595374180765126
 0.00595374180765126
 0.00595374180765126
 0.00595374180765126
  0.0184656122877842
 0.00264610747006723
 0.00264610747006723
 0.00595374180765126
 0.00595374180765126
 0.00595374180765126
 0.00595374180765126
 0.00595374180765126
 0.00595374180765126
  -0.112988788971871
 0.00595374180765126
 0.00595374180765126
 0.00595374180765126
 0.00595374180765126
 0.00595374180765126
 0.00595374180765126
 0.00264610747006723
 0.00264610747006723
 0.00914069772593324
  0.0184656122877842
 0.00165381716879202
 0.00165381716879202
 -0.0125690104828193
 0.00165381716879202
 0.00165381716879202
 0.00264610747006723
 0.00264610747006723
 0.00595374180765126
 0.00595374180765126
 0.00595374180765126
 0.00595374180765126
 0.00595374180765126
 0.00595374180765126
 0.00595374180765126
  -0.124896272587173
 0.00595374180765126
 0.00595374180765126
 0.00595374180765126
 0.00595374180765126
 0.00595374180765126
 0.00595374180765126
 0.00595374180765126
 0.00264610747006723
 0.00264610747006723
 0.00165381716879202
 0.00165381716879202
 -0.0125690104828193
 0.00165381716879202
 0.00165381716879202
 0.00914069772593324
  0.0388479710401773
 0.00512933674660672
 0.00820693879457074
 0.00512933674660672
 0.00820693879457074
  0.0184656122877842
  0.0184656122877842
  0.0184656122877842
  0.0184656122877842
  0.0184656122877842
  -0.304477429278575
  0.0184656122877842
  0.0184656122877842
  0.0184656122877842
  0.0184656122877842
  0.0184656122877842
 0.00820693879457075
 0.00512933674660672
 0.00820693879457075
 0.00512933674660672
  0.0530319514590442
 0.00914069772593322
 -0.0036562790903733
 0.00914069772593322
 0.00914069772593321
 0.00264610747006723
 0.00264610747006723
 0.00595374180765126
 0.00595374180765126
 0.00595374180765126
 0.00595374180765126
 0.00595374180765126
 0.00595374180765126
   -0.12832562786838
 0.00595374180765126
 0.00595374180765126
 0.00595374180765126
 0.00595374180765126
 0.00595374180765126
 0.00595374180765126
 0.00264610747006723
 0.00264610747006723
  0.0184656122877842
 0.00595374180765126
 0.00595374180765126
 0.00595374180765126
 -0.0529221494013446
 0.00595374180765126
 0.00595374180765126
 0.00595374180765126
 0.00595374180765126
 0.00595374180765126
 -0.0529221494013446
 0.00595374180765126
 0.00595374180765126
 0.00595374180765126
 -0.0595374180765127
 0.00595374180765126
 -0.0595374180765127
-0.00238149672306051
-0.00238149672306051
-0.00238149672306051
-0.00238149672306051
 0.00952598689224202
  0.0214334705075446
  0.0214334705075446
  0.0214334705075446
  0.0214334705075446
  0.0214334705075446
  0.0214334705075446
  0.0214334705075446
  0.0214334705075446
  0.0214334705075446
 -0.0881132618672626
  0.0214334705075446
  0.0214334705075446
  0.0214334705075446
  0.0214334705075446
  0.0214334705075446
  0.0214334705075446
  0.0214334705075446
  0.0214334705075446
  0.0214334705075446
 0.00952598689224202
-0.00238149672306051
-0.00238149672306051
-0.00238149672306051
-0.00238149672306051
 -0.0595374180765127
 0.00595374180765126
 -0.0595374180765127
 0.00595374180765126
 0.00595374180765126
 0.00595374180765126
 -0.0529221494013446
 0.00595374180765126
 0.00595374180765126
 0.00595374180765126
 0.00595374180765126
 0.00595374180765126
 -0.0529221494013446
 0.00595374180765126
 0.00595374180765126
 0.00595374180765126
  0.0184656122877842
 0.00264610747006723
 0.00264610747006723
 0.00595374180765126
 0.00595374180765126
 0.00595374180765126
 0.00595374180765126
 0.00595374180765126
 0.00595374180765126
   -0.12832562786838
 0.00595374180765126
 0.00595374180765126
 0.00595374180765126
 0.00595374180765126
 0.00595374180765126
 0.00595374180765126
 0.00264610747006723
 0.00264610747006723
 0.00914069772593324
  0.0184656122877842
-0.00738624491511371
  0.0184656122877842
 -0.0036562790903733
 0.00595374180765126
 0.00595374180765126
 0.00595374180765126
 -0.0529221494013446
 0.00595374180765126
 0.00595374180765126
 0.00595374180765126
 0.00595374180765126
 0.00595374180765126
 -0.0529221494013446
 0.00595374180765126
 0.00595374180765126
 0.00595374180765126
 -0.0595374180765127
 0.00595374180765126
 -0.0595374180765127
-0.00238149672306051
-0.00238149672306051
-0.00238149672306051
-0.00238149672306051
  0.0214334705075446
  0.0214334705075446
  0.0214334705075446
  0.0214334705075446
  0.0214334705075446
  0.0214334705075446
  0.0214334705075446
  0.0214334705075446
  0.0214334705075446
  0.0214334705075446
  -0.111928229097868
  0.0214334705075446
  0.0214334705075446
  0.0214334705075446
  0.0214334705075446
  0.0214334705075446
  0.0214334705075446
  0.0214334705075446
  0.0214334705075446
  0.0214334705075446
  0.0214334705075446
-0.00238149672306051
-0.00238149672306051
-0.00238149672306051
-0.00238149672306051
 -0.0595374180765127
 0.00595374180765126
 -0.0595374180765127
 0.00595374180765126
 0.00595374180765126
 0.00595374180765126
 -0.0529221494013446
 0.00595374180765126
 0.00595374180765126
 0.00595374180765126
 0.00595374180765126
 0.00595374180765126
 -0.0529221494013446
 0.00595374180765126
 0.00595374180765126
 0.00595374180765126
-0.00738624491511371
  0.0329065118133596
 -0.0357224508459076
  -0.014288980338363
  -0.014288980338363
 0.00952598689224202
  0.0214334705075446
  0.0214334705075446
  0.0214334705075446
  0.0214334705075446
  0.0214334705075446
  0.0214334705075446
  0.0214334705075446
  0.0214334705075446
  0.0214334705075446
  0.0214334705075446
  0.0214334705075446
  -0.393279310403224
  0.0214334705075446
  0.0214334705075446
  0.0214334705075446
  0.0214334705075446
  0.0214334705075446
  0.0214334705075446
  0.0214334705075446
  0.0214334705075446
  0.0214334705075446
  0.0214334705075446
  0.0214334705075446
 0.00952598689224202
  -0.014288980338363
  -0.014288980338363
 -0.0357224508459076
  0.0664762042360231
  -0.014288980338363
  -0.014288980338363
 0.00952598689224202
  0.0214334705075446
  0.0214334705075446
  0.0214334705075446
  0.0214334705075446
  0.0214334705075446
  0.0214334705075446
  0.0214334705075446
  0.0214334705075446
  0.0214334705075446
  0.0214334705075446
  0.0214334705075446
  -0.316118816576063
  0.0214334705075446
  0.0214334705075446
  0.0214334705075446
  0.0214334705075446
  0.0214334705075446
  0.0214334705075446
  0.0214334705075446
  0.0214334705075446
  0.0214334705075446
  0.0214334705075446
  0.0214334705075446
 0.00952598689224202
  -0.014288980338363
  -0.014288980338363
  -0.014288980338363
  0.0214334705075446
  0.0214334705075446
  0.0214334705075446
  0.0214334705075446
  0.0214334705075446
  0.0214334705075446
  0.0214334705075446
  0.0214334705075446
  -0.198102423411065
  0.0214334705075446
  0.0214334705075446
  0.0214334705075446
  0.0214334705075446
  0.0214334705075446
  0.0214334705075446
  0.0214334705075446
  0.0214334705075446
 -0.0142889803383631
  0.0214334705075446
  0.0214334705075446
  0.0214334705075446
  0.0214334705075446
  0.0214334705075446
  0.0214334705075446
  0.0214334705075446
  -0.155235482395976
  0.0214334705075446
  0.0214334705075446
  0.0214334705075446
  0.0214334705075446
  0.0214334705075446
  0.0214334705075446
  0.0214334705075446
  0.0214334705075446
  0.0214334705075446
  -0.236206370980033
  0.0214334705075446
  0.0214334705075446
  -0.271490626428898
  -0.271490626428898
  -0.228623685413809
  -0.276253619875019
  -0.300068587105624
  -0.300068587105624
  -0.257201646090535
  -0.214334705075446
  -0.214334705075446
  -0.214334705075446
  -0.214334705075446
  -0.051440329218107
 -0.0514403292181069
  0.0342935528120713
  0.0342935528120713
  0.0342935528120713
  0.0342935528120713
  0.0771604938271604
  0.0771604938271604
  0.0771604938271604
  0.0771604938271604
  0.0771604938271604
  0.0771604938271604
  0.0771604938271604
  0.0771604938271604
  0.0771604938271604
    3.50013527333406
  0.0771604938271604
  0.0771604938271604
  0.0771604938271604
  0.0771604938271604
  0.0771604938271604
  0.0771604938271604
  0.0771604938271604
  0.0771604938271604
  0.0771604938271604
  0.0342935528120713
  0.0342935528120713
  0.0342935528120713
  0.0342935528120713
  -0.051440329218107
  -0.051440329218107
  -0.214334705075446
  -0.214334705075446
  -0.214334705075446
  -0.214334705075446
  -0.257201646090535
  -0.300068587105624
  -0.300068587105624
  -0.276253619875019
  -0.228623685413809
  -0.271490626428898
  -0.271490626428898
  0.0214334705075446
  0.0214334705075446
  -0.236206370980033
  0.0214334705075446
  0.0214334705075446
  0.0214334705075446
  0.0214334705075446
  0.0214334705075446
  0.0214334705075446
  0.0214334705075446
  0.0214334705075446
  0.0214334705075446
  -0.155235482395976
  0.0214334705075446
  0.0214334705075446
  0.0214334705075446
  0.0214334705075446
  0.0214334705075446
  0.0214334705075446
  0.0214334705075446
  -0.014288980338363
  0.0214334705075446
  0.0214334705075446
  0.0214334705075446
  0.0214334705075446
  0.0214334705075446
  0.0214334705075446
  0.0214334705075446
  0.0214334705075446
  -0.198102423411065
  0.0214334705075446
  0.0214334705075446
  0.0214334705075446
  0.0214334705075446
  0.0214334705075446
  0.0214334705075446
  0.0214334705075446
  0.0214334705075446
  -0.014288980338363
  -0.014288980338363
  -0.014288980338363
 0.00952598689224202
  0.0214334705075446
  0.0214334705075446
  0.0214334705075446
  0.0214334705075446
  0.0214334705075446
  0.0214334705075446
  0.0214334705075446
  0.0214334705075446
  0.0214334705075446
  0.0214334705075446
  0.0214334705075446
  -0.316118816576063
  0.0214334705075446
  0.0214334705075446
  0.0214334705075446
  0.0214334705075446
  0.0214334705075446
  0.0214334705075446
  0.0214334705075446
  0.0214334705075446
  0.0214334705075446
  0.0214334705075446
  0.0214334705075446
 0.00952598689224202
  -0.014288980338363
  -0.014288980338363
  0.0664762042360232
 -0.0357224508459076
 -0.0142889803383631
  -0.014288980338363
 0.00952598689224202
  0.0214334705075446
  0.0214334705075446
  0.0214334705075446
  0.0214334705075446
  0.0214334705075446
  0.0214334705075446
  0.0214334705075446
  0.0214334705075446
  0.0214334705075446
  0.0214334705075446
  0.0214334705075446
  -0.393279310403224
  0.0214334705075446
  0.0214334705075446
  0.0214334705075446
  0.0214334705075446
  0.0214334705075446
  0.0214334705075446
  0.0214334705075446
  0.0214334705075446
  0.0214334705075446
  0.0214334705075446
  0.0214334705075446
 0.00952598689224202
  -0.014288980338363
  -0.014288980338363
 -0.0357224508459076
  0.0329065118133597
-0.00738624491511369
 0.00595374180765126
 0.00595374180765126
 0.00595374180765126
 -0.0529221494013446
 0.00595374180765126
 0.00595374180765126
 0.00595374180765126
 0.00595374180765126
 0.00595374180765126
 -0.0529221494013446
 0.00595374180765126
 0.00595374180765126
 0.00595374180765126
 -0.0595374180765127
 0.00595374180765126
 -0.0595374180765127
-0.00238149672306051
-0.00238149672306051
-0.00238149672306051
-0.00238149672306051
  0.0214334705075446
  0.0214334705075446
  0.0214334705075446
  0.0214334705075446
  0.0214334705075446
  0.0214334705075446
  0.0214334705075446
  0.0214334705075446
  0.0214334705075446
  0.0214334705075446
  -0.111928229097867
  0.0214334705075446
  0.0214334705075446
  0.0214334705075446
  0.0214334705075446
  0.0214334705075446
  0.0214334705075446
  0.0214334705075446
  0.0214334705075446
  0.0214334705075446
  0.0214334705075446
-0.00238149672306051
-0.00238149672306051
-0.00238149672306051
-0.00238149672306051
 -0.0595374180765127
 0.00595374180765126
 -0.0595374180765127
 0.00595374180765126
 0.00595374180765126
 0.00595374180765126
 -0.0529221494013446
 0.00595374180765126
 0.00595374180765126
 0.00595374180765126
 0.00595374180765126
 0.00595374180765126
 -0.0529221494013446
 0.00595374180765126
 0.00595374180765126
 0.00595374180765126
-0.00365627909037332
  0.0184656122877842
-0.00738624491511369
  0.0184656122877842
 0.00914069772593321
 0.00264610747006723
 0.00264610747006723
 0.00595374180765126
 0.00595374180765126
 0.00595374180765126
 0.00595374180765126
 0.00595374180765126
 0.00595374180765126
   -0.12832562786838
 0.00595374180765126
 0.00595374180765126
 0.00595374180765126
 0.00595374180765126
 0.00595374180765126
 0.00595374180765126
 0.00264610747006723
 0.00264610747006723
  0.0184656122877842
 0.00595374180765126
 0.00595374180765126
 0.00595374180765126
 -0.0529221494013446
 0.00595374180765126
 0.00595374180765126
 0.00595374180765126
 0.00595374180765126
 0.00595374180765126
 -0.0529221494013446
 0.00595374180765126
 0.00595374180765126
 0.00595374180765126
 -0.0595374180765127
 0.00595374180765126
 -0.0595374180765127
-0.00238149672306051
-0.00238149672306051
-0.00238149672306051
-0.00238149672306051
 0.00952598689224202
  0.0214334705075446
  0.0214334705075446
  0.0214334705075446
  0.0214334705075446
  0.0214334705075446
  0.0214334705075446
  0.0214334705075446
  0.0214334705075446
  0.0214334705075446
 -0.0881132618672629
  0.0214334705075446
  0.0214334705075446
  0.0214334705075446
  0.0214334705075446
  0.0214334705075446
  0.0214334705075446
  0.0214334705075446
  0.0214334705075446
  0.0214334705075446
 0.00952598689224202
-0.00238149672306051
-0.00238149672306051
-0.00238149672306051
-0.00238149672306051
 -0.0595374180765127
 0.00595374180765126
 -0.0595374180765127
 0.00595374180765126
 0.00595374180765126
 0.00595374180765126
 -0.0529221494013446
 0.00595374180765126
 0.00595374180765126
 0.00595374180765126
 0.00595374180765126
 0.00595374180765126
 -0.0529221494013446
 0.00595374180765126
 0.00595374180765126
 0.00595374180765126
  0.0184656122877842
 0.00264610747006723
 0.00264610747006723
 0.00595374180765126
 0.00595374180765126
 0.00595374180765126
 0.00595374180765126
 0.00595374180765126
 0.00595374180765126
   -0.12832562786838
 0.00595374180765126
 0.00595374180765126
 0.00595374180765126
 0.00595374180765126
 0.00595374180765126
 0.00595374180765126
 0.00264610747006723
 0.00264610747006723
 0.00914069772593324
 0.00914069772593324
-0.00365627909037332
 0.00914069772593324
  0.0530319514590443
 0.00512933674660672
 0.00820693879457075
 0.00512933674660672
 0.00820693879457075
  0.0184656122877842
  0.0184656122877842
  0.0184656122877842
  0.0184656122877842
  0.0184656122877842
  -0.304477429278575
  0.0184656122877842
  0.0184656122877842
  0.0184656122877842
  0.0184656122877842
  0.0184656122877842
 0.00820693879457075
 0.00512933674660672
 0.00820693879457076
 0.00512933674660672
  0.0388479710401774
 0.00914069772593321
 0.00165381716879202
 0.00165381716879202
 -0.0125690104828193
 0.00165381716879202
 0.00165381716879202
 0.00264610747006723
 0.00264610747006723
 0.00595374180765126
 0.00595374180765126
 0.00595374180765126
 0.00595374180765126
 0.00595374180765126
 0.00595374180765126
 0.00595374180765126
  -0.124896272587173
 0.00595374180765126
 0.00595374180765126
 0.00595374180765126
 0.00595374180765126
 0.00595374180765126
 0.00595374180765126
 0.00595374180765126
 0.00264610747006723
 0.00264610747006723
 0.00165381716879202
 0.00165381716879202
 -0.0125690104828193
 0.00165381716879202
 0.00165381716879202
  0.0184656122877842
 0.00914069772593321
 0.00264610747006723
 0.00264610747006723
 0.00595374180765126
 0.00595374180765126
 0.00595374180765126
 0.00595374180765126
 0.00595374180765126
 0.00595374180765126
  -0.112988788971871
 0.00595374180765126
 0.00595374180765126
 0.00595374180765126
 0.00595374180765126
 0.00595374180765126
 0.00595374180765126
 0.00264610747006723
 0.00264610747006723
  0.0184656122877842
 0.00595374180765126
 0.00595374180765126
 0.00595374180765126
 0.00595374180765126
 -0.0862631035241917
 0.00595374180765126
 0.00595374180765126
 0.00595374180765126
 0.00595374180765126
 0.00595374180765126
 0.00595374180765126
 0.00595374180765126
 -0.0862631035241917
 0.00595374180765126
 0.00595374180765126
 0.00595374180765126
 0.00595374180765126
 -0.0809708885840573
 0.00595374180765126
 -0.0809708885840573
 -0.0690634049687547
-0.00238149672306051
-0.00238149672306051
-0.00238149672306051
 0.00952598689224202
  0.0214334705075446
  0.0214334705075446
  0.0214334705075446
  0.0214334705075446
  0.0214334705075446
  0.0214334705075446
  0.0214334705075446
  0.0214334705075446
  0.0214334705075446
  0.0214334705075446
  0.0214334705075446
  0.0214334705075446
  0.0214334705075446
  0.0917373706582669
  0.0214334705075446
  0.0214334705075446
  0.0214334705075446
  0.0214334705075446
  0.0214334705075446
  0.0214334705075446
  0.0214334705075446
  0.0214334705075446
  0.0214334705075446
  0.0214334705075446
  0.0214334705075446
  0.0214334705075446
  0.0214334705075446
 0.00952598689224202
-0.00238149672306051
-0.00238149672306051
-0.00238149672306051
 -0.0690634049687547
 -0.0809708885840573
 0.00595374180765126
 -0.0809708885840573
 0.00595374180765126
 0.00595374180765126
 0.00595374180765126
 0.00595374180765126
 -0.0862631035241917
 0.00595374180765126
 0.00595374180765126
 0.00595374180765126
 0.00595374180765126
 0.00595374180765126
 0.00595374180765126
 0.00595374180765126
 -0.0862631035241917
 0.00595374180765126
 0.00595374180765126
 0.00595374180765126
 0.00595374180765126
  0.0184656122877842
 0.00264610747006723
 0.00264610747006723
 0.00595374180765126
 0.00595374180765126
 0.00595374180765126
 0.00595374180765126
 0.00595374180765126
 0.00595374180765126
  -0.112988788971871
 0.00595374180765126
 0.00595374180765126
 0.00595374180765126
 0.00595374180765126
 0.00595374180765126
 0.00595374180765126
 0.00264610747006723
 0.00264610747006723
 0.00914069772593324
  0.0184656122877842
 0.00165381716879202
 0.00165381716879202
 -0.0125690104828193
 0.00165381716879202
 0.00165381716879202
 0.00264610747006723
 0.00264610747006723
 0.00595374180765126
 0.00595374180765126
 0.00595374180765126
 0.00595374180765126
 0.00595374180765126
 0.00595374180765126
 0.00595374180765126
  -0.124896272587173
 0.00595374180765126
 0.00595374180765126
 0.00595374180765126
 0.00595374180765126
 0.00595374180765126
 0.00595374180765126
 0.00595374180765126
 0.00264610747006723
 0.00264610747006723
 0.00165381716879202
 0.00165381716879202
 -0.0125690104828193
 0.00165381716879202
 0.00165381716879202
 0.00914069772593324
 0.00253908270164812
 0.00406253232263699
 0.00253908270164812
 0.00406253232263699
 0.00914069772593324
 0.00914069772593324
 0.00914069772593324
 0.00914069772593324
 0.00914069772593324
  -0.150719949169833
 0.00914069772593324
 0.00914069772593324
 0.00914069772593324
 0.00914069772593324
 0.00914069772593324
 0.00406253232263699
 0.00253908270164812
   0.004062532322637
 0.00253908270164812
  0.0179840230790097
  0.0388479710401773
  0.0388479710401773
  0.0388479710401773
 -0.0932351304964256
  0.0388479710401773
  0.0388479710401773
  0.0388479710401773
             0.02835
 0.00512933674660672
 0.00820693879457075
 0.00512933674660672
 0.00820693879457074
  0.0184656122877842
  0.0184656122877842
  0.0184656122877842
  0.0184656122877842
  0.0184656122877842
  -0.304477429278575
  0.0184656122877842
  0.0184656122877842
  0.0184656122877842
  0.0184656122877842
  0.0184656122877842
 0.00820693879457075
 0.00512933674660672
 0.00820693879457075
 0.00512933674660672
  0.0572713510559978
 0.00820693879457075
  0.0184656122877842
  0.0184656122877842
  0.0184656122877842
  0.0184656122877842
  -0.201070000466983
  0.0184656122877842
  0.0184656122877842
  0.0184656122877842
  0.0184656122877842
 0.00820693879457074
  0.0184656122877842
  0.0184656122877842
  0.0184656122877842
  0.0184656122877842
  -0.201070000466984
  0.0184656122877842
  0.0184656122877842
  0.0184656122877842
  0.0184656122877842
  0.0184656122877842
 -0.0812486940662505
  0.0184656122877842
 -0.0812486940662505
 -0.0443174694906821
 -0.0443174694906821
  0.0295449796604547
  0.0664762042360231
  0.0664762042360231
  0.0664762042360231
  0.0664762042360231
  0.0664762042360231
  0.0664762042360231
  0.0664762042360231
  0.0664762042360231
  0.0664762042360231
  0.0664762042360231
  0.0664762042360231
  -0.950901887596219
  0.0664762042360231
  0.0664762042360231
  0.0664762042360231
  0.0664762042360231
  0.0664762042360231
  0.0664762042360231
  0.0664762042360231
  0.0664762042360231
  0.0664762042360231
  0.0664762042360231
  0.0664762042360231
  0.0295449796604547
 -0.0443174694906821
 -0.0443174694906821
 -0.0812486940662505
  0.0184656122877842
 -0.0812486940662505
  0.0184656122877842
  0.0184656122877842
  0.0184656122877842
  0.0184656122877842
  0.0184656122877842
  -0.201070000466984
  0.0184656122877842
  0.0184656122877842
  0.0184656122877842
  0.0184656122877842
 0.00820693879457074
  0.0184656122877842
  0.0184656122877842
  0.0184656122877842
  0.0184656122877842
  -0.201070000466984
  0.0184656122877842
  0.0184656122877842
  0.0184656122877842
  0.0184656122877842
 0.00820693879457074
  0.0572713510559978
 0.00512933674660672
 0.00820693879457075
 0.00512933674660672
 0.00820693879457075
  0.0184656122877842
  0.0184656122877842
  0.0184656122877842
  0.0184656122877842
  0.0184656122877842
  -0.304477429278575
  0.0184656122877842
  0.0184656122877842
  0.0184656122877842
  0.0184656122877842
  0.0184656122877842
 0.00820693879457075
 0.00512933674660672
 0.00820693879457074
 0.00512933674660672
  0.0283500000000001
  0.0530319514590442
  0.0530319514590442
  0.0530319514590442
  -0.127276683501706
  0.0530319514590442
  0.0530319514590442
  0.0530319514590442
  0.0179840230790097
  0.0179840230790097
 -0.0431616553896233
  0.0179840230790097
  0.0179840230790097
 0.00406253232263698
 0.00914069772593322
 0.00914069772593322
 0.00914069772593322
 0.00914069772593322
 -0.0995320419046062
 0.00914069772593322
 0.00914069772593322
 0.00914069772593322
 0.00914069772593322
 0.00406253232263698
 0.00914069772593322
 0.00914069772593322
 0.00914069772593322
 0.00914069772593322
 -0.0995320419046062
 0.00914069772593322
 0.00914069772593322
 0.00914069772593322
 0.00914069772593322
 -0.0219376745422397
 -0.0219376745422398
 -0.0219376745422397
 -0.0219376745422398
  0.0146251163614931
  0.0329065118133596
  0.0329065118133596
  0.0329065118133596
  0.0329065118133596
  0.0329065118133596
  0.0329065118133596
  0.0329065118133596
  0.0329065118133596
  0.0329065118133596
  0.0329065118133596
  -0.441457512358742
  0.0329065118133596
  0.0329065118133596
  0.0329065118133596
  0.0329065118133596
  0.0329065118133596
  0.0329065118133596
  0.0329065118133596
  0.0329065118133596
  0.0329065118133596
  0.0329065118133596
  0.0146251163614931
 -0.0219376745422397
 -0.0219376745422398
 -0.0219376745422398
 -0.0219376745422398
 0.00914069772593322
 0.00914069772593322
 0.00914069772593322
 0.00914069772593322
 -0.0995320419046062
 0.00914069772593322
 0.00914069772593322
 0.00914069772593322
 0.00914069772593322
 0.00406253232263698
 0.00914069772593322
 0.00914069772593322
 0.00914069772593322
 0.00914069772593322
 -0.0995320419046062
 0.00914069772593322
 0.00914069772593322
 0.00914069772593322
 0.00914069772593322
 0.00406253232263698
 0.00914069772593322
 -0.0036562790903733
 0.00914069772593322
 0.00914069772593321
 0.00264610747006723
 0.00264610747006723
 0.00595374180765126
 0.00595374180765126
 0.00595374180765126
 0.00595374180765126
 0.00595374180765126
  -0.116418144253078
 0.00595374180765126
 0.00595374180765126
 0.00595374180765126
 0.00595374180765126
 0.00595374180765126
 0.00264610747006723
 0.00264610747006723
  0.0184656122877842
 0.00595374180765126
 0.00595374180765126
 0.00595374180765126
 -0.0529221494013447
 0.00595374180765126
 0.00595374180765126
 0.00595374180765126
 0.00595374180765126
 0.00595374180765126
 -0.0529221494013446
 0.00595374180765126
 0.00595374180765126
 0.00595374180765126
 -0.0595374180765127
 0.00595374180765126
 -0.0595374180765127
-0.00238149672306051
-0.00238149672306051
-0.00238149672306051
 0.00952598689224202
 0.00952598689224202
  0.0214334705075446
  0.0214334705075446
  0.0214334705075446
  0.0214334705075446
  0.0214334705075446
  0.0214334705075446
  0.0214334705075446
  0.0214334705075446
  0.0214334705075446
  -0.111928229097868
  0.0214334705075446
  0.0214334705075446
  0.0214334705075446
  0.0214334705075446
  0.0214334705075446
  0.0214334705075446
  0.0214334705075446
  0.0214334705075446
  0.0214334705075446
 0.00952598689224202
 0.00952598689224202
-0.00238149672306051
-0.00238149672306051
-0.00238149672306051
 -0.0595374180765127
 0.00595374180765126
 -0.0595374180765127
 0.00595374180765126
 0.00595374180765126
 0.00595374180765126
 -0.0529221494013446
 0.00595374180765126
 0.00595374180765126
 0.00595374180765126
 0.00595374180765126
 0.00595374180765126
 -0.0529221494013446
 0.00595374180765126
 0.00595374180765126
 0.00595374180765126
  0.0184656122877842
 0.00264610747006723
 0.00264610747006723
 0.00595374180765126
 0.00595374180765126
 0.00595374180765126
 0.00595374180765126
 0.00595374180765126
  -0.116418144253078
 0.00595374180765126
 0.00595374180765126
 0.00595374180765126
 0.00595374180765126
 0.00595374180765126
 0.00264610747006723
 0.00264610747006723
 0.00914069772593324
  0.0184656122877842
-0.00738624491511372
  0.0184656122877842
-0.00365627909037329
 0.00595374180765126
 0.00595374180765126
 0.00595374180765126
 -0.0529221494013446
 0.00595374180765126
 0.00595374180765126
 0.00595374180765126
 0.00595374180765126
 0.00595374180765126
 -0.0529221494013446
 0.00595374180765126
 0.00595374180765126
 -0.0476299344612101
 -0.0476299344612101
-0.00238149672306051
-0.00238149672306051
-0.00238149672306051
 0.00952598689224202
  0.0214334705075446
  0.0214334705075446
  0.0214334705075446
  0.0214334705075446
  0.0214334705075446
  0.0214334705075446
  0.0214334705075446
  0.0214334705075446
  0.0214334705075446
  0.0214334705075446
  -0.159558163559078
  0.0214334705075446
  0.0214334705075446
  0.0214334705075446
  0.0214334705075446
  0.0214334705075446
  0.0214334705075446
  0.0214334705075446
  0.0214334705075446
  0.0214334705075446
  0.0214334705075446
 0.00952598689224202
-0.00238149672306051
-0.00238149672306051
-0.00238149672306051
 -0.0476299344612102
 -0.0476299344612101
 0.00595374180765126
 0.00595374180765126
 -0.0529221494013446
 0.00595374180765126
 0.00595374180765126
 0.00595374180765126
 0.00595374180765126
 0.00595374180765126
 -0.0529221494013446
 0.00595374180765126
 0.00595374180765126
 0.00595374180765126
-0.00738624491511372
  0.0329065118133596
  -0.014288980338363
  -0.014288980338363
 -0.0142889803383631
 0.00952598689224202
  0.0214334705075446
  0.0214334705075446
  0.0214334705075446
  0.0214334705075446
  0.0214334705075446
  0.0214334705075446
  0.0214334705075446
  0.0214334705075446
  0.0214334705075446
  0.0214334705075446
  0.0214334705075446
  -0.436146251418313
  0.0214334705075446
  0.0214334705075446
  0.0214334705075446
  0.0214334705075446
  0.0214334705075446
  0.0214334705075446
  0.0214334705075446
  0.0214334705075446
  0.0214334705075446
  0.0214334705075446
  0.0214334705075446
 0.00952598689224202
  -0.014288980338363
  -0.014288980338363
 -0.0142889803383631
  0.0664762042360231
  -0.014288980338363
  -0.014288980338363
 0.00952598689224202
  0.0214334705075446
  0.0214334705075446
  0.0214334705075446
  0.0214334705075446
  0.0214334705075446
  0.0214334705075446
  0.0214334705075446
  0.0214334705075446
  0.0214334705075446
  0.0214334705075446
  0.0214334705075446
  -0.358985757591153
  0.0214334705075446
  0.0214334705075446
  0.0214334705075446
  0.0214334705075446
  0.0214334705075446
  0.0214334705075446
  0.0214334705075446
  0.0214334705075446
  0.0214334705075446
  0.0214334705075446
  0.0214334705075446
 0.00952598689224202
  -0.014288980338363
  -0.014288980338363
-0.00238149672306051
  0.0214334705075446
  0.0214334705075446
  0.0214334705075446
  0.0214334705075446
  0.0214334705075446
  0.0214334705075446
  0.0214334705075446
  0.0214334705075446
   -0.22191739064167
  0.0214334705075446
  0.0214334705075446
  0.0214334705075446
  0.0214334705075446
  0.0214334705075446
  0.0214334705075446
  0.0214334705075446
  0.0214334705075446
-0.00238149672306051
  0.0214334705075446
  0.0214334705075446
  0.0214334705075446
  0.0214334705075446
  0.0214334705075446
  0.0214334705075446
  0.0214334705075446
  -0.179050449626581
  0.0214334705075446
  0.0214334705075446
  0.0214334705075446
  0.0214334705075446
  0.0214334705075446
  0.0214334705075446
  0.0214334705075446
  0.0214334705075446
  0.0214334705075446
  -0.236206370980033
  0.0214334705075446
  0.0214334705075446
  -0.271490626428898
  -0.271490626428898
  -0.252438652644414
  -0.276253619875019
  -0.300068587105624
  -0.300068587105624
  -0.257201646090535
  -0.214334705075446
  -0.214334705075446
  -0.214334705075446
  -0.137174211248285
  -0.051440329218107
  -0.051440329218107
  0.0342935528120713
  0.0342935528120713
  0.0342935528120713
  0.0342935528120713
  0.0771604938271604
  0.0771604938271604
  0.0771604938271604
  0.0771604938271604
  0.0771604938271604
  0.0771604938271604
  0.0771604938271604
  0.0771604938271604
  0.0771604938271604
    3.52680803663233
  0.0771604938271604
  0.0771604938271604
  0.0771604938271604
  0.0771604938271604
  0.0771604938271604
  0.0771604938271604
  0.0771604938271604
  0.0771604938271604
  0.0771604938271604
  0.0342935528120713
  0.0342935528120713
  0.0342935528120713
  0.0342935528120713
 -0.0514403292181069
  -0.051440329218107
  -0.137174211248285
  -0.214334705075446
  -0.214334705075446
  -0.214334705075446
  -0.257201646090535
  -0.300068587105624
  -0.300068587105624
  -0.276253619875019
  -0.252438652644414
  -0.271490626428898
  -0.271490626428898
  0.0214334705075446
  0.0214334705075446
  -0.236206370980033
  0.0214334705075446
  0.0214334705075446
  0.0214334705075446
  0.0214334705075446
  0.0214334705075446
  0.0214334705075446
  0.0214334705075446
  0.0214334705075446
  0.0214334705075446
  -0.179050449626581
  0.0214334705075446
  0.0214334705075446
  0.0214334705075446
  0.0214334705075446
  0.0214334705075446
  0.0214334705075446
  0.0214334705075446
-0.00238149672306051
  0.0214334705075446
  0.0214334705075446
  0.0214334705075446
  0.0214334705075446
  0.0214334705075446
  0.0214334705075446
  0.0214334705075446
  0.0214334705075446
   -0.22191739064167
  0.0214334705075446
  0.0214334705075446
  0.0214334705075446
  0.0214334705075446
  0.0214334705075446
  0.0214334705075446
  0.0214334705075446
  0.0214334705075446
-0.00238149672306051
  -0.014288980338363
  -0.014288980338363
 0.00952598689224202
  0.0214334705075446
  0.0214334705075446
  0.0214334705075446
  0.0214334705075446
  0.0214334705075446
  0.0214334705075446
  0.0214334705075446
  0.0214334705075446
  0.0214334705075446
  0.0214334705075446
  0.0214334705075446
  -0.358985757591153
  0.0214334705075446
  0.0214334705075446
  0.0214334705075446
  0.0214334705075446
  0.0214334705075446
  0.0214334705075446
  0.0214334705075446
  0.0214334705075446
  0.0214334705075446
  0.0214334705075446
  0.0214334705075446
 0.00952598689224202
  -0.014288980338363
  -0.014288980338363
  0.0664762042360232
 -0.0142889803383631
  -0.014288980338363
  -0.014288980338363
 0.00952598689224202
  0.0214334705075446
  0.0214334705075446
  0.0214334705075446
  0.0214334705075446
  0.0214334705075446
  0.0214334705075446
  0.0214334705075446
  0.0214334705075446
  0.0214334705075446
  0.0214334705075446
  0.0214334705075446
  -0.436146251418313
  0.0214334705075446
  0.0214334705075446
  0.0214334705075446
  0.0214334705075446
  0.0214334705075446
  0.0214334705075446
  0.0214334705075446
  0.0214334705075446
  0.0214334705075446
  0.0214334705075446
  0.0214334705075446
 0.00952598689224202
  -0.014288980338363
  -0.014288980338363
 -0.0142889803383631
  0.0329065118133597
-0.00738624491511368
 0.00595374180765126
 0.00595374180765126
 0.00595374180765126
 -0.0529221494013446
 0.00595374180765126
 0.00595374180765126
 0.00595374180765126
 0.00595374180765126
 0.00595374180765126
 -0.0529221494013446
 0.00595374180765126
 0.00595374180765126
 -0.0476299344612101
 -0.0476299344612101
-0.00238149672306051
-0.00238149672306051
-0.00238149672306051
 0.00952598689224202
  0.0214334705075446
  0.0214334705075446
  0.0214334705075446
  0.0214334705075446
  0.0214334705075446
  0.0214334705075446
  0.0214334705075446
  0.0214334705075446
  0.0214334705075446
  0.0214334705075446
  -0.159558163559078
  0.0214334705075446
  0.0214334705075446
  0.0214334705075446
  0.0214334705075446
  0.0214334705075446
  0.0214334705075446
  0.0214334705075446
  0.0214334705075446
  0.0214334705075446
  0.0214334705075446
 0.00952598689224202
-0.00238149672306051
-0.00238149672306051
-0.00238149672306051
 -0.0476299344612101
 -0.0476299344612102
 0.00595374180765126
 0.00595374180765126
 -0.0529221494013446
 0.00595374180765126
 0.00595374180765126
 0.00595374180765126
 0.00595374180765126
 0.00595374180765126
 -0.0529221494013446
 0.00595374180765126
 0.00595374180765126
 0.00595374180765126
-0.00365627909037332
  0.0184656122877842
-0.00738624491511368
  0.0184656122877842
 0.00914069772593321
 0.00264610747006723
 0.00264610747006723
 0.00595374180765126
 0.00595374180765126
 0.00595374180765126
 0.00595374180765126
 0.00595374180765126
  -0.116418144253078
 0.00595374180765126
 0.00595374180765126
 0.00595374180765126
 0.00595374180765126
 0.00595374180765126
 0.00264610747006723
 0.00264610747006723
  0.0184656122877842
 0.00595374180765126
 0.00595374180765126
 0.00595374180765126
 -0.0529221494013446
 0.00595374180765126
 0.00595374180765126
 0.00595374180765126
 0.00595374180765126
 0.00595374180765126
 -0.0529221494013446
 0.00595374180765126
 0.00595374180765126
 0.00595374180765126
 -0.0595374180765127
 0.00595374180765126
 -0.0595374180765127
-0.00238149672306051
-0.00238149672306051
-0.00238149672306051
 0.00952598689224202
 0.00952598689224202
  0.0214334705075446
  0.0214334705075446
  0.0214334705075446
  0.0214334705075446
  0.0214334705075446
  0.0214334705075446
  0.0214334705075446
  0.0214334705075446
  0.0214334705075446
  -0.111928229097868
  0.0214334705075446
  0.0214334705075446
  0.0214334705075446
  0.0214334705075446
  0.0214334705075446
  0.0214334705075446
  0.0214334705075446
  0.0214334705075446
  0.0214334705075446
 0.00952598689224202
 0.00952598689224202
-0.00238149672306051
-0.00238149672306051
-0.00238149672306051
 -0.0595374180765127
 0.00595374180765126
 -0.0595374180765127
 0.00595374180765126
 0.00595374180765126
 0.00595374180765126
 -0.0529221494013446
 0.00595374180765126
 0.00595374180765126
 0.00595374180765126
 0.00595374180765126
 0.00595374180765126
 -0.0529221494013446
 0.00595374180765126
 0.00595374180765126
 0.00595374180765126
  0.0184656122877842
 0.00264610747006723
 0.00264610747006723
 0.00595374180765126
 0.00595374180765126
 0.00595374180765126
 0.00595374180765126
 0.00595374180765126
  -0.116418144253078
 0.00595374180765126
 0.00595374180765126
 0.00595374180765126
 0.00595374180765126
 0.00595374180765126
 0.00264610747006723
 0.00264610747006723
 0.00914069772593324
 0.00914069772593324
-0.00365627909037332
 0.00914069772593324
  0.0388479710401773
  0.0388479710401773
 -0.0932351304964257
  0.0388479710401773
  0.0388479710401773
 0.00820693879457074
  0.0184656122877842
  0.0184656122877842
  0.0184656122877842
  0.0184656122877842
  -0.201070000466983
  0.0184656122877842
  0.0184656122877842
  0.0184656122877842
  0.0184656122877842
 0.00820693879457074
  0.0184656122877842
  0.0184656122877842
  0.0184656122877842
  0.0184656122877842
  -0.201070000466984
  0.0184656122877842
  0.0184656122877842
  0.0184656122877842
  0.0184656122877842
 -0.0443174694906821
 -0.0443174694906821
 -0.0443174694906821
 -0.0443174694906821
  0.0295449796604547
  0.0664762042360231
  0.0664762042360231
  0.0664762042360231
  0.0664762042360231
  0.0664762042360231
  0.0664762042360231
  0.0664762042360231
  0.0664762042360231
  0.0664762042360231
  0.0664762042360231
  -0.891811928275308
  0.0664762042360231
  0.0664762042360231
  0.0664762042360231
  0.0664762042360231
  0.0664762042360231
  0.0664762042360231
  0.0664762042360231
  0.0664762042360231
  0.0664762042360231
  0.0664762042360231
  0.0295449796604547
 -0.0443174694906821
 -0.0443174694906821
 -0.0443174694906821
 -0.0443174694906821
  0.0184656122877842
  0.0184656122877842
  0.0184656122877842
  0.0184656122877842
  -0.201070000466984
  0.0184656122877842
  0.0184656122877842
  0.0184656122877842
  0.0184656122877842
 0.00820693879457074
  0.0184656122877842
  0.0184656122877842
  0.0184656122877842
  0.0184656122877842
  -0.201070000466984
  0.0184656122877842
  0.0184656122877842
  0.0184656122877842
  0.0184656122877842
 0.00820693879457074
  0.0530319514590442
  0.0530319514590442
  -0.127276683501706
  0.0530319514590442
  0.0530319514590442
  0.0647424830844349
-0.00365627909037329
  0.0329065118133596
  0.0329065118133596
  0.0329065118133596
  0.0329065118133596
  0.0329065118133596
  -0.416815816302555
  0.0329065118133596
  0.0329065118133596
  0.0329065118133596
  0.0329065118133596
  0.0329065118133596
 -0.0036562790903733
 -0.0036562790903733
 0.00595374180765126
 0.00595374180765126
 -0.0195811952784975
 0.00595374180765126
 0.00595374180765126
-0.00767371166319498
 -0.0142889803383631
-0.00238149672306051
-0.00238149672306051
-0.00238149672306051
-0.00238149672306051
 0.00952598689224202
  0.0214334705075446
  0.0214334705075446
  0.0214334705075446
  0.0214334705075446
  0.0214334705075446
  0.0214334705075446
  0.0214334705075446
  0.0214334705075446
  -0.286063269488052
  0.0214334705075446
  0.0214334705075446
  0.0214334705075446
  0.0214334705075446
  0.0214334705075446
  0.0214334705075446
  0.0214334705075446
  0.0214334705075446
 0.00952598689224202
-0.00238149672306051
-0.00238149672306051
-0.00238149672306051
-0.00238149672306051
 -0.0142889803383631
-0.00767371166319497
 0.00595374180765126
 0.00595374180765126
 -0.0195811952784975
 0.00595374180765126
 0.00595374180765126
-0.00738624491511371
  -0.014288980338363
  -0.014288980338363
-0.00238149672306051
  0.0214334705075446
  0.0214334705075446
  0.0214334705075446
  0.0214334705075446
  0.0214334705075446
  0.0214334705075446
  0.0214334705075446
  0.0214334705075446
   -0.37609443004962
  0.0214334705075446
  0.0214334705075446
  0.0214334705075446
  0.0214334705075446
  0.0214334705075446
  0.0214334705075446
  0.0214334705075446
  0.0214334705075446
-0.00238149672306051
  -0.014288980338363
  -0.014288980338363
-0.00238149672306051
-0.00238149672306051
  0.0214334705075446
  0.0214334705075446
  0.0214334705075446
  0.0214334705075446
  0.0214334705075446
  0.0214334705075446
  0.0214334705075446
  -0.357042456265135
  0.0214334705075446
  0.0214334705075446
  0.0214334705075446
  0.0214334705075446
  0.0214334705075446
  0.0214334705075446
  0.0214334705075446
-0.00238149672306051
-0.00238149672306051
-0.00238149672306051
  0.0214334705075446
  0.0214334705075446
  0.0214334705075446
  0.0214334705075446
  -0.215211095869532
  0.0214334705075446
  0.0214334705075446
  0.0214334705075446
  0.0214334705075446
-0.00238149672306051
  0.0214334705075446
  0.0214334705075446
  0.0214334705075446
  0.0214334705075446
  -0.239026063100137
  0.0214334705075446
  0.0214334705075446
  0.0214334705075446
  0.0214334705075446
  -0.228623685413809
  -0.151463191586648
  -0.151463191586648
  -0.175278158817253
   -0.11335924401768
  -0.137174211248285
  -0.137174211248285
 -0.0943072702331961
  -0.051440329218107
  -0.051440329218107
  -0.051440329218107
  -0.051440329218107
-0.00857338820301785
-0.00857338820301785
  0.0771604938271604
  0.0771604938271604
  0.0771604938271604
  0.0771604938271604
  0.0771604938271604
  0.0771604938271604
  0.0771604938271604
  0.0771604938271604
    2.04204432776515
  0.0771604938271604
  0.0771604938271604
  0.0771604938271604
  0.0771604938271604
  0.0771604938271604
  0.0771604938271604
  0.0771604938271604
  0.0771604938271604
-0.00857338820301785
-0.00857338820301785
  -0.051440329218107
  -0.051440329218107
  -0.051440329218107
  -0.051440329218107
 -0.0943072702331961
  -0.137174211248285
  -0.137174211248285
   -0.11335924401768
  -0.175278158817253
  -0.151463191586648
  -0.151463191586648
  -0.228623685413809
  0.0214334705075446
  0.0214334705075446
  0.0214334705075446
  0.0214334705075446
  -0.239026063100137
  0.0214334705075446
  0.0214334705075446
  0.0214334705075446
  0.0214334705075446
-0.00238149672306051
  0.0214334705075446
  0.0214334705075446
  0.0214334705075446
  0.0214334705075446
  -0.215211095869532
  0.0214334705075446
  0.0214334705075446
  0.0214334705075446
  0.0214334705075446
-0.00238149672306051
-0.00238149672306051
-0.00238149672306051
  0.0214334705075446
  0.0214334705075446
  0.0214334705075446
  0.0214334705075446
  0.0214334705075446
  0.0214334705075446
  0.0214334705075446
  -0.357042456265136
  0.0214334705075446
  0.0214334705075446
  0.0214334705075446
  0.0214334705075446
  0.0214334705075446
  0.0214334705075446
  0.0214334705075446
-0.00238149672306051
-0.00238149672306051
  -0.014288980338363
  -0.014288980338363
-0.00238149672306051
  0.0214334705075446
  0.0214334705075446
  0.0214334705075446
  0.0214334705075446
  0.0214334705075446
  0.0214334705075446
  0.0214334705075446
  0.0214334705075446
   -0.37609443004962
  0.0214334705075446
  0.0214334705075446
  0.0214334705075446
  0.0214334705075446
  0.0214334705075446
  0.0214334705075446
  0.0214334705075446
  0.0214334705075446
-0.00238149672306051
  -0.014288980338363
  -0.014288980338363
-0.00738624491511371
 0.00595374180765126
 0.00595374180765126
 -0.0195811952784975
 0.00595374180765126
 0.00595374180765126
-0.00767371166319497
  -0.014288980338363
-0.00238149672306051
-0.00238149672306051
-0.00238149672306051
-0.00238149672306051
 0.00952598689224202
  0.0214334705075446
  0.0214334705075446
  0.0214334705075446
  0.0214334705075446
  0.0214334705075446
  0.0214334705075446
  0.0214334705075446
  0.0214334705075446
  -0.286063269488052
  0.0214334705075446
  0.0214334705075446
  0.0214334705075446
  0.0214334705075446
  0.0214334705075446
  0.0214334705075446
  0.0214334705075446
  0.0214334705075446
 0.00952598689224202
-0.00238149672306051
-0.00238149672306051
-0.00238149672306051
-0.00238149672306051
  -0.014288980338363
-0.00767371166319497
 0.00595374180765126
 0.00595374180765126
 -0.0195811952784975
 0.00595374180765126
 0.00595374180765126
-0.00365627909037331
   0.139852695744638
-0.00738624491511372
  0.0664762042360231
  0.0664762042360231
  0.0664762042360231
  0.0664762042360231
  0.0664762042360231
   -0.84203192032296
  0.0664762042360231
  0.0664762042360231
  0.0664762042360231
  0.0664762042360231
  0.0664762042360231
-0.00738624491511371
   0.190915025252559
  0.0329065118133596
  0.0329065118133596
  0.0329065118133596
  0.0329065118133596
  -0.232539350147741
  0.0329065118133596
  0.0329065118133596
  0.0329065118133596
  0.0329065118133596
  -0.014288980338363
  -0.014288980338363
-0.00238149672306051
  0.0214334705075446
  0.0214334705075446
  0.0214334705075446
  0.0214334705075446
  0.0214334705075446
  0.0214334705075446
  0.0214334705075446
   -0.33322748903453
  0.0214334705075446
  0.0214334705075446
  0.0214334705075446
  0.0214334705075446
  0.0214334705075446
  0.0214334705075446
  0.0214334705075446
-0.00238149672306051
  -0.014288980338363
  -0.014288980338363
-0.00238149672306051
-0.00238149672306051
  0.0214334705075446
  0.0214334705075446
  0.0214334705075446
  0.0214334705075446
  0.0214334705075446
  0.0214334705075446
  -0.314175515250046
  0.0214334705075446
  0.0214334705075446
  0.0214334705075446
  0.0214334705075446
  0.0214334705075446
  0.0214334705075446
-0.00238149672306051
-0.00238149672306051
 0.00952598689224202
  0.0214334705075446
  0.0214334705075446
  0.0214334705075446
  0.0214334705075446
  -0.239026063100137
  0.0214334705075446
  0.0214334705075446
  0.0214334705075446
  0.0214334705075446
 0.00952598689224202
  0.0214334705075446
  0.0214334705075446
  0.0214334705075446
  0.0214334705075446
  -0.262841030330742
  0.0214334705075446
  0.0214334705075446
  0.0214334705075446
  0.0214334705075446
  -0.151463191586648
  -0.151463191586648
  -0.151463191586648
  -0.175278158817253
  -0.137174211248285
  -0.137174211248285
 -0.0943072702331961
  -0.051440329218107
  -0.051440329218107
  -0.051440329218107
  -0.051440329218107
 -0.0514403292181069
-0.00857338820301785
-0.00857338820301785
  0.0771604938271604
  0.0771604938271604
  0.0771604938271604
  0.0771604938271604
  0.0771604938271604
  0.0771604938271604
  0.0771604938271604
  0.0771604938271604
     1.8115154449729
  0.0771604938271604
  0.0771604938271604
  0.0771604938271604
  0.0771604938271604
  0.0771604938271604
  0.0771604938271604
  0.0771604938271604
  0.0771604938271604
-0.00857338820301785
-0.00857338820301785
  -0.051440329218107
  -0.051440329218107
  -0.051440329218107
  -0.051440329218107
  -0.051440329218107
 -0.0943072702331961
  -0.137174211248285
  -0.137174211248285
  -0.175278158817253
  -0.151463191586648
  -0.151463191586648
  -0.151463191586648
  0.0214334705075446
  0.0214334705075446
  0.0214334705075446
  0.0214334705075446
  -0.262841030330742
  0.0214334705075446
  0.0214334705075446
  0.0214334705075446
  0.0214334705075446
 0.00952598689224202
  0.0214334705075446
  0.0214334705075446
  0.0214334705075446
  0.0214334705075446
  -0.239026063100137
  0.0214334705075446
  0.0214334705075446
  0.0214334705075446
  0.0214334705075446
 0.00952598689224202
-0.00238149672306051
-0.00238149672306051
  0.0214334705075446
  0.0214334705075446
  0.0214334705075446
  0.0214334705075446
  0.0214334705075446
  0.0214334705075446
  -0.314175515250046
  0.0214334705075446
  0.0214334705075446
  0.0214334705075446
  0.0214334705075446
  0.0214334705075446
  0.0214334705075446
-0.00238149672306051
-0.00238149672306051
 -0.0142889803383631
  -0.014288980338363
-0.00238149672306051
  0.0214334705075446
  0.0214334705075446
  0.0214334705075446
  0.0214334705075446
  0.0214334705075446
  0.0214334705075446
  0.0214334705075446
  -0.333227489034531
  0.0214334705075446
  0.0214334705075446
  0.0214334705075446
  0.0214334705075446
  0.0214334705075446
  0.0214334705075446
  0.0214334705075446
-0.00238149672306051
  -0.014288980338363
  -0.014288980338363
  0.0664762042360231
  0.0664762042360231
  0.0664762042360231
  0.0664762042360231
   -0.46976517660123
  0.0664762042360231
  0.0664762042360231
  0.0664762042360231
  0.0664762042360231
 -0.0131626047253439
  0.0214334705075446
  0.0214334705075446
  0.0214334705075446
  0.0214334705075446
  0.0214334705075446
  -0.178097850937357
  0.0214334705075446
  0.0214334705075446
  0.0214334705075446
  0.0214334705075446
  0.0214334705075446
  0.0214334705075446
 -0.0371513488797439
  0.0214334705075446
  -0.060966316110349
   -0.11335924401768
  -0.137174211248285
  -0.137174211248285
 -0.0943072702331961
 -0.0943072702331961
 -0.0943072702331961
 -0.0943072702331961
  -0.051440329218107
-0.00857338820301785
-0.00857338820301785
-0.00857338820301785
-0.00857338820301785
  0.0771604938271604
  0.0771604938271604
  0.0771604938271604
  0.0771604938271604
  0.0771604938271604
  0.0771604938271604
  0.0771604938271604
   0.671195109146646
  0.0771604938271604
  0.0771604938271604
  0.0771604938271604
  0.0771604938271604
  0.0771604938271604
  0.0771604938271604
  0.0771604938271604
-0.00857338820301785
-0.00857338820301785
-0.00857338820301785
-0.00857338820301785
  -0.051440329218107
 -0.0943072702331961
 -0.0943072702331961
 -0.0943072702331961
 -0.0943072702331961
  -0.137174211248285
  -0.137174211248285
   -0.11335924401768
  -0.060966316110349
  0.0214334705075446
 -0.0371513488797439
  0.0214334705075446
  0.0214334705075446
  0.0214334705075446
  0.0214334705075446
  0.0214334705075446
  0.0214334705075446
  -0.178097850937357
  0.0214334705075446
  0.0214334705075446
  0.0214334705075446
  0.0214334705075446
  0.0214334705075446
 -0.0265904816944093
   0.118463442528095
  0.0214334705075446
 -0.0609663161103489
  0.0214334705075446
  -0.060966316110349
   -0.11335924401768
  -0.137174211248285
  -0.137174211248285
 -0.0943072702331961
 -0.0943072702331961
 -0.0943072702331961
  -0.051440329218107
-0.00857338820301785
-0.00857338820301785
-0.00857338820301785
-0.00857338820301785
-0.00857338820301785
  0.0771604938271604
  0.0771604938271604
  0.0771604938271604
  0.0771604938271604
  0.0771604938271604
  0.0771604938271604
   0.393036291893176
  0.0771604938271604
  0.0771604938271604
  0.0771604938271604
  0.0771604938271604
  0.0771604938271604
  0.0771604938271604
-0.00857338820301785
-0.00857338820301785
-0.00857338820301785
-0.00857338820301785
-0.00857338820301785
  -0.051440329218107
 -0.0943072702331961
 -0.0943072702331961
 -0.0943072702331961
  -0.137174211248285
  -0.137174211248285
   -0.11335924401768
  -0.060966316110349
  0.0214334705075446
 -0.0609663161103489
  0.0214334705075446
   0.239314335249683
   0.118463442528095
  -0.084781283340954
 -0.0943072702331961
 -0.0943072702331961
 -0.0943072702331961
 -0.0943072702331961
-0.00857338820301785
-0.00857338820301785
-0.00857338820301785
-0.00857338820301785
  0.0771604938271604
  0.0771604938271604
  0.0771604938271604
  0.0771604938271604
  0.0771604938271604
  0.0771604938271604
  0.0771604938271604
  0.0771604938271604
  0.0771604938271604
    -0.7802773967383
  0.0771604938271604
  0.0771604938271604
  0.0771604938271604
  0.0771604938271604
  0.0771604938271604
  0.0771604938271604
  0.0771604938271604
  0.0771604938271604
  0.0771604938271604
-0.00857338820301785
-0.00857338820301785
-0.00857338820301785
-0.00857338820301785
 -0.0943072702331961
 -0.0943072702331961
 -0.0943072702331961
 -0.0943072702331961
 -0.0847812833409541
   0.239314335249683
   0.118463442528095
 -0.0943072702331961
 -0.0943072702331961
 -0.0943072702331961
 -0.0943072702331961
-0.00857338820301785
-0.00857338820301785
-0.00857338820301785
  0.0771604938271604
  0.0771604938271604
  0.0771604938271604
  0.0771604938271604
  0.0771604938271604
  0.0771604938271604
  0.0771604938271604
  0.0771604938271604
  -0.595473251028807
  0.0771604938271604
  0.0771604938271604
  0.0771604938271604
  0.0771604938271604
  0.0771604938271604
  0.0771604938271604
  0.0771604938271604
  0.0771604938271604
-0.00857338820301785
-0.00857338820301785
-0.00857338820301785
 -0.0943072702331961
 -0.0943072702331961
 -0.0943072702331961
 -0.0943072702331961
   0.239314335249683
-0.00857338820301785
-0.00857338820301785
  0.0771604938271604
  0.0771604938271604
  0.0771604938271604
  0.0771604938271604
  0.0771604938271604
  0.0771604938271604
  0.0771604938271604
  0.0771604938271604
  0.0771604938271604
  -0.709236396890718
  0.0771604938271604
  0.0771604938271604
  0.0771604938271604
  0.0771604938271604
  0.0771604938271604
  0.0771604938271604
  0.0771604938271604
  0.0771604938271604
  0.0771604938271604
-0.00857338820301785
-0.00857338820301785
  0.0771604938271604
  0.0771604938271604
  0.0771604938271604
  0.0771604938271604
  0.0771604938271604
  0.0771604938271604
  0.0771604938271604
  0.0771604938271604
  0.0771604938271604
  0.0771604938271604
  -0.790382563633592
  0.0771604938271604
  0.0771604938271604
  0.0771604938271604
  0.0771604938271604
  0.0771604938271604
  0.0771604938271604
  0.0771604938271604
  0.0771604938271604
  0.0771604938271604
  0.0771604938271604
  0.0771604938271604
  0.0771604938271604
  0.0771604938271604
  0.0771604938271604
  0.0771604938271604
  0.0771604938271604
  0.0771604938271604
  0.0771604938271604
  0.0771604938271604
  -0.790382563633593
  0.0771604938271604
  0.0771604938271604
  0.0771604938271604
  0.0771604938271604
  0.0771604938271604
  0.0771604938271604
  0.0771604938271604
  0.0771604938271604
  0.0771604938271604
  0.0771604938271604
  0.0771604938271604
  0.0771604938271604
  0.0771604938271604
  0.0771604938271604
  0.0771604938271604
  -0.691312299954275
  0.0771604938271604
  0.0771604938271604
  0.0771604938271604
  0.0771604938271604
  0.0771604938271604
  0.0771604938271604
  -0.167383020880963
  -0.119753086419754
  -0.205486968449932
  -0.548422496570645
   -0.80562414266118
   -0.80562414266118
  -0.651303155006859
  -0.606858710562414
  -0.528120713305899
  -0.528120713305899
  -0.871056241426612
  -0.716735253772291
  -0.716735253772291
   -0.56241426611797
  -0.493827160493827
  -0.339506172839506
  -0.339506172839506
  -0.339506172839506
 -0.0308641975308643
 -0.0308641975308643
 -0.0308641975308643
 -0.0308641975308643
 -0.0308641975308643
   0.277777777777778
   0.277777777777778
   0.277777777777778
   0.277777777777778
   0.277777777777778
   0.277777777777778
   0.277777777777778
   0.277777777777778
   0.277777777777778
   0.277777777777778
    8.70953799545932
   0.277777777777778
   0.277777777777778
   0.277777777777778
   0.277777777777778
   0.277777777777778
   0.277777777777778
   0.277777777777778
   0.277777777777778
   0.277777777777778
   0.277777777777778
 -0.0308641975308643
 -0.0308641975308643
 -0.0308641975308643
 -0.0308641975308643
 -0.0308641975308643
  -0.339506172839506
  -0.339506172839506
  -0.339506172839506
  -0.493827160493827
   -0.56241426611797
  -0.716735253772291
  -0.716735253772291
  -0.871056241426612
  -0.528120713305899
  -0.528120713305899
  -0.606858710562415
  -0.651303155006859
   -0.80562414266118
   -0.80562414266118
  -0.548422496570645
  -0.205486968449932
  -0.119753086419754
  -0.167383020880963
  0.0771604938271604
  0.0771604938271604
  0.0771604938271604
  0.0771604938271604
  0.0771604938271604
  0.0771604938271604
  -0.691312299954276
  0.0771604938271604
  0.0771604938271604
  0.0771604938271604
  0.0771604938271604
  0.0771604938271604
  0.0771604938271604
  0.0771604938271604
  0.0771604938271604
  0.0771604938271604
  0.0771604938271604
  0.0771604938271604
  0.0771604938271604
  0.0771604938271604
  0.0771604938271604
  0.0771604938271604
  -0.790382563633593
  0.0771604938271604
  0.0771604938271604
  0.0771604938271604
  0.0771604938271604
  0.0771604938271604
  0.0771604938271604
  0.0771604938271604
  0.0771604938271604
  0.0771604938271604
  0.0771604938271604
  0.0771604938271604
  0.0771604938271604
  0.0771604938271604
  0.0771604938271604
  0.0771604938271604
  0.0771604938271604
  0.0771604938271604
  0.0771604938271604
  0.0771604938271604
  -0.790382563633592
  0.0771604938271604
  0.0771604938271604
  0.0771604938271604
  0.0771604938271604
  0.0771604938271604
  0.0771604938271604
  0.0771604938271604
  0.0771604938271604
  0.0771604938271604
  0.0771604938271604
-0.00857338820301785
-0.00857338820301785
  0.0771604938271604
  0.0771604938271604
  0.0771604938271604
  0.0771604938271604
  0.0771604938271604
  0.0771604938271604
  0.0771604938271604
  0.0771604938271604
  0.0771604938271604
  -0.709236396890718
  0.0771604938271604
  0.0771604938271604
  0.0771604938271604
  0.0771604938271604
  0.0771604938271604
  0.0771604938271604
  0.0771604938271604
  0.0771604938271604
  0.0771604938271604
-0.00857338820301785
-0.00857338820301785
   0.239314335249683
 -0.0943072702331961
 -0.0943072702331961
 -0.0943072702331961
 -0.0943072702331961
-0.00857338820301785
-0.00857338820301785
-0.00857338820301785
  0.0771604938271604
  0.0771604938271604
  0.0771604938271604
  0.0771604938271604
  0.0771604938271604
  0.0771604938271604
  0.0771604938271604
  0.0771604938271604
  -0.595473251028806
  0.0771604938271604
  0.0771604938271604
  0.0771604938271604
  0.0771604938271604
  0.0771604938271604
  0.0771604938271604
  0.0771604938271604
  0.0771604938271604
-0.00857338820301785
-0.00857338820301785
-0.00857338820301785
 -0.0943072702331961
 -0.0943072702331961
 -0.0943072702331961
 -0.0943072702331961
   0.118463442528095
   0.239314335249683
 -0.0847812833409541
 -0.0943072702331961
 -0.0943072702331961
 -0.0943072702331961
 -0.0943072702331961
-0.00857338820301785
-0.00857338820301785
-0.00857338820301785
-0.00857338820301785
  0.0771604938271604
  0.0771604938271604
  0.0771604938271604
  0.0771604938271604
  0.0771604938271604
  0.0771604938271604
  0.0771604938271604
  0.0771604938271604
  0.0771604938271604
    -0.7802773967383
  0.0771604938271604
  0.0771604938271604
  0.0771604938271604
  0.0771604938271604
  0.0771604938271604
  0.0771604938271604
  0.0771604938271604
  0.0771604938271604
  0.0771604938271604
-0.00857338820301785
-0.00857338820301785
-0.00857338820301785
-0.00857338820301785
 -0.0943072702331961
 -0.0943072702331961
 -0.0943072702331961
 -0.0943072702331961
 -0.0847812833409541
   0.118463442528095
   0.239314335249683
  0.0214334705075446
  -0.060966316110349
  0.0214334705075446
  -0.060966316110349
   -0.11335924401768
  -0.137174211248285
  -0.137174211248285
 -0.0943072702331961
 -0.0943072702331961
 -0.0943072702331961
  -0.051440329218107
-0.00857338820301785
-0.00857338820301785
-0.00857338820301785
-0.00857338820301785
-0.00857338820301785
  0.0771604938271604
  0.0771604938271604
  0.0771604938271604
  0.0771604938271604
  0.0771604938271604
  0.0771604938271604
   0.393036291893178
  0.0771604938271604
  0.0771604938271604
  0.0771604938271604
  0.0771604938271604
  0.0771604938271604
  0.0771604938271604
-0.00857338820301785
-0.00857338820301785
-0.00857338820301785
-0.00857338820301785
-0.00857338820301785
  -0.051440329218107
 -0.0943072702331961
 -0.0943072702331961
 -0.0943072702331961
  -0.137174211248285
  -0.137174211248285
   -0.11335924401768
  -0.060966316110349
  0.0214334705075446
  -0.060966316110349
  0.0214334705075446
   0.118463442528095
 -0.0265904816944094
  0.0214334705075446
  0.0214334705075446
  0.0214334705075446
  0.0214334705075446
  0.0214334705075446
  -0.178097850937357
  0.0214334705075446
  0.0214334705075446
  0.0214334705075446
  0.0214334705075446
  0.0214334705075446
  0.0214334705075446
 -0.0371513488797439
  0.0214334705075446
  -0.060966316110349
   -0.11335924401768
  -0.137174211248285
  -0.137174211248285
 -0.0943072702331961
 -0.0943072702331961
 -0.0943072702331961
 -0.0943072702331961
  -0.051440329218107
-0.00857338820301785
-0.00857338820301785
-0.00857338820301785
-0.00857338820301785
  0.0771604938271604
  0.0771604938271604
  0.0771604938271604
  0.0771604938271604
  0.0771604938271604
  0.0771604938271604
  0.0771604938271604
   0.671195109146644
  0.0771604938271604
  0.0771604938271604
  0.0771604938271604
  0.0771604938271604
  0.0771604938271604
  0.0771604938271604
  0.0771604938271604
-0.00857338820301785
-0.00857338820301785
-0.00857338820301785
-0.00857338820301785
  -0.051440329218107
 -0.0943072702331961
 -0.0943072702331961
 -0.0943072702331961
 -0.0943072702331961
  -0.137174211248285
  -0.137174211248285
   -0.11335924401768
  -0.060966316110349
  0.0214334705075446
 -0.0371513488797438
  0.0214334705075446
  0.0214334705075446
  0.0214334705075446
  0.0214334705075446
  0.0214334705075446
  0.0214334705075446
  -0.178097850937357
  0.0214334705075446
  0.0214334705075446
  0.0214334705075446
  0.0214334705075446
  0.0214334705075446
 -0.0131626047253439
  0.0664762042360232
  0.0664762042360232
  0.0664762042360232
  0.0664762042360232
  -0.469765176601231
  0.0664762042360232
  0.0664762042360232
  0.0664762042360232
  0.0664762042360232
  -0.014288980338363
 -0.0142889803383631
-0.00238149672306051
  0.0214334705075446
  0.0214334705075446
  0.0214334705075446
  0.0214334705075446
  0.0214334705075446
  0.0214334705075446
  0.0214334705075446
   -0.33322748903453
  0.0214334705075446
  0.0214334705075446
  0.0214334705075446
  0.0214334705075446
  0.0214334705075446
  0.0214334705075446
  0.0214334705075446
-0.00238149672306051
  -0.014288980338363
  -0.014288980338363
-0.00238149672306051
-0.00238149672306051
  0.0214334705075446
  0.0214334705075446
  0.0214334705075446
  0.0214334705075446
  0.0214334705075446
  0.0214334705075446
  -0.314175515250046
  0.0214334705075446
  0.0214334705075446
  0.0214334705075446
  0.0214334705075446
  0.0214334705075446
  0.0214334705075446
-0.00238149672306051
-0.00238149672306051
 0.00952598689224202
  0.0214334705075446
  0.0214334705075446
  0.0214334705075446
  0.0214334705075446
  -0.239026063100137
  0.0214334705075446
  0.0214334705075446
  0.0214334705075446
  0.0214334705075446
 0.00952598689224202
  0.0214334705075446
  0.0214334705075446
  0.0214334705075446
  0.0214334705075446
  -0.262841030330742
  0.0214334705075446
  0.0214334705075446
  0.0214334705075446
  0.0214334705075446
  -0.151463191586648
  -0.151463191586648
  -0.151463191586648
  -0.175278158817253
  -0.137174211248285
  -0.137174211248285
 -0.0943072702331961
  -0.051440329218107
  -0.051440329218107
  -0.051440329218107
  -0.051440329218107
  -0.051440329218107
-0.00857338820301785
-0.00857338820301785
  0.0771604938271604
  0.0771604938271604
  0.0771604938271604
  0.0771604938271604
  0.0771604938271604
  0.0771604938271604
  0.0771604938271604
  0.0771604938271604
     1.8115154449729
  0.0771604938271604
  0.0771604938271604
  0.0771604938271604
  0.0771604938271604
  0.0771604938271604
  0.0771604938271604
  0.0771604938271604
  0.0771604938271604
-0.00857338820301785
-0.00857338820301785
  -0.051440329218107
  -0.051440329218107
  -0.051440329218107
  -0.051440329218107
  -0.051440329218107
 -0.0943072702331961
  -0.137174211248285
  -0.137174211248285
  -0.175278158817253
  -0.151463191586648
  -0.151463191586648
  -0.151463191586648
  0.0214334705075446
  0.0214334705075446
  0.0214334705075446
  0.0214334705075446
  -0.262841030330742
  0.0214334705075446
  0.0214334705075446
  0.0214334705075446
  0.0214334705075446
 0.00952598689224202
  0.0214334705075446
  0.0214334705075446
  0.0214334705075446
  0.0214334705075446
  -0.239026063100137
  0.0214334705075446
  0.0214334705075446
  0.0214334705075446
  0.0214334705075446
 0.00952598689224202
-0.00238149672306051
-0.00238149672306051
  0.0214334705075446
  0.0214334705075446
  0.0214334705075446
  0.0214334705075446
  0.0214334705075446
  0.0214334705075446
  -0.314175515250046
  0.0214334705075446
  0.0214334705075446
  0.0214334705075446
  0.0214334705075446
  0.0214334705075446
  0.0214334705075446
-0.00238149672306051
-0.00238149672306051
  -0.014288980338363
  -0.014288980338363
-0.00238149672306051
  0.0214334705075446
  0.0214334705075446
  0.0214334705075446
  0.0214334705075446
  0.0214334705075446
  0.0214334705075446
  0.0214334705075446
   -0.33322748903453
  0.0214334705075446
  0.0214334705075446
  0.0214334705075446
  0.0214334705075446
  0.0214334705075446
  0.0214334705075446
  0.0214334705075446
-0.00238149672306051
  -0.014288980338363
  -0.014288980338363
  0.0329065118133597
  0.0329065118133597
  0.0329065118133597
  0.0329065118133597
  -0.232539350147742
  0.0329065118133597
  0.0329065118133597
  0.0329065118133597
  0.0329065118133597
    0.19091502525256
-0.00738624491511368
  0.0664762042360232
  0.0664762042360232
  0.0664762042360232
  0.0664762042360232
  0.0664762042360232
  -0.842031920322961
  0.0664762042360232
  0.0664762042360232
  0.0664762042360232
  0.0664762042360232
  0.0664762042360232
-0.00738624491511371
   0.139852695744639
-0.00365627909037329
 0.00595374180765126
 0.00595374180765126
 -0.0195811952784975
 0.00595374180765126
 0.00595374180765126
-0.00767371166319497
  -0.014288980338363
-0.00238149672306051
-0.00238149672306051
-0.00238149672306051
-0.00238149672306051
 0.00952598689224202
  0.0214334705075446
  0.0214334705075446
  0.0214334705075446
  0.0214334705075446
  0.0214334705075446
  0.0214334705075446
  0.0214334705075446
  0.0214334705075446
  -0.286063269488052
  0.0214334705075446
  0.0214334705075446
  0.0214334705075446
  0.0214334705075446
  0.0214334705075446
  0.0214334705075446
  0.0214334705075446
  0.0214334705075446
 0.00952598689224202
-0.00238149672306051
-0.00238149672306051
-0.00238149672306051
-0.00238149672306051
  -0.014288980338363
-0.00767371166319497
 0.00595374180765126
 0.00595374180765126
 -0.0195811952784975
 0.00595374180765126
 0.00595374180765126
-0.00738624491511371
 -0.0142889803383631
 -0.0142889803383631
-0.00238149672306051
  0.0214334705075446
  0.0214334705075446
  0.0214334705075446
  0.0214334705075446
  0.0214334705075446
  0.0214334705075446
  0.0214334705075446
  0.0214334705075446
  -0.376094430049619
  0.0214334705075446
  0.0214334705075446
  0.0214334705075446
  0.0214334705075446
  0.0214334705075446
  0.0214334705075446
  0.0214334705075446
  0.0214334705075446
-0.00238149672306051
  -0.014288980338363
  -0.014288980338363
-0.00238149672306051
-0.00238149672306051
  0.0214334705075446
  0.0214334705075446
  0.0214334705075446
  0.0214334705075446
  0.0214334705075446
  0.0214334705075446
  0.0214334705075446
  -0.357042456265136
  0.0214334705075446
  0.0214334705075446
  0.0214334705075446
  0.0214334705075446
  0.0214334705075446
  0.0214334705075446
  0.0214334705075446
-0.00238149672306051
-0.00238149672306051
-0.00238149672306051
  0.0214334705075446
  0.0214334705075446
  0.0214334705075446
  0.0214334705075446
  -0.215211095869532
  0.0214334705075446
  0.0214334705075446
  0.0214334705075446
  0.0214334705075446
-0.00238149672306051
  0.0214334705075446
  0.0214334705075446
  0.0214334705075446
  0.0214334705075446
  -0.239026063100137
  0.0214334705075446
  0.0214334705075446
  0.0214334705075446
  0.0214334705075446
  -0.228623685413809
  -0.151463191586648
  -0.151463191586648
  -0.175278158817253
   -0.11335924401768
  -0.137174211248285
  -0.137174211248285
 -0.0943072702331961
  -0.051440329218107
  -0.051440329218107
  -0.051440329218107
  -0.051440329218107
-0.00857338820301785
-0.00857338820301785
  0.0771604938271604
  0.0771604938271604
  0.0771604938271604
  0.0771604938271604
  0.0771604938271604
  0.0771604938271604
  0.0771604938271604
  0.0771604938271604
    2.04204432776516
  0.0771604938271604
  0.0771604938271604
  0.0771604938271604
  0.0771604938271604
  0.0771604938271604
  0.0771604938271604
  0.0771604938271604
  0.0771604938271604
-0.00857338820301785
-0.00857338820301785
  -0.051440329218107
  -0.051440329218107
  -0.051440329218107
  -0.051440329218107
 -0.0943072702331961
  -0.137174211248285
  -0.137174211248285
   -0.11335924401768
  -0.175278158817253
  -0.151463191586648
  -0.151463191586648
  -0.228623685413809
  0.0214334705075446
  0.0214334705075446
  0.0214334705075446
  0.0214334705075446
  -0.239026063100137
  0.0214334705075446
  0.0214334705075446
  0.0214334705075446
  0.0214334705075446
-0.00238149672306051
  0.0214334705075446
  0.0214334705075446
  0.0214334705075446
  0.0214334705075446
  -0.215211095869532
  0.0214334705075446
  0.0214334705075446
  0.0214334705075446
  0.0214334705075446
-0.00238149672306051
-0.00238149672306051
-0.00238149672306051
  0.0214334705075446
  0.0214334705075446
  0.0214334705075446
  0.0214334705075446
  0.0214334705075446
  0.0214334705075446
  0.0214334705075446
  -0.357042456265136
  0.0214334705075446
  0.0214334705075446
  0.0214334705075446
  0.0214334705075446
  0.0214334705075446
  0.0214334705075446
  0.0214334705075446
-0.00238149672306051
-0.00238149672306051
  -0.014288980338363
  -0.014288980338363
-0.00238149672306051
  0.0214334705075446
  0.0214334705075446
  0.0214334705075446
  0.0214334705075446
  0.0214334705075446
  0.0214334705075446
  0.0214334705075446
  0.0214334705075446
  -0.376094430049619
  0.0214334705075446
  0.0214334705075446
  0.0214334705075446
  0.0214334705075446
  0.0214334705075446
  0.0214334705075446
  0.0214334705075446
  0.0214334705075446
-0.00238149672306051
  -0.014288980338363
  -0.014288980338363
-0.00738624491511371
 0.00595374180765126
 0.00595374180765126
 -0.0195811952784975
 0.00595374180765126
 0.00595374180765126
-0.00767371166319497
  -0.014288980338363
-0.00238149672306051
-0.00238149672306051
-0.00238149672306051
-0.00238149672306051
 0.00952598689224202
  0.0214334705075446
  0.0214334705075446
  0.0214334705075446
  0.0214334705075446
  0.0214334705075446
  0.0214334705075446
  0.0214334705075446
  0.0214334705075446
  -0.286063269488052
  0.0214334705075446
  0.0214334705075446
  0.0214334705075446
  0.0214334705075446
  0.0214334705075446
  0.0214334705075446
  0.0214334705075446
  0.0214334705075446
 0.00952598689224202
-0.00238149672306051
-0.00238149672306051
-0.00238149672306051
-0.00238149672306051
  -0.014288980338363
-0.00767371166319497
 0.00595374180765126
 0.00595374180765126
 -0.0195811952784975
 0.00595374180765126
 0.00595374180765126
-0.00365627909037331
-0.00365627909037332
  0.0329065118133597
  0.0329065118133597
  0.0329065118133597
  0.0329065118133597
  0.0329065118133597
  -0.416815816302556
  0.0329065118133597
  0.0329065118133597
  0.0329065118133597
  0.0329065118133597
  0.0329065118133597
-0.00365627909037332
  0.0647424830844348
  0.0530319514590443
  0.0530319514590443
  -0.127276683501706
  0.0530319514590443
  0.0530319514590443
 0.00820693879457076
  0.0184656122877842
  0.0184656122877842
  0.0184656122877842
  0.0184656122877842
  -0.201070000466984
  0.0184656122877842
  0.0184656122877842
  0.0184656122877842
  0.0184656122877842
 0.00820693879457076
  0.0184656122877842
  0.0184656122877842
  0.0184656122877842
  0.0184656122877842
  -0.201070000466984
  0.0184656122877842
  0.0184656122877842
  0.0184656122877842
  0.0184656122877842
 -0.0443174694906821
 -0.0443174694906821
 -0.0443174694906821
 -0.0443174694906822
  0.0295449796604547
  0.0664762042360232
  0.0664762042360232
  0.0664762042360232
  0.0664762042360232
  0.0664762042360232
  0.0664762042360232
  0.0664762042360232
  0.0664762042360232
  0.0664762042360232
  0.0664762042360232
   -0.89181192827531
  0.0664762042360232
  0.0664762042360232
  0.0664762042360232
  0.0664762042360232
  0.0664762042360232
  0.0664762042360232
  0.0664762042360232
  0.0664762042360232
  0.0664762042360232
  0.0664762042360232
  0.0295449796604547
 -0.0443174694906821
 -0.0443174694906822
 -0.0443174694906821
 -0.0443174694906822
  0.0184656122877842
  0.0184656122877842
  0.0184656122877842
  0.0184656122877842
  -0.201070000466984
  0.0184656122877842
  0.0184656122877842
  0.0184656122877842
  0.0184656122877842
 0.00820693879457076
  0.0184656122877842
  0.0184656122877842
  0.0184656122877842
  0.0184656122877842
  -0.201070000466984
  0.0184656122877842
  0.0184656122877842
  0.0184656122877842
  0.0184656122877842
 0.00820693879457076
  0.0388479710401774
  0.0388479710401774
 -0.0932351304964258
  0.0388479710401774
  0.0388479710401774
 0.00914069772593322
-0.00365627909037329
 0.00914069772593322
 0.00914069772593321
 0.00264610747006723
 0.00264610747006723
 0.00595374180765126
 0.00595374180765126
 0.00595374180765126
 0.00595374180765126
 0.00595374180765126
  -0.116418144253078
 0.00595374180765126
 0.00595374180765126
 0.00595374180765126
 0.00595374180765126
 0.00595374180765126
 0.00264610747006723
 0.00264610747006723
  0.0184656122877842
 0.00595374180765126
 0.00595374180765126
 0.00595374180765126
 -0.0529221494013446
 0.00595374180765126
 0.00595374180765126
 0.00595374180765126
 0.00595374180765126
 0.00595374180765126
 -0.0529221494013446
 0.00595374180765126
 0.00595374180765126
 0.00595374180765126
 -0.0595374180765127
 0.00595374180765126
 -0.0595374180765127
-0.00238149672306051
-0.00238149672306051
-0.00238149672306051
 0.00952598689224202
 0.00952598689224202
  0.0214334705075446
  0.0214334705075446
  0.0214334705075446
  0.0214334705075446
  0.0214334705075446
  0.0214334705075446
  0.0214334705075446
  0.0214334705075446
  0.0214334705075446
  -0.111928229097868
  0.0214334705075446
  0.0214334705075446
  0.0214334705075446
  0.0214334705075446
  0.0214334705075446
  0.0214334705075446
  0.0214334705075446
  0.0214334705075446
  0.0214334705075446
 0.00952598689224202
 0.00952598689224202
-0.00238149672306051
-0.00238149672306051
-0.00238149672306051
 -0.0595374180765127
 0.00595374180765126
 -0.0595374180765127
 0.00595374180765126
 0.00595374180765126
 0.00595374180765126
 -0.0529221494013446
 0.00595374180765126
 0.00595374180765126
 0.00595374180765126
 0.00595374180765126
 0.00595374180765126
 -0.0529221494013446
 0.00595374180765126
 0.00595374180765126
 0.00595374180765126
  0.0184656122877842
 0.00264610747006723
 0.00264610747006723
 0.00595374180765126
 0.00595374180765126
 0.00595374180765126
 0.00595374180765126
 0.00595374180765126
  -0.116418144253078
 0.00595374180765126
 0.00595374180765126
 0.00595374180765126
 0.00595374180765126
 0.00595374180765126
 0.00264610747006723
 0.00264610747006723
 0.00914069772593324
  0.0184656122877842
-0.00738624491511372
  0.0184656122877842
-0.00365627909037329
 0.00595374180765126
 0.00595374180765126
 0.00595374180765126
 -0.0529221494013446
 0.00595374180765126
 0.00595374180765126
 0.00595374180765126
 0.00595374180765126
 0.00595374180765126
 -0.0529221494013446
 0.00595374180765126
 0.00595374180765126
 -0.0476299344612101
 -0.0476299344612102
-0.00238149672306051
-0.00238149672306051
-0.00238149672306051
 0.00952598689224202
  0.0214334705075446
  0.0214334705075446
  0.0214334705075446
  0.0214334705075446
  0.0214334705075446
  0.0214334705075446
  0.0214334705075446
  0.0214334705075446
  0.0214334705075446
  0.0214334705075446
  -0.159558163559078
  0.0214334705075446
  0.0214334705075446
  0.0214334705075446
  0.0214334705075446
  0.0214334705075446
  0.0214334705075446
  0.0214334705075446
  0.0214334705075446
  0.0214334705075446
  0.0214334705075446
 0.00952598689224202
-0.00238149672306051
-0.00238149672306051
-0.00238149672306051
 -0.0476299344612102
 -0.0476299344612101
 0.00595374180765126
 0.00595374180765126
 -0.0529221494013446
 0.00595374180765126
 0.00595374180765126
 0.00595374180765126
 0.00595374180765126
 0.00595374180765126
 -0.0529221494013446
 0.00595374180765126
 0.00595374180765126
 0.00595374180765126
-0.00738624491511373
  0.0329065118133596
 -0.0142889803383631
  -0.014288980338363
  -0.014288980338363
 0.00952598689224202
  0.0214334705075446
  0.0214334705075446
  0.0214334705075446
  0.0214334705075446
  0.0214334705075446
  0.0214334705075446
  0.0214334705075446
  0.0214334705075446
  0.0214334705075446
  0.0214334705075446
  0.0214334705075446
  -0.436146251418313
  0.0214334705075446
  0.0214334705075446
  0.0214334705075446
  0.0214334705075446
  0.0214334705075446
  0.0214334705075446
  0.0214334705075446
  0.0214334705075446
  0.0214334705075446
  0.0214334705075446
  0.0214334705075446
 0.00952598689224202
  -0.014288980338363
  -0.014288980338363
  -0.014288980338363
  0.0664762042360231
  -0.014288980338363
  -0.014288980338363
 0.00952598689224202
  0.0214334705075446
  0.0214334705075446
  0.0214334705075446
  0.0214334705075446
  0.0214334705075446
  0.0214334705075446
  0.0214334705075446
  0.0214334705075446
  0.0214334705075446
  0.0214334705075446
  0.0214334705075446
  -0.358985757591153
  0.0214334705075446
  0.0214334705075446
  0.0214334705075446
  0.0214334705075446
  0.0214334705075446
  0.0214334705075446
  0.0214334705075446
  0.0214334705075446
  0.0214334705075446
  0.0214334705075446
  0.0214334705075446
 0.00952598689224202
  -0.014288980338363
  -0.014288980338363
-0.00238149672306051
  0.0214334705075446
  0.0214334705075446
  0.0214334705075446
  0.0214334705075446
  0.0214334705075446
  0.0214334705075446
  0.0214334705075446
  0.0214334705075446
   -0.22191739064167
  0.0214334705075446
  0.0214334705075446
  0.0214334705075446
  0.0214334705075446
  0.0214334705075446
  0.0214334705075446
  0.0214334705075446
  0.0214334705075446
-0.00238149672306051
  0.0214334705075446
  0.0214334705075446
  0.0214334705075446
  0.0214334705075446
  0.0214334705075446
  0.0214334705075446
  0.0214334705075446
  -0.179050449626581
  0.0214334705075446
  0.0214334705075446
  0.0214334705075446
  0.0214334705075446
  0.0214334705075446
  0.0214334705075446
  0.0214334705075446
  0.0214334705075446
  0.0214334705075446
  -0.236206370980033
  0.0214334705075446
  0.0214334705075446
  -0.271490626428898
  -0.271490626428898
  -0.252438652644414
  -0.276253619875019
  -0.300068587105624
  -0.300068587105624
  -0.257201646090535
  -0.214334705075446
  -0.214334705075446
  -0.214334705075446
  -0.137174211248285
  -0.051440329218107
  -0.051440329218107
  0.0342935528120713
  0.0342935528120713
  0.0342935528120713
  0.0342935528120713
  0.0771604938271604
  0.0771604938271604
  0.0771604938271604
  0.0771604938271604
  0.0771604938271604
  0.0771604938271604
  0.0771604938271604
  0.0771604938271604
  0.0771604938271604
    3.52680803663232
  0.0771604938271604
  0.0771604938271604
  0.0771604938271604
  0.0771604938271604
  0.0771604938271604
  0.0771604938271604
  0.0771604938271604
  0.0771604938271604
  0.0771604938271604
  0.0342935528120713
  0.0342935528120713
  0.0342935528120713
  0.0342935528120713
  -0.051440329218107
  -0.051440329218107
  -0.137174211248285
  -0.214334705075446
  -0.214334705075446
  -0.214334705075446
  -0.257201646090535
  -0.300068587105624
  -0.300068587105624
  -0.276253619875019
  -0.252438652644414
  -0.271490626428898
  -0.271490626428898
  0.0214334705075446
  0.0214334705075446
  -0.236206370980033
  0.0214334705075446
  0.0214334705075446
  0.0214334705075446
  0.0214334705075446
  0.0214334705075446
  0.0214334705075446
  0.0214334705075446
  0.0214334705075446
  0.0214334705075446
  -0.179050449626581
  0.0214334705075446
  0.0214334705075446
  0.0214334705075446
  0.0214334705075446
  0.0214334705075446
  0.0214334705075446
  0.0214334705075446
-0.00238149672306051
  0.0214334705075446
  0.0214334705075446
  0.0214334705075446
  0.0214334705075446
  0.0214334705075446
  0.0214334705075446
  0.0214334705075446
  0.0214334705075446
   -0.22191739064167
  0.0214334705075446
  0.0214334705075446
  0.0214334705075446
  0.0214334705075446
  0.0214334705075446
  0.0214334705075446
  0.0214334705075446
  0.0214334705075446
-0.00238149672306051
  -0.014288980338363
  -0.014288980338363
 0.00952598689224202
  0.0214334705075446
  0.0214334705075446
  0.0214334705075446
  0.0214334705075446
  0.0214334705075446
  0.0214334705075446
  0.0214334705075446
  0.0214334705075446
  0.0214334705075446
  0.0214334705075446
  0.0214334705075446
  -0.358985757591153
  0.0214334705075446
  0.0214334705075446
  0.0214334705075446
  0.0214334705075446
  0.0214334705075446
  0.0214334705075446
  0.0214334705075446
  0.0214334705075446
  0.0214334705075446
  0.0214334705075446
  0.0214334705075446
 0.00952598689224202
  -0.014288980338363
  -0.014288980338363
  0.0664762042360232
 -0.0142889803383631
  -0.014288980338363
  -0.014288980338363
 0.00952598689224202
  0.0214334705075446
  0.0214334705075446
  0.0214334705075446
  0.0214334705075446
  0.0214334705075446
  0.0214334705075446
  0.0214334705075446
  0.0214334705075446
  0.0214334705075446
  0.0214334705075446
  0.0214334705075446
  -0.436146251418313
  0.0214334705075446
  0.0214334705075446
  0.0214334705075446
  0.0214334705075446
  0.0214334705075446
  0.0214334705075446
  0.0214334705075446
  0.0214334705075446
  0.0214334705075446
  0.0214334705075446
  0.0214334705075446
 0.00952598689224202
  -0.014288980338363
  -0.014288980338363
  -0.014288980338363
  0.0329065118133597
-0.00738624491511369
 0.00595374180765126
 0.00595374180765126
 0.00595374180765126
 -0.0529221494013446
 0.00595374180765126
 0.00595374180765126
 0.00595374180765126
 0.00595374180765126
 0.00595374180765126
 -0.0529221494013446
 0.00595374180765126
 0.00595374180765126
 -0.0476299344612101
 -0.0476299344612102
-0.00238149672306051
-0.00238149672306051
-0.00238149672306051
 0.00952598689224202
  0.0214334705075446
  0.0214334705075446
  0.0214334705075446
  0.0214334705075446
  0.0214334705075446
  0.0214334705075446
  0.0214334705075446
  0.0214334705075446
  0.0214334705075446
  0.0214334705075446
  -0.159558163559078
  0.0214334705075446
  0.0214334705075446
  0.0214334705075446
  0.0214334705075446
  0.0214334705075446
  0.0214334705075446
  0.0214334705075446
  0.0214334705075446
  0.0214334705075446
  0.0214334705075446
 0.00952598689224202
-0.00238149672306051
-0.00238149672306051
-0.00238149672306051
 -0.0476299344612101
 -0.0476299344612102
 0.00595374180765126
 0.00595374180765126
 -0.0529221494013446
 0.00595374180765126
 0.00595374180765126
 0.00595374180765126
 0.00595374180765126
 0.00595374180765126
 -0.0529221494013446
 0.00595374180765126
 0.00595374180765126
 0.00595374180765126
-0.00365627909037331
  0.0184656122877842
-0.00738624491511371
  0.0184656122877842
 0.00914069772593321
 0.00264610747006723
 0.00264610747006723
 0.00595374180765126
 0.00595374180765126
 0.00595374180765126
 0.00595374180765126
 0.00595374180765126
  -0.116418144253078
 0.00595374180765126
 0.00595374180765126
 0.00595374180765126
 0.00595374180765126
 0.00595374180765126
 0.00264610747006723
 0.00264610747006723
  0.0184656122877842
 0.00595374180765126
 0.00595374180765126
 0.00595374180765126
 -0.0529221494013446
 0.00595374180765126
 0.00595374180765126
 0.00595374180765126
 0.00595374180765126
 0.00595374180765126
 -0.0529221494013446
 0.00595374180765126
 0.00595374180765126
 0.00595374180765126
 -0.0595374180765127
 0.00595374180765126
 -0.0595374180765127
-0.00238149672306051
-0.00238149672306051
-0.00238149672306051
 0.00952598689224202
 0.00952598689224202
  0.0214334705075446
  0.0214334705075446
  0.0214334705075446
  0.0214334705075446
  0.0214334705075446
  0.0214334705075446
  0.0214334705075446
  0.0214334705075446
  0.0214334705075446
  -0.111928229097868
  0.0214334705075446
  0.0214334705075446
  0.0214334705075446
  0.0214334705075446
  0.0214334705075446
  0.0214334705075446
  0.0214334705075446
  0.0214334705075446
  0.0214334705075446
 0.00952598689224202
 0.00952598689224202
-0.00238149672306051
-0.00238149672306051
-0.00238149672306051
 -0.0595374180765127
 0.00595374180765126
 -0.0595374180765127
 0.00595374180765126
 0.00595374180765126
 0.00595374180765126
 -0.0529221494013446
 0.00595374180765126
 0.00595374180765126
 0.00595374180765126
 0.00595374180765126
 0.00595374180765126
 -0.0529221494013446
 0.00595374180765126
 0.00595374180765126
 0.00595374180765126
  0.0184656122877842
 0.00264610747006723
 0.00264610747006723
 0.00595374180765126
 0.00595374180765126
 0.00595374180765126
 0.00595374180765126
 0.00595374180765126
  -0.116418144253078
 0.00595374180765126
 0.00595374180765126
 0.00595374180765126
 0.00595374180765126
 0.00595374180765126
 0.00264610747006723
 0.00264610747006723
 0.00914069772593324
 0.00914069772593324
-0.00365627909037332
 0.00914069772593324
 0.00406253232263699
 0.00914069772593324
 0.00914069772593324
 0.00914069772593324
 0.00914069772593324
 -0.0995320419046064
 0.00914069772593324
 0.00914069772593324
 0.00914069772593324
 0.00914069772593324
 0.00406253232263699
 0.00914069772593324
 0.00914069772593324
 0.00914069772593324
 0.00914069772593324
 -0.0995320419046064
 0.00914069772593324
 0.00914069772593324
 0.00914069772593324
 0.00914069772593324
 -0.0219376745422398
 -0.0219376745422398
 -0.0219376745422398
 -0.0219376745422398
  0.0146251163614932
  0.0329065118133597
  0.0329065118133597
  0.0329065118133597
  0.0329065118133597
  0.0329065118133597
  0.0329065118133597
  0.0329065118133597
  0.0329065118133597
  0.0329065118133597
  0.0329065118133597
  -0.441457512358743
  0.0329065118133597
  0.0329065118133597
  0.0329065118133597
  0.0329065118133597
  0.0329065118133597
  0.0329065118133597
  0.0329065118133597
  0.0329065118133597
  0.0329065118133597
  0.0329065118133597
  0.0146251163614932
 -0.0219376745422398
 -0.0219376745422398
 -0.0219376745422398
 -0.0219376745422398
 0.00914069772593324
 0.00914069772593324
 0.00914069772593324
 0.00914069772593324
 -0.0995320419046064
 0.00914069772593324
 0.00914069772593324
 0.00914069772593324
 0.00914069772593324
 0.00406253232263699
 0.00914069772593324
 0.00914069772593324
 0.00914069772593324
 0.00914069772593324
 -0.0995320419046064
 0.00914069772593324
 0.00914069772593324
 0.00914069772593324
 0.00914069772593324
 0.00406253232263699
  0.0179840230790097
  0.0179840230790097
 -0.0431616553896233
  0.0179840230790097
  0.0179840230790097
  0.0530319514590443
  0.0530319514590443
  0.0530319514590443
  -0.127276683501706
  0.0530319514590443
  0.0530319514590443
  0.0530319514590443
             0.02835
 0.00512933674660672
 0.00820693879457075
 0.00512933674660672
 0.00820693879457075
  0.0184656122877842
  0.0184656122877842
  0.0184656122877842
  0.0184656122877842
  0.0184656122877842
  -0.304477429278575
  0.0184656122877842
  0.0184656122877842
  0.0184656122877842
  0.0184656122877842
  0.0184656122877842
 0.00820693879457075
 0.00512933674660672
 0.00820693879457075
 0.00512933674660672
  0.0572713510559978
 0.00820693879457076
  0.0184656122877842
  0.0184656122877842
  0.0184656122877842
  0.0184656122877842
  -0.201070000466984
  0.0184656122877842
  0.0184656122877842
  0.0184656122877842
  0.0184656122877842
 0.00820693879457076
  0.0184656122877842
  0.0184656122877842
  0.0184656122877842
  0.0184656122877842
  -0.201070000466984
  0.0184656122877842
  0.0184656122877842
  0.0184656122877842
  0.0184656122877842
  0.0184656122877842
 -0.0812486940662506
  0.0184656122877842
 -0.0812486940662506
 -0.0443174694906821
 -0.0443174694906821
  0.0295449796604547
  0.0664762042360232
  0.0664762042360232
  0.0664762042360232
  0.0664762042360232
  0.0664762042360232
  0.0664762042360232
  0.0664762042360232
  0.0664762042360232
  0.0664762042360232
  0.0664762042360232
  0.0664762042360232
   -0.95090188759622
  0.0664762042360232
  0.0664762042360232
  0.0664762042360232
  0.0664762042360232
  0.0664762042360232
  0.0664762042360232
  0.0664762042360232
  0.0664762042360232
  0.0664762042360232
  0.0664762042360232
  0.0664762042360232
  0.0295449796604547
 -0.0443174694906821
 -0.0443174694906821
 -0.0812486940662506
  0.0184656122877842
 -0.0812486940662506
  0.0184656122877842
  0.0184656122877842
  0.0184656122877842
  0.0184656122877842
  0.0184656122877842
  -0.201070000466984
  0.0184656122877842
  0.0184656122877842
  0.0184656122877842
  0.0184656122877842
 0.00820693879457076
  0.0184656122877842
  0.0184656122877842
  0.0184656122877842
  0.0184656122877842
  -0.201070000466984
  0.0184656122877842
  0.0184656122877842
  0.0184656122877842
  0.0184656122877842
 0.00820693879457076
  0.0572713510559979
 0.00512933674660672
 0.00820693879457075
 0.00512933674660672
 0.00820693879457075
  0.0184656122877842
  0.0184656122877842
  0.0184656122877842
  0.0184656122877842
  0.0184656122877842
  -0.304477429278575
  0.0184656122877842
  0.0184656122877842
  0.0184656122877842
  0.0184656122877842
  0.0184656122877842
 0.00820693879457075
 0.00512933674660672
 0.00820693879457075
 0.00512933674660672
  0.0283500000000001
  0.0388479710401774
  0.0388479710401774
  0.0388479710401774
 -0.0932351304964258
  0.0388479710401774
  0.0388479710401774
  0.0388479710401774
  0.0179840230790097
 0.00253908270164811
 0.00406253232263698
 0.00253908270164811
 0.00406253232263698
 0.00914069772593322
 0.00914069772593322
 0.00914069772593322
 0.00914069772593322
 0.00914069772593322
  -0.150719949169832
 0.00914069772593322
 0.00914069772593322
 0.00914069772593322
 0.00914069772593322
 0.00914069772593322
 0.00406253232263698
 0.00253908270164811
 0.00406253232263698
 0.00253908270164811
 0.00914069772593321
 0.00165381716879202
 0.00165381716879202
 -0.0125690104828193
 0.00165381716879202
 0.00165381716879202
 0.00264610747006723
 0.00264610747006723
 0.00595374180765126
 0.00595374180765126
 0.00595374180765126
 0.00595374180765126
 0.00595374180765126
 0.00595374180765126
 0.00595374180765126
  -0.124896272587173
 0.00595374180765126
 0.00595374180765126
 0.00595374180765126
 0.00595374180765126
 0.00595374180765126
 0.00595374180765126
 0.00595374180765126
 0.00264610747006723
 0.00264610747006723
 0.00165381716879202
 0.00165381716879202
 -0.0125690104828193
 0.00165381716879202
 0.00165381716879202
  0.0184656122877842
 0.00914069772593321
 0.00264610747006723
 0.00264610747006723
 0.00595374180765126
 0.00595374180765126
 0.00595374180765126
 0.00595374180765126
 0.00595374180765126
 0.00595374180765126
  -0.112988788971871
 0.00595374180765126
 0.00595374180765126
 0.00595374180765126
 0.00595374180765126
 0.00595374180765126
 0.00595374180765126
 0.00264610747006723
 0.00264610747006723
  0.0184656122877842
 0.00595374180765126
 0.00595374180765126
 0.00595374180765126
 0.00595374180765126
 -0.0862631035241917
 0.00595374180765126
 0.00595374180765126
 0.00595374180765126
 0.00595374180765126
 0.00595374180765126
 0.00595374180765126
 0.00595374180765126
 -0.0862631035241917
 0.00595374180765126
 0.00595374180765126
 0.00595374180765126
 0.00595374180765126
 -0.0809708885840572
 0.00595374180765126
 -0.0809708885840572
 -0.0690634049687547
-0.00238149672306051
-0.00238149672306051
-0.00238149672306051
 0.00952598689224202
  0.0214334705075446
  0.0214334705075446
  0.0214334705075446
  0.0214334705075446
  0.0214334705075446
  0.0214334705075446
  0.0214334705075446
  0.0214334705075446
  0.0214334705075446
  0.0214334705075446
  0.0214334705075446
  0.0214334705075446
  0.0214334705075446
  0.0917373706582667
  0.0214334705075446
  0.0214334705075446
  0.0214334705075446
  0.0214334705075446
  0.0214334705075446
  0.0214334705075446
  0.0214334705075446
  0.0214334705075446
  0.0214334705075446
  0.0214334705075446
  0.0214334705075446
  0.0214334705075446
  0.0214334705075446
 0.00952598689224202
-0.00238149672306051
-0.00238149672306051
-0.00238149672306051
 -0.0690634049687547
 -0.0809708885840573
 0.00595374180765126
 -0.0809708885840572
 0.00595374180765126
 0.00595374180765126
 0.00595374180765126
 0.00595374180765126
 -0.0862631035241917
 0.00595374180765126
 0.00595374180765126
 0.00595374180765126
 0.00595374180765126
 0.00595374180765126
 0.00595374180765126
 0.00595374180765126
 -0.0862631035241917
 0.00595374180765126
 0.00595374180765126
 0.00595374180765126
 0.00595374180765126
  0.0184656122877842
 0.00264610747006723
 0.00264610747006723
 0.00595374180765126
 0.00595374180765126
 0.00595374180765126
 0.00595374180765126
 0.00595374180765126
 0.00595374180765126
  -0.112988788971871
 0.00595374180765126
 0.00595374180765126
 0.00595374180765126
 0.00595374180765126
 0.00595374180765126
 0.00595374180765126
 0.00264610747006723
 0.00264610747006723
 0.00914069772593324
  0.0184656122877842
 0.00165381716879202
 0.00165381716879202
 -0.0125690104828193
 0.00165381716879202
 0.00165381716879202
 0.00264610747006723
 0.00264610747006723
 0.00595374180765126
 0.00595374180765126
 0.00595374180765126
 0.00595374180765126
 0.00595374180765126
 0.00595374180765126
 0.00595374180765126
  -0.124896272587173
 0.00595374180765126
 0.00595374180765126
 0.00595374180765126
 0.00595374180765126
 0.00595374180765126
 0.00595374180765126
 0.00595374180765126
 0.00264610747006723
 0.00264610747006723
 0.00165381716879202
 0.00165381716879202
 -0.0125690104828193
 0.00165381716879202
 0.00165381716879202
 0.00914069772593324
  0.0388479710401773
 0.00512933674660672
 0.00820693879457075
 0.00512933674660672
 0.00820693879457075
  0.0184656122877842
  0.0184656122877842
  0.0184656122877842
  0.0184656122877842
  0.0184656122877842
  -0.304477429278575
  0.0184656122877842
  0.0184656122877842
  0.0184656122877842
  0.0184656122877842
  0.0184656122877842
 0.00820693879457075
 0.00512933674660672
 0.00820693879457075
 0.00512933674660672
  0.0530319514590442
 0.00914069772593322
 -0.0036562790903733
 0.00914069772593322
 0.00914069772593321
 0.00264610747006723
 0.00264610747006723
 0.00595374180765126
 0.00595374180765126
 0.00595374180765126
 0.00595374180765126
 0.00595374180765126
 0.00595374180765126
   -0.12832562786838
 0.00595374180765126
 0.00595374180765126
 0.00595374180765126
 0.00595374180765126
 0.00595374180765126
 0.00595374180765126
 0.00264610747006723
 0.00264610747006723
  0.0184656122877842
 0.00595374180765126
 0.00595374180765126
 0.00595374180765126
 -0.0529221494013446
 0.00595374180765126
 0.00595374180765126
 0.00595374180765126
 0.00595374180765126
 0.00595374180765126
 -0.0529221494013446
 0.00595374180765126
 0.00595374180765126
 0.00595374180765126
 -0.0595374180765127
 0.00595374180765126
 -0.0595374180765127
-0.00238149672306051
-0.00238149672306051
-0.00238149672306051
-0.00238149672306051
 0.00952598689224202
  0.0214334705075446
  0.0214334705075446
  0.0214334705075446
  0.0214334705075446
  0.0214334705075446
  0.0214334705075446
  0.0214334705075446
  0.0214334705075446
  0.0214334705075446
 -0.0881132618672628
  0.0214334705075446
  0.0214334705075446
  0.0214334705075446
  0.0214334705075446
  0.0214334705075446
  0.0214334705075446
  0.0214334705075446
  0.0214334705075446
  0.0214334705075446
 0.00952598689224202
-0.00238149672306051
-0.00238149672306051
-0.00238149672306051
-0.00238149672306051
 -0.0595374180765127
 0.00595374180765126
 -0.0595374180765127
 0.00595374180765126
 0.00595374180765126
 0.00595374180765126
 -0.0529221494013446
 0.00595374180765126
 0.00595374180765126
 0.00595374180765126
 0.00595374180765126
 0.00595374180765126
 -0.0529221494013446
 0.00595374180765126
 0.00595374180765126
 0.00595374180765126
  0.0184656122877842
 0.00264610747006723
 0.00264610747006723
 0.00595374180765126
 0.00595374180765126
 0.00595374180765126
 0.00595374180765126
 0.00595374180765126
 0.00595374180765126
   -0.12832562786838
 0.00595374180765126
 0.00595374180765126
 0.00595374180765126
 0.00595374180765126
 0.00595374180765126
 0.00595374180765126
 0.00264610747006723
 0.00264610747006723
 0.00914069772593324
  0.0184656122877842
-0.00738624491511371
  0.0184656122877842
 -0.0036562790903733
 0.00595374180765126
 0.00595374180765126
 0.00595374180765126
 -0.0529221494013446
 0.00595374180765126
 0.00595374180765126
 0.00595374180765126
 0.00595374180765126
 0.00595374180765126
 -0.0529221494013446
 0.00595374180765126
 0.00595374180765126
 0.00595374180765126
 -0.0595374180765127
 0.00595374180765126
 -0.0595374180765127
-0.00238149672306051
-0.00238149672306051
-0.00238149672306051
-0.00238149672306051
  0.0214334705075446
  0.0214334705075446
  0.0214334705075446
  0.0214334705075446
  0.0214334705075446
  0.0214334705075446
  0.0214334705075446
  0.0214334705075446
  0.0214334705075446
