  0.173927
 0.0694444
 0.0694444
 -0.138889
 0.0694444
 0.0694444
  0.138889
  0.138889
  0.138889
  0.138889
  -1.38889
  0.138889
  0.138889
  0.138889
  0.138889
 0.0694444
 0.0694444
 -0.138889
 0.0694444
 0.0694444
 0.0694444
 0.0694444
    0.0625
    0.0625
    0.0625
      -0.5
    0.0625
    0.0625
    0.0625
    -0.125
     0.125
     0.125
     0.125
     0.125
     0.125
     0.125
     0.125
     0.125
     0.125
        -2
     0.125
     0.125
     0.125
     0.125
     0.125
     0.125
     0.125
     0.125
     0.125
    -0.125
    0.0625
    0.0625
    0.0625
      -0.5
    0.0625
    0.0625
    0.0625
  0.138889
     0.125
     0.125
     0.125
     0.125
     0.125
     0.125
  -1.63889
     0.125
     0.125
     0.125
     0.125
     0.125
     0.125
  0.138889
     0.125
     0.125
     0.125
     0.125
     0.125
     0.125
     0.125
     0.125
     -2.25
     0.125
     0.125
     0.125
     0.125
     0.125
     0.125
     0.125
     0.125
     0.125
     0.125
     0.125
     -1.25
     0.125
     0.125
     0.125
     0.125
     0.125
     -1.25
     0.125
     0.125
     0.125
      -1.5
     0.125
      -1.5
      -0.5
      -0.5
      -0.5
      -0.5
      0.25
      0.25
      0.25
      0.25
      0.25
      0.25
      0.25
      0.25
      0.25
   7.94444
      0.25
      0.25
      0.25
      0.25
      0.25
      0.25
      0.25
      0.25
      0.25
      -0.5
      -0.5
      -0.5
      -0.5
      -1.5
     0.125
      -1.5
     0.125
     0.125
     0.125
     -1.25
     0.125
     0.125
     0.125
     0.125
     0.125
     -1.25
     0.125
     0.125
     0.125
     0.125
     0.125
     0.125
     0.125
     0.125
     0.125
     0.125
     0.125
     -2.25
     0.125
     0.125
     0.125
     0.125
     0.125
     0.125
     0.125
     0.125
  0.138889
     0.125
     0.125
     0.125
     0.125
     0.125
     0.125
  -1.63889
     0.125
     0.125
     0.125
     0.125
     0.125
     0.125
  0.138889
    0.0625
    0.0625
    0.0625
      -0.5
    0.0625
    0.0625
    0.0625
    -0.125
     0.125
     0.125
     0.125
     0.125
     0.125
     0.125
     0.125
     0.125
     0.125
        -2
     0.125
     0.125
     0.125
     0.125
     0.125
     0.125
     0.125
     0.125
     0.125
    -0.125
    0.0625
    0.0625
    0.0625
      -0.5
    0.0625
    0.0625
    0.0625
 0.0694444
 0.0694444
  0.326073
  0.173927
  0.138889
  0.138889
  0.138889
  0.138889
  0.138889
  -1.66667
  0.138889
  0.138889
  0.138889
  0.138889
  0.138889
  0.138889
     0.125
     0.125
     0.125
     0.125
     0.125
     0.125
  -1.63889
     0.125
     0.125
     0.125
     0.125
     0.125
     0.125
  0.138889
     0.125
     0.125
     0.125
     0.125
     0.125
     0.125
     0.125
     0.125
  -2.38889
     0.125
     0.125
     0.125
     0.125
     0.125
     0.125
     0.125
     0.125
     0.125
     0.125
     0.125
     -1.25
     0.125
     0.125
     0.125
     0.125
     0.125
     -1.25
     0.125
     0.125
     0.125
      -1.5
     0.125
      -1.5
      -0.5
      -0.5
      -0.5
      -0.5
      0.25
      0.25
      0.25
      0.25
      0.25
      0.25
      0.25
   9.22222
      0.25
      0.25
      0.25
      0.25
      0.25
      0.25
      0.25
      -0.5
      -0.5
      -0.5
      -0.5
      -1.5
     0.125
      -1.5
     0.125
     0.125
     0.125
     -1.25
     0.125
     0.125
     0.125
     0.125
     0.125
     -1.25
     0.125
     0.125
     0.125
     0.125
     0.125
     0.125
     0.125
     0.125
     0.125
     0.125
     0.125
  -2.38889
     0.125
     0.125
     0.125
     0.125
     0.125
     0.125
     0.125
     0.125
  0.138889
     0.125
     0.125
     0.125
     0.125
     0.125
     0.125
  -1.63889
     0.125
     0.125
     0.125
     0.125
     0.125
     0.125
  0.138889
  0.326073
  0.138889
 -0.555556
  0.138889
  0.138889
     0.125
     0.125
     0.125
     0.125
     0.125
     0.125
        -2
     0.125
     0.125
     0.125
     0.125
     0.125
     0.125
     -0.25
     -0.25
      -0.5
      -0.5
      -0.5
      -0.5
     -0.25
     -0.25
      0.25
      0.25
      0.25
      0.25
      0.25
      0.25
      0.25
      0.25
   3.22222
      0.25
      0.25
      0.25
      0.25
      0.25
      0.25
      0.25
      0.25
     -0.25
     -0.25
      -0.5
      -0.5
      -0.5
      -0.5
     -0.25
     -0.25
     0.125
     0.125
     0.125
     0.125
     0.125
     0.125
        -2
     0.125
     0.125
     0.125
     0.125
     0.125
     0.125
  0.138889
 -0.555556
      -0.5
      -0.5
      -0.5
      -0.5
      -0.5
      -0.5
     -0.25
     -0.25
      0.25
      0.25
      0.25
      0.25
      0.25
      0.25
      0.25
      0.25
   4.44444
      0.25
      0.25
      0.25
      0.25
      0.25
      0.25
      0.25
      0.25
     -0.25
     -0.25
      -0.5
      -0.5
      -0.5
      -0.5
      -0.5
      -0.5
     -0.25
     -0.25
     -0.25
      0.25
      0.25
      0.25
      0.25
      0.25
      0.25
      0.25
 -0.555556
      0.25
      0.25
      0.25
      0.25
      0.25
      0.25
      0.25
     -0.25
     -0.25
     -0.25
     -0.25
     -0.25
      0.25
      0.25
      0.25
      0.25
      0.25
      0.25
-0.0555556
      0.25
      0.25
      0.25
      0.25
      0.25
      0.25
     -0.25
     -0.25
     -0.25
      0.25
      0.25
      0.25
      0.25
      0.25
      0.25
  0.444444
      0.25
      0.25
      0.25
      0.25
      0.25
      0.25
     -0.25
      0.25
      0.25
      0.25
      0.25
      0.25
      0.25
  0.444444
      0.25
      0.25
      0.25
      0.25
      0.25
      0.25
      -0.5
      -0.5
        -1
        -1
        -3
        -3
      -1.5
      -1.5
      -1.5
      -1.5
      -1.5
      -1.5
      -0.5
      -0.5
       0.5
       0.5
       0.5
       0.5
       0.5
       0.5
       0.5
       0.5
       0.5
       0.5
   5.33333
       0.5
       0.5
       0.5
       0.5
       0.5
       0.5
       0.5
       0.5
       0.5
       0.5
      -0.5
      -0.5
      -1.5
      -1.5
      -1.5
      -1.5
      -1.5
      -1.5
        -3
        -3
        -1
        -1
      -0.5
      -0.5
      0.25
      0.25
      0.25
      0.25
      0.25
      0.25
  0.444444
      0.25
      0.25
      0.25
      0.25
      0.25
      0.25
     -0.25
      0.25
      0.25
      0.25
      0.25
      0.25
      0.25
  0.444444
      0.25
      0.25
      0.25
      0.25
      0.25
      0.25
     -0.25
     -0.25
     -0.25
      0.25
      0.25
      0.25
      0.25
      0.25
      0.25
-0.0555556
      0.25
      0.25
      0.25
      0.25
      0.25
      0.25
     -0.25
     -0.25
     -0.25
     -0.25
     -0.25
      0.25
      0.25
      0.25
      0.25
      0.25
      0.25
      0.25
 -0.555556
      0.25
      0.25
      0.25
      0.25
      0.25
      0.25
      0.25
     -0.25
     -0.25
     -0.25
      -0.5
      -0.5
      -0.5
      -0.5
      -0.5
      -0.5
     -0.25
     -0.25
      0.25
      0.25
      0.25
      0.25
      0.25
      0.25
      0.25
      0.25
   4.44444
      0.25
      0.25
      0.25
      0.25
      0.25
      0.25
      0.25
      0.25
     -0.25
     -0.25
      -0.5
      -0.5
      -0.5
      -0.5
      -0.5
      -0.5
 -0.555556
  0.138889
     0.125
     0.125
     0.125
     0.125
     0.125
     0.125
        -2
     0.125
     0.125
     0.125
     0.125
     0.125
     0.125
     -0.25
     -0.25
      -0.5
      -0.5
      -0.5
      -0.5
     -0.25
     -0.25
      0.25
      0.25
      0.25
      0.25
      0.25
      0.25
      0.25
      0.25
   3.22222
      0.25
      0.25
      0.25
      0.25
      0.25
      0.25
      0.25
      0.25
     -0.25
     -0.25
      -0.5
      -0.5
      -0.5
      -0.5
     -0.25
     -0.25
     0.125
     0.125
     0.125
     0.125
     0.125
     0.125
        -2
     0.125
     0.125
     0.125
     0.125
     0.125
     0.125
  0.138889
  0.138889
 -0.555556
  0.138889
  0.326073
  0.138889
     0.125
     0.125
     0.125
     0.125
     0.125
     0.125
  -1.63889
     0.125
     0.125
     0.125
     0.125
     0.125
     0.125
  0.138889
     0.125
     0.125
     0.125
     0.125
     0.125
     0.125
     0.125
     0.125
  -2.38889
     0.125
     0.125
     0.125
     0.125
     0.125
     0.125
     0.125
     0.125
     0.125
     0.125
     0.125
     -1.25
     0.125
     0.125
     0.125
     0.125
     0.125
     -1.25
     0.125
     0.125
     0.125
      -1.5
     0.125
      -1.5
      -0.5
      -0.5
      -0.5
      -0.5
      0.25
      0.25
      0.25
      0.25
      0.25
      0.25
      0.25
   9.22222
      0.25
      0.25
      0.25
      0.25
      0.25
      0.25
      0.25
      -0.5
      -0.5
      -0.5
      -0.5
      -1.5
     0.125
      -1.5
     0.125
     0.125
     0.125
     -1.25
     0.125
     0.125
     0.125
     0.125
     0.125
     -1.25
     0.125
     0.125
     0.125
     0.125
     0.125
     0.125
     0.125
     0.125
     0.125
     0.125
     0.125
  -2.38889
     0.125
     0.125
     0.125
     0.125
     0.125
     0.125
     0.125
     0.125
  0.138889
     0.125
     0.125
     0.125
     0.125
     0.125
     0.125
  -1.63889
     0.125
     0.125
     0.125
     0.125
     0.125
     0.125
  0.138889
  0.138889
  0.138889
  0.138889
  0.138889
  0.138889
  -1.66667
  0.138889
  0.138889
  0.138889
  0.138889
  0.138889
  0.173927
  0.326073
 0.0694444
 0.0694444
    0.0625
    0.0625
    0.0625
      -0.5
    0.0625
    0.0625
    0.0625
    -0.125
     0.125
     0.125
     0.125
     0.125
     0.125
     0.125
     0.125
     0.125
     0.125
        -2
     0.125
     0.125
     0.125
     0.125
     0.125
     0.125
     0.125
     0.125
     0.125
    -0.125
    0.0625
    0.0625
    0.0625
      -0.5
    0.0625
    0.0625
    0.0625
  0.138889
     0.125
     0.125
     0.125
     0.125
     0.125
     0.125
  -1.63889
     0.125
     0.125
     0.125
     0.125
     0.125
     0.125
  0.138889
     0.125
     0.125
     0.125
     0.125
     0.125
     0.125
     0.125
     0.125
     -2.25
     0.125
     0.125
     0.125
     0.125
     0.125
     0.125
     0.125
     0.125
     0.125
     0.125
     0.125
     -1.25
     0.125
     0.125
     0.125
     0.125
     0.125
     -1.25
     0.125
     0.125
     0.125
      -1.5
     0.125
      -1.5
      -0.5
      -0.5
      -0.5
      -0.5
      0.25
      0.25
      0.25
      0.25
      0.25
      0.25
      0.25
      0.25
      0.25
   7.94444
      0.25
      0.25
      0.25
      0.25
      0.25
      0.25
      0.25
      0.25
      0.25
      -0.5
      -0.5
      -0.5
      -0.5
      -1.5
     0.125
      -1.5
     0.125
     0.125
     0.125
     -1.25
     0.125
     0.125
     0.125
     0.125
     0.125
     -1.25
     0.125
     0.125
     0.125
     0.125
     0.125
     0.125
     0.125
     0.125
     0.125
     0.125
     0.125
     -2.25
     0.125
     0.125
     0.125
     0.125
     0.125
     0.125
     0.125
     0.125
  0.138889
     0.125
     0.125
     0.125
     0.125
     0.125
     0.125
  -1.63889
     0.125
     0.125
     0.125
     0.125
     0.125
     0.125
  0.138889
    0.0625
    0.0625
    0.0625
      -0.5
    0.0625
    0.0625
    0.0625
    -0.125
     0.125
     0.125
     0.125
     0.125
     0.125
     0.125
     0.125
     0.125
     0.125
        -2
     0.125
     0.125
     0.125
     0.125
     0.125
     0.125
     0.125
     0.125
     0.125
    -0.125
    0.0625
    0.0625
    0.0625
      -0.5
    0.0625
    0.0625
    0.0625
 0.0694444
 0.0694444
 0.0694444
 0.0694444
 -0.138889
 0.0694444
 0.0694444
  0.138889
  0.138889
  0.138889
  0.138889
  -1.38889
  0.138889
  0.138889
  0.138889
  0.138889
 0.0694444
 0.0694444
 -0.138889
 0.0694444
 0.0694444
  0.173927
