  0.173927422568727
 0.0694444444444444
 0.0694444444444444
 -0.138888888888889
 0.0694444444444444
 0.0694444444444444
  0.138888888888889
  0.138888888888889
  0.138888888888889
  0.138888888888889
  -1.38888888888889
  0.138888888888889
  0.138888888888889
  0.138888888888889
  0.138888888888889
 0.0694444444444444
 0.0694444444444444
 -0.138888888888889
 0.0694444444444444
 0.0694444444444444
 0.0694444444444444
 0.0694444444444444
 0.0624999999999999
 0.0624999999999999
 0.0624999999999999
               -0.5
 0.0624999999999999
 0.0624999999999999
 0.0624999999999999
             -0.125
              0.125
              0.125
              0.125
              0.125
              0.125
              0.125
              0.125
              0.125
              0.125
                 -2
              0.125
              0.125
              0.125
              0.125
              0.125
              0.125
              0.125
              0.125
              0.125
             -0.125
 0.0624999999999999
 0.0624999999999999
 0.0624999999999999
               -0.5
 0.0624999999999999
 0.0624999999999999
 0.0624999999999999
  0.138888888888889
              0.125
              0.125
              0.125
              0.125
              0.125
              0.125
  -1.63888888888889
              0.125
              0.125
              0.125
              0.125
              0.125
              0.125
  0.138888888888889
              0.125
              0.125
              0.125
              0.125
              0.125
              0.125
              0.125
              0.125
              -2.25
              0.125
              0.125
              0.125
              0.125
              0.125
              0.125
              0.125
              0.125
              0.125
              0.125
              0.125
              -1.25
              0.125
              0.125
              0.125
              0.125
              0.125
              -1.25
              0.125
              0.125
              0.125
               -1.5
              0.125
               -1.5
               -0.5
               -0.5
               -0.5
               -0.5
               0.25
               0.25
               0.25
               0.25
               0.25
               0.25
               0.25
               0.25
               0.25
   7.94444444444444
               0.25
               0.25
               0.25
               0.25
               0.25
               0.25
               0.25
               0.25
               0.25
               -0.5
               -0.5
               -0.5
               -0.5
               -1.5
              0.125
               -1.5
              0.125
              0.125
              0.125
              -1.25
              0.125
              0.125
              0.125
              0.125
              0.125
              -1.25
              0.125
              0.125
              0.125
              0.125
              0.125
              0.125
              0.125
              0.125
              0.125
              0.125
              0.125
              -2.25
              0.125
              0.125
              0.125
              0.125
              0.125
              0.125
              0.125
              0.125
  0.138888888888889
              0.125
              0.125
              0.125
              0.125
              0.125
              0.125
  -1.63888888888889
              0.125
              0.125
              0.125
              0.125
              0.125
              0.125
  0.138888888888889
 0.0624999999999999
 0.0624999999999999
 0.0624999999999999
               -0.5
 0.0624999999999999
 0.0624999999999999
 0.0624999999999999
             -0.125
              0.125
              0.125
              0.125
              0.125
              0.125
              0.125
              0.125
              0.125
              0.125
                 -2
              0.125
              0.125
              0.125
              0.125
              0.125
              0.125
              0.125
              0.125
              0.125
             -0.125
 0.0624999999999999
 0.0624999999999999
 0.0624999999999999
               -0.5
 0.0624999999999999
 0.0624999999999999
 0.0624999999999999
 0.0694444444444444
 0.0694444444444444
  0.326072577431273
  0.173927422568727
  0.138888888888889
  0.138888888888889
  0.138888888888889
  0.138888888888889
  0.138888888888889
  -1.66666666666667
  0.138888888888889
  0.138888888888889
  0.138888888888889
  0.138888888888889
  0.138888888888889
  0.138888888888889
              0.125
              0.125
              0.125
              0.125
              0.125
              0.125
  -1.63888888888889
              0.125
              0.125
              0.125
              0.125
              0.125
              0.125
  0.138888888888889
              0.125
              0.125
              0.125
              0.125
              0.125
              0.125
              0.125
              0.125
  -2.38888888888889
              0.125
              0.125
              0.125
              0.125
              0.125
              0.125
              0.125
              0.125
              0.125
              0.125
              0.125
              -1.25
              0.125
              0.125
              0.125
              0.125
              0.125
              -1.25
              0.125
              0.125
              0.125
               -1.5
              0.125
               -1.5
               -0.5
               -0.5
               -0.5
               -0.5
               0.25
               0.25
               0.25
               0.25
               0.25
               0.25
               0.25
   9.22222222222222
               0.25
               0.25
               0.25
               0.25
               0.25
               0.25
               0.25
               -0.5
               -0.5
               -0.5
               -0.5
               -1.5
              0.125
               -1.5
              0.125
              0.125
              0.125
              -1.25
              0.125
              0.125
              0.125
              0.125
              0.125
              -1.25
              0.125
              0.125
              0.125
              0.125
              0.125
              0.125
              0.125
              0.125
              0.125
              0.125
              0.125
  -2.38888888888889
              0.125
              0.125
              0.125
              0.125
              0.125
              0.125
              0.125
              0.125
  0.138888888888889
              0.125
              0.125
              0.125
              0.125
              0.125
              0.125
  -1.63888888888889
              0.125
              0.125
              0.125
              0.125
              0.125
              0.125
  0.138888888888889
  0.326072577431273
  0.138888888888889
 -0.555555555555555
  0.138888888888889
  0.138888888888889
              0.125
              0.125
              0.125
              0.125
              0.125
              0.125
                 -2
              0.125
              0.125
              0.125
              0.125
              0.125
              0.125
              -0.25
              -0.25
               -0.5
               -0.5
               -0.5
               -0.5
              -0.25
              -0.25
               0.25
               0.25
               0.25
               0.25
               0.25
               0.25
               0.25
               0.25
   3.22222222222222
               0.25
               0.25
               0.25
               0.25
               0.25
               0.25
               0.25
               0.25
              -0.25
              -0.25
               -0.5
               -0.5
               -0.5
               -0.5
              -0.25
              -0.25
              0.125
              0.125
              0.125
              0.125
              0.125
              0.125
                 -2
              0.125
              0.125
              0.125
              0.125
              0.125
              0.125
  0.138888888888889
 -0.555555555555555
               -0.5
               -0.5
               -0.5
               -0.5
               -0.5
               -0.5
              -0.25
              -0.25
               0.25
               0.25
               0.25
               0.25
               0.25
               0.25
               0.25
               0.25
   4.44444444444444
               0.25
               0.25
               0.25
               0.25
               0.25
               0.25
               0.25
               0.25
              -0.25
              -0.25
               -0.5
               -0.5
               -0.5
               -0.5
               -0.5
               -0.5
              -0.25
              -0.25
              -0.25
               0.25
               0.25
               0.25
               0.25
               0.25
               0.25
               0.25
 -0.555555555555556
               0.25
               0.25
               0.25
               0.25
               0.25
               0.25
               0.25
              -0.25
              -0.25
              -0.25
              -0.25
              -0.25
               0.25
               0.25
               0.25
               0.25
               0.25
               0.25
-0.0555555555555557
               0.25
               0.25
               0.25
               0.25
               0.25
               0.25
              -0.25
              -0.25
              -0.25
               0.25
               0.25
               0.25
               0.25
               0.25
               0.25
  0.444444444444444
               0.25
               0.25
               0.25
               0.25
               0.25
               0.25
              -0.25
               0.25
               0.25
               0.25
               0.25
               0.25
               0.25
  0.444444444444444
               0.25
               0.25
               0.25
               0.25
               0.25
               0.25
               -0.5
               -0.5
                 -1
                 -1
                 -3
                 -3
               -1.5
               -1.5
               -1.5
               -1.5
               -1.5
               -1.5
               -0.5
               -0.5
                0.5
                0.5
                0.5
                0.5
                0.5
                0.5
                0.5
                0.5
                0.5
                0.5
   5.33333333333334
                0.5
                0.5
                0.5
                0.5
                0.5
                0.5
                0.5
                0.5
                0.5
                0.5
               -0.5
               -0.5
               -1.5
               -1.5
               -1.5
               -1.5
               -1.5
               -1.5
                 -3
                 -3
                 -1
                 -1
               -0.5
               -0.5
               0.25
               0.25
               0.25
               0.25
               0.25
               0.25
  0.444444444444444
               0.25
               0.25
               0.25
               0.25
               0.25
               0.25
              -0.25
               0.25
               0.25
               0.25
               0.25
               0.25
               0.25
  0.444444444444444
               0.25
               0.25
               0.25
               0.25
               0.25
               0.25
              -0.25
              -0.25
              -0.25
               0.25
               0.25
               0.25
               0.25
               0.25
               0.25
-0.0555555555555557
               0.25
               0.25
               0.25
               0.25
               0.25
               0.25
              -0.25
              -0.25
              -0.25
              -0.25
              -0.25
               0.25
               0.25
               0.25
               0.25
               0.25
               0.25
               0.25
 -0.555555555555556
               0.25
               0.25
               0.25
               0.25
               0.25
               0.25
               0.25
              -0.25
              -0.25
              -0.25
               -0.5
               -0.5
               -0.5
               -0.5
               -0.5
               -0.5
              -0.25
              -0.25
               0.25
               0.25
               0.25
               0.25
               0.25
               0.25
               0.25
               0.25
   4.44444444444444
               0.25
               0.25
               0.25
               0.25
               0.25
               0.25
               0.25
               0.25
              -0.25
              -0.25
               -0.5
               -0.5
               -0.5
               -0.5
               -0.5
               -0.5
 -0.555555555555555
  0.138888888888889
              0.125
              0.125
              0.125
              0.125
              0.125
              0.125
                 -2
              0.125
              0.125
              0.125
              0.125
              0.125
              0.125
              -0.25
              -0.25
               -0.5
               -0.5
               -0.5
               -0.5
              -0.25
              -0.25
               0.25
               0.25
               0.25
               0.25
               0.25
               0.25
               0.25
               0.25
   3.22222222222222
               0.25
               0.25
               0.25
               0.25
               0.25
               0.25
               0.25
               0.25
              -0.25
              -0.25
               -0.5
               -0.5
               -0.5
               -0.5
              -0.25
              -0.25
              0.125
              0.125
              0.125
              0.125
              0.125
              0.125
                 -2
              0.125
              0.125
              0.125
              0.125
              0.125
              0.125
  0.138888888888889
  0.138888888888889
 -0.555555555555555
  0.138888888888889
  0.326072577431273
  0.138888888888889
              0.125
              0.125
              0.125
              0.125
              0.125
              0.125
  -1.63888888888889
              0.125
              0.125
              0.125
              0.125
              0.125
              0.125
  0.138888888888889
              0.125
              0.125
              0.125
              0.125
              0.125
              0.125
              0.125
              0.125
  -2.38888888888889
              0.125
              0.125
              0.125
              0.125
              0.125
              0.125
              0.125
              0.125
              0.125
              0.125
              0.125
              -1.25
              0.125
              0.125
              0.125
              0.125
              0.125
              -1.25
              0.125
              0.125
              0.125
               -1.5
              0.125
               -1.5
               -0.5
               -0.5
               -0.5
               -0.5
               0.25
               0.25
               0.25
               0.25
               0.25
               0.25
               0.25
   9.22222222222222
               0.25
               0.25
               0.25
               0.25
               0.25
               0.25
               0.25
               -0.5
               -0.5
               -0.5
               -0.5
               -1.5
              0.125
               -1.5
              0.125
              0.125
              0.125
              -1.25
              0.125
              0.125
              0.125
              0.125
              0.125
              -1.25
              0.125
              0.125
              0.125
              0.125
              0.125
              0.125
              0.125
              0.125
              0.125
              0.125
              0.125
  -2.38888888888889
              0.125
              0.125
              0.125
              0.125
              0.125
              0.125
              0.125
              0.125
  0.138888888888889
              0.125
              0.125
              0.125
              0.125
              0.125
              0.125
  -1.63888888888889
              0.125
              0.125
              0.125
              0.125
              0.125
              0.125
  0.138888888888889
  0.138888888888889
  0.138888888888889
  0.138888888888889
  0.138888888888889
  0.138888888888889
  -1.66666666666667
  0.138888888888889
  0.138888888888889
  0.138888888888889
  0.138888888888889
  0.138888888888889
  0.173927422568727
  0.326072577431273
 0.0694444444444444
 0.0694444444444444
 0.0624999999999999
 0.0624999999999999
 0.0624999999999999
               -0.5
 0.0624999999999999
 0.0624999999999999
 0.0624999999999999
             -0.125
              0.125
              0.125
              0.125
              0.125
              0.125
              0.125
              0.125
              0.125
              0.125
                 -2
              0.125
              0.125
              0.125
              0.125
              0.125
              0.125
              0.125
              0.125
              0.125
             -0.125
 0.0624999999999999
 0.0624999999999999
 0.0624999999999999
               -0.5
 0.0624999999999999
 0.0624999999999999
 0.0624999999999999
  0.138888888888889
              0.125
              0.125
              0.125
              0.125
              0.125
              0.125
  -1.63888888888889
              0.125
              0.125
              0.125
              0.125
              0.125
              0.125
  0.138888888888889
              0.125
              0.125
              0.125
              0.125
              0.125
              0.125
              0.125
              0.125
              -2.25
              0.125
              0.125
              0.125
              0.125
              0.125
              0.125
              0.125
              0.125
              0.125
              0.125
              0.125
              -1.25
              0.125
              0.125
              0.125
              0.125
              0.125
              -1.25
              0.125
              0.125
              0.125
               -1.5
              0.125
               -1.5
               -0.5
               -0.5
               -0.5
               -0.5
               0.25
               0.25
               0.25
               0.25
               0.25
               0.25
               0.25
               0.25
               0.25
   7.94444444444444
               0.25
               0.25
               0.25
               0.25
               0.25
               0.25
               0.25
               0.25
               0.25
               -0.5
               -0.5
               -0.5
               -0.5
               -1.5
              0.125
               -1.5
              0.125
              0.125
              0.125
              -1.25
              0.125
              0.125
              0.125
              0.125
              0.125
              -1.25
              0.125
              0.125
              0.125
              0.125
              0.125
              0.125
              0.125
              0.125
              0.125
              0.125
              0.125
              -2.25
              0.125
              0.125
              0.125
              0.125
              0.125
              0.125
              0.125
              0.125
  0.138888888888889
              0.125
              0.125
              0.125
              0.125
              0.125
              0.125
  -1.63888888888889
              0.125
              0.125
              0.125
              0.125
              0.125
              0.125
  0.138888888888889
 0.0624999999999999
 0.0624999999999999
 0.0624999999999999
               -0.5
 0.0624999999999999
 0.0624999999999999
 0.0624999999999999
             -0.125
              0.125
              0.125
              0.125
              0.125
              0.125
              0.125
              0.125
              0.125
              0.125
                 -2
              0.125
              0.125
              0.125
              0.125
              0.125
              0.125
              0.125
              0.125
              0.125
             -0.125
 0.0624999999999999
 0.0624999999999999
 0.0624999999999999
               -0.5
 0.0624999999999999
 0.0624999999999999
 0.0624999999999999
 0.0694444444444444
 0.0694444444444444
 0.0694444444444444
 0.0694444444444444
 -0.138888888888889
 0.0694444444444444
 0.0694444444444444
  0.138888888888889
  0.138888888888889
  0.138888888888889
  0.138888888888889
  -1.38888888888889
  0.138888888888889
  0.138888888888889
  0.138888888888889
  0.138888888888889
 0.0694444444444444
 0.0694444444444444
 -0.138888888888889
 0.0694444444444444
 0.0694444444444444
  0.173927422568727
