0.0869637112843634
0.0869637112843634
0.0869637112843634
-0.347854845137454
0.0869637112843634
0.0869637112843634
0.0869637112843634
0.0771604938271604
0.0694444444444444
0.0694444444444444
0.0694444444444444
0.0694444444444444
0.0694444444444444
0.0694444444444444
-0.972222222222222
0.0694444444444444
0.0694444444444444
0.0694444444444444
0.0694444444444444
0.0694444444444444
0.0694444444444444
0.0694444444444444
0.0694444444444444
0.0694444444444444
0.0694444444444444
0.0694444444444444
-0.833333333333333
0.0694444444444444
0.0694444444444444
0.0694444444444444
0.0694444444444444
0.0694444444444444
0.0694444444444444
0.0694444444444444
0.0694444444444444
-0.694444444444444
0.0694444444444444
0.0694444444444444
0.0694444444444444
-0.277777777777778
-0.277777777777778
-0.277777777777778
-0.138888888888889
 0.138888888888889
 0.138888888888889
 0.138888888888889
 0.138888888888889
 0.138888888888889
 0.138888888888889
 0.138888888888889
 0.138888888888889
 0.138888888888889
 0.401234567901234
 0.138888888888889
 0.138888888888889
 0.138888888888889
 0.138888888888889
 0.138888888888889
 0.138888888888889
 0.138888888888889
 0.138888888888889
 0.138888888888889
-0.138888888888889
-0.277777777777778
-0.277777777777778
-0.277777777777778
0.0694444444444444
0.0694444444444444
0.0694444444444444
-0.694444444444444
0.0694444444444444
0.0694444444444444
0.0694444444444444
0.0694444444444444
0.0694444444444444
0.0694444444444444
0.0694444444444444
0.0694444444444444
-0.833333333333333
0.0694444444444444
0.0694444444444444
0.0694444444444444
0.0694444444444444
0.0694444444444444
0.0694444444444444
0.0694444444444444
0.0694444444444444
0.0694444444444444
0.0694444444444444
0.0694444444444444
-0.972222222222221
0.0694444444444444
0.0694444444444444
0.0694444444444444
0.0694444444444444
0.0694444444444444
0.0694444444444444
0.0771604938271604
0.0869637112843634
0.0694444444444444
0.0694444444444444
0.0694444444444444
0.0694444444444444
0.0694444444444444
0.0694444444444444
-0.972222222222222
0.0694444444444444
0.0694444444444444
0.0694444444444444
0.0694444444444444
0.0694444444444444
0.0694444444444444
0.0694444444444444
0.0624999999999999
0.0624999999999999
0.0624999999999999
0.0624999999999999
0.0624999999999999
0.0624999999999999
0.0624999999999999
0.0624999999999999
0.0624999999999999
0.0624999999999999
              -1.5
0.0624999999999999
0.0624999999999999
0.0624999999999999
0.0624999999999999
0.0624999999999999
0.0624999999999999
0.0624999999999999
0.0624999999999999
0.0624999999999999
0.0624999999999999
0.0694444444444444
0.0624999999999999
0.0624999999999999
0.0624999999999999
0.0624999999999999
0.0624999999999999
0.0624999999999999
0.0624999999999999
0.0624999999999999
            -1.375
0.0624999999999999
0.0624999999999999
0.0624999999999999
0.0624999999999999
0.0624999999999999
0.0624999999999999
0.0624999999999999
0.0624999999999999
0.0624999999999999
0.0624999999999999
0.0624999999999999
             -0.75
0.0624999999999999
0.0624999999999999
0.0624999999999999
0.0624999999999999
0.0624999999999999
             -0.75
0.0624999999999999
0.0624999999999999
0.0624999999999999
             -0.75
0.0624999999999999
-0.749999999999999
            -0.125
            -0.125
            -0.125
            -0.125
             0.125
             0.125
             0.125
             0.125
             0.125
             0.125
             0.125
             0.125
             0.125
             0.125
             0.125
  3.72222222222222
             0.125
             0.125
             0.125
             0.125
             0.125
             0.125
             0.125
             0.125
             0.125
             0.125
             0.125
            -0.125
            -0.125
            -0.125
            -0.125
-0.749999999999999
0.0624999999999999
-0.749999999999999
0.0624999999999999
0.0624999999999999
0.0624999999999999
             -0.75
0.0624999999999999
0.0624999999999999
0.0624999999999999
0.0624999999999999
0.0624999999999999
             -0.75
0.0624999999999999
0.0624999999999999
0.0624999999999999
0.0624999999999999
0.0624999999999999
0.0624999999999999
0.0624999999999999
0.0624999999999999
0.0624999999999999
0.0624999999999999
0.0624999999999999
            -1.375
0.0624999999999999
0.0624999999999999
0.0624999999999999
0.0624999999999999
0.0624999999999999
0.0624999999999999
0.0624999999999999
0.0624999999999999
0.0694444444444444
0.0624999999999999
0.0624999999999999
0.0624999999999999
0.0624999999999999
0.0624999999999999
0.0624999999999999
0.0624999999999999
0.0624999999999999
0.0624999999999999
0.0624999999999999
              -1.5
0.0624999999999999
0.0624999999999999
0.0624999999999999
0.0624999999999999
0.0624999999999999
0.0624999999999999
0.0624999999999999
0.0624999999999999
0.0624999999999999
0.0624999999999999
0.0694444444444444
 0.163036288715636
0.0694444444444444
-0.138888888888889
0.0694444444444444
0.0694444444444444
0.0624999999999999
0.0624999999999999
0.0624999999999999
0.0624999999999999
0.0624999999999999
0.0624999999999999
0.0624999999999999
             -1.25
0.0624999999999999
0.0624999999999999
0.0624999999999999
0.0624999999999999
0.0624999999999999
0.0624999999999999
0.0624999999999999
0.0624999999999999
0.0624999999999999
              -0.5
0.0624999999999999
0.0624999999999999
            -0.375
            -0.375
             -0.25
            -0.125
            -0.125
            -0.125
             0.125
             0.125
             0.125
             0.125
             0.125
             0.125
             0.125
  2.22222222222222
             0.125
             0.125
             0.125
             0.125
             0.125
             0.125
             0.125
            -0.125
            -0.125
            -0.125
             -0.25
            -0.375
            -0.375
0.0624999999999999
0.0624999999999999
              -0.5
0.0624999999999999
0.0624999999999999
0.0624999999999999
0.0624999999999999
0.0624999999999999
0.0624999999999999
0.0624999999999999
0.0624999999999999
0.0624999999999999
             -1.25
0.0624999999999999
0.0624999999999999
0.0624999999999999
0.0624999999999999
0.0624999999999999
0.0624999999999999
0.0624999999999999
0.0694444444444444
-0.138888888888889
             -0.25
             -0.25
             -0.25
            -0.125
            -0.125
            -0.125
            -0.125
             0.125
             0.125
             0.125
             0.125
             0.125
             0.125
             0.125
             0.125
  1.22222222222222
             0.125
             0.125
             0.125
             0.125
             0.125
             0.125
             0.125
             0.125
            -0.125
            -0.125
            -0.125
            -0.125
             -0.25
             -0.25
             -0.25
            -0.125
            -0.125
             0.125
             0.125
             0.125
             0.125
             0.125
             0.125
             0.125
             0.125
             0.125
-0.888888888888889
             0.125
             0.125
             0.125
             0.125
             0.125
             0.125
             0.125
             0.125
             0.125
            -0.125
            -0.125
             0.125
             0.125
             0.125
             0.125
             0.125
             0.125
             0.125
             0.125
             0.125
 -1.13888888888889
             0.125
             0.125
             0.125
             0.125
             0.125
             0.125
             0.125
             0.125
             0.125
             0.125
             0.125
             0.125
             0.125
             0.125
             0.125
             0.125
-0.638888888888889
             0.125
             0.125
             0.125
             0.125
             0.125
             0.125
             0.125
             0.125
             0.125
             0.125
             0.125
             0.125
             0.125
-0.888888888888889
             0.125
             0.125
             0.125
             0.125
             0.125
             0.125
             0.125
             -1.25
             0.125
             -1.25
                -1
             -1.25
              -1.5
             -1.75
              -1.5
             -1.25
             -1.25
              -0.5
              -0.5
              -0.5
              0.25
              0.25
              0.25
              0.25
              0.25
              0.25
              0.25
              0.25
              0.25
              0.25
              12.5
              0.25
              0.25
              0.25
              0.25
              0.25
              0.25
              0.25
              0.25
              0.25
              0.25
              -0.5
              -0.5
              -0.5
             -1.25
             -1.25
              -1.5
             -1.75
              -1.5
             -1.25
                -1
             -1.25
             0.125
             -1.25
             0.125
             0.125
             0.125
             0.125
             0.125
             0.125
             0.125
-0.888888888888889
             0.125
             0.125
             0.125
             0.125
             0.125
             0.125
             0.125
             0.125
             0.125
             0.125
             0.125
             0.125
             0.125
-0.638888888888889
             0.125
             0.125
             0.125
             0.125
             0.125
             0.125
             0.125
             0.125
             0.125
             0.125
             0.125
             0.125
             0.125
             0.125
             0.125
             0.125
 -1.13888888888889
             0.125
             0.125
             0.125
             0.125
             0.125
             0.125
             0.125
             0.125
             0.125
            -0.125
            -0.125
             0.125
             0.125
             0.125
             0.125
             0.125
             0.125
             0.125
             0.125
             0.125
-0.888888888888889
             0.125
             0.125
             0.125
             0.125
             0.125
             0.125
             0.125
             0.125
             0.125
            -0.125
            -0.125
             -0.25
             -0.25
             -0.25
            -0.125
            -0.125
            -0.125
            -0.125
             0.125
             0.125
             0.125
             0.125
             0.125
             0.125
             0.125
             0.125
  1.22222222222222
             0.125
             0.125
             0.125
             0.125
             0.125
             0.125
             0.125
             0.125
            -0.125
            -0.125
            -0.125
            -0.125
             -0.25
             -0.25
             -0.25
-0.138888888888889
0.0694444444444444
0.0624999999999999
0.0624999999999999
0.0624999999999999
0.0624999999999999
0.0624999999999999
0.0624999999999999
0.0624999999999999
             -1.25
0.0624999999999999
0.0624999999999999
0.0624999999999999
0.0624999999999999
0.0624999999999999
0.0624999999999999
0.0624999999999999
0.0624999999999999
0.0624999999999999
              -0.5
0.0624999999999999
0.0624999999999999
            -0.375
            -0.375
             -0.25
            -0.125
            -0.125
            -0.125
             0.125
             0.125
             0.125
             0.125
             0.125
             0.125
             0.125
  2.22222222222222
             0.125
             0.125
             0.125
             0.125
             0.125
             0.125
             0.125
            -0.125
            -0.125
            -0.125
             -0.25
            -0.375
            -0.375
0.0624999999999999
0.0624999999999999
              -0.5
0.0624999999999999
0.0624999999999999
0.0624999999999999
0.0624999999999999
0.0624999999999999
0.0624999999999999
0.0624999999999999
0.0624999999999999
0.0624999999999999
             -1.25
0.0624999999999999
0.0624999999999999
0.0624999999999999
0.0624999999999999
0.0624999999999999
0.0624999999999999
0.0624999999999999
0.0694444444444444
0.0694444444444444
-0.138888888888889
0.0694444444444444
 0.163036288715636
0.0694444444444444
0.0624999999999999
0.0624999999999999
0.0624999999999999
0.0624999999999999
0.0624999999999999
0.0624999999999999
0.0624999999999999
0.0624999999999999
0.0624999999999999
0.0624999999999999
              -1.5
0.0624999999999999
0.0624999999999999
0.0624999999999999
0.0624999999999999
0.0624999999999999
0.0624999999999999
0.0624999999999999
0.0624999999999999
0.0624999999999999
0.0624999999999999
0.0694444444444444
0.0624999999999999
0.0624999999999999
0.0624999999999999
0.0624999999999999
0.0624999999999999
0.0624999999999999
0.0624999999999999
0.0624999999999999
            -1.375
0.0624999999999999
0.0624999999999999
0.0624999999999999
0.0624999999999999
0.0624999999999999
0.0624999999999999
0.0624999999999999
0.0624999999999999
0.0624999999999999
0.0624999999999999
0.0624999999999999
             -0.75
0.0624999999999999
0.0624999999999999
0.0624999999999999
0.0624999999999999
0.0624999999999999
             -0.75
0.0624999999999999
0.0624999999999999
0.0624999999999999
             -0.75
0.0624999999999999
             -0.75
            -0.125
            -0.125
            -0.125
            -0.125
             0.125
             0.125
             0.125
             0.125
             0.125
             0.125
             0.125
             0.125
             0.125
             0.125
             0.125
  3.72222222222222
             0.125
             0.125
             0.125
             0.125
             0.125
             0.125
             0.125
             0.125
             0.125
             0.125
             0.125
            -0.125
            -0.125
            -0.125
            -0.125
             -0.75
0.0624999999999999
-0.749999999999999
0.0624999999999999
0.0624999999999999
0.0624999999999999
             -0.75
0.0624999999999999
0.0624999999999999
0.0624999999999999
0.0624999999999999
0.0624999999999999
             -0.75
0.0624999999999999
0.0624999999999999
0.0624999999999999
0.0624999999999999
0.0624999999999999
0.0624999999999999
0.0624999999999999
0.0624999999999999
0.0624999999999999
0.0624999999999999
0.0624999999999999
            -1.375
0.0624999999999999
0.0624999999999999
0.0624999999999999
0.0624999999999999
0.0624999999999999
0.0624999999999999
0.0624999999999999
0.0624999999999999
0.0694444444444444
0.0624999999999999
0.0624999999999999
0.0624999999999999
0.0624999999999999
0.0624999999999999
0.0624999999999999
0.0624999999999999
0.0624999999999999
0.0624999999999999
0.0624999999999999
              -1.5
0.0624999999999999
0.0624999999999999
0.0624999999999999
0.0624999999999999
0.0624999999999999
0.0624999999999999
0.0624999999999999
0.0624999999999999
0.0624999999999999
0.0624999999999999
0.0694444444444444
0.0694444444444444
0.0694444444444444
0.0694444444444444
0.0694444444444444
0.0694444444444444
0.0694444444444444
-0.972222222222222
0.0694444444444444
0.0694444444444444
0.0694444444444444
0.0694444444444444
0.0694444444444444
0.0694444444444444
0.0869637112843635
 0.163036288715636
 0.163036288715636
 0.163036288715636
-0.652145154862546
 0.163036288715636
 0.163036288715636
 0.163036288715636
0.0869637112843634
-0.173927422568727
0.0869637112843634
0.0694444444444444
0.0694444444444444
0.0694444444444444
-0.555555555555555
0.0694444444444444
0.0694444444444444
0.0694444444444444
-0.138888888888889
-0.138888888888889
-0.138888888888889
 0.138888888888889
 0.138888888888889
 0.138888888888889
 0.138888888888889
 0.138888888888889
 0.138888888888889
 0.138888888888889
 0.138888888888889
-0.987654320987654
 0.138888888888889
 0.138888888888889
 0.138888888888889
 0.138888888888889
 0.138888888888889
 0.138888888888889
 0.138888888888889
 0.138888888888889
-0.138888888888889
-0.138888888888889
-0.138888888888889
0.0694444444444444
0.0694444444444444
0.0694444444444444
-0.555555555555555
0.0694444444444444
0.0694444444444444
0.0694444444444444
0.0694444444444444
-0.138888888888889
0.0694444444444444
0.0694444444444444
0.0624999999999999
0.0624999999999999
0.0624999999999999
0.0624999999999999
0.0624999999999999
0.0624999999999999
0.0624999999999999
             -1.25
0.0624999999999999
0.0624999999999999
0.0624999999999999
0.0624999999999999
0.0624999999999999
0.0624999999999999
0.0624999999999999
0.0624999999999999
            -0.375
0.0624999999999999
            -0.375
            -0.125
            -0.125
            -0.125
            -0.125
            -0.125
             0.125
             0.125
             0.125
             0.125
             0.125
             0.125
             0.125
  1.47222222222222
             0.125
             0.125
             0.125
             0.125
             0.125
             0.125
             0.125
            -0.125
            -0.125
            -0.125
            -0.125
            -0.125
            -0.375
0.0624999999999999
            -0.375
0.0624999999999999
0.0624999999999999
0.0624999999999999
0.0624999999999999
0.0624999999999999
0.0624999999999999
0.0624999999999999
0.0624999999999999
             -1.25
0.0624999999999999
0.0624999999999999
0.0624999999999999
0.0624999999999999
0.0624999999999999
0.0624999999999999
0.0624999999999999
0.0694444444444444
-0.138888888888889
            -0.125
            -0.125
            -0.125
            -0.125
            -0.125
            -0.125
            -0.125
             0.125
             0.125
             0.125
             0.125
             0.125
             0.125
             0.125
             0.125
 0.472222222222222
             0.125
             0.125
             0.125
             0.125
             0.125
             0.125
             0.125
             0.125
            -0.125
            -0.125
            -0.125
            -0.125
            -0.125
            -0.125
            -0.125
            -0.125
             0.125
             0.125
             0.125
             0.125
             0.125
             0.125
             0.125
             0.125
             0.125
 -1.38888888888889
             0.125
             0.125
             0.125
             0.125
             0.125
             0.125
             0.125
             0.125
             0.125
            -0.125
             0.125
             0.125
             0.125
             0.125
             0.125
             0.125
             0.125
-0.888888888888889
             0.125
             0.125
             0.125
             0.125
             0.125
             0.125
             0.125
             0.125
             0.125
             0.125
             0.125
             0.125
             0.125
 -1.13888888888889
             0.125
             0.125
             0.125
             0.125
             0.125
             0.125
             0.125
             0.125
             0.125
             0.125
             0.125
             0.125
 -1.13888888888889
             0.125
             0.125
             0.125
             0.125
             0.125
             0.125
             0.125
             -1.25
             0.125
             -1.25
                -1
             -1.25
              -1.5
             -1.75
             -1.25
                -1
             -0.75
              -0.5
              -0.5
              -0.5
              0.25
              0.25
              0.25
              0.25
              0.25
              0.25
              0.25
              0.25
              0.25
              0.25
              13.5
              0.25
              0.25
              0.25
              0.25
              0.25
              0.25
              0.25
              0.25
              0.25
              0.25
              -0.5
              -0.5
              -0.5
             -0.75
                -1
             -1.25
             -1.75
              -1.5
             -1.25
                -1
             -1.25
             0.125
             -1.25
             0.125
             0.125
             0.125
             0.125
             0.125
             0.125
             0.125
 -1.13888888888889
             0.125
             0.125
             0.125
             0.125
             0.125
             0.125
             0.125
             0.125
             0.125
             0.125
             0.125
             0.125
 -1.13888888888889
             0.125
             0.125
             0.125
             0.125
             0.125
             0.125
             0.125
             0.125
             0.125
             0.125
             0.125
             0.125
             0.125
-0.888888888888889
             0.125
             0.125
             0.125
             0.125
             0.125
             0.125
             0.125
            -0.125
             0.125
             0.125
             0.125
             0.125
             0.125
             0.125
             0.125
             0.125
             0.125
 -1.38888888888889
             0.125
             0.125
             0.125
             0.125
             0.125
             0.125
             0.125
             0.125
             0.125
            -0.125
            -0.125
            -0.125
            -0.125
            -0.125
            -0.125
            -0.125
            -0.125
             0.125
             0.125
             0.125
             0.125
             0.125
             0.125
             0.125
             0.125
 0.472222222222222
             0.125
             0.125
             0.125
             0.125
             0.125
             0.125
             0.125
             0.125
            -0.125
            -0.125
            -0.125
            -0.125
            -0.125
            -0.125
            -0.125
-0.138888888888889
0.0694444444444444
0.0624999999999999
0.0624999999999999
0.0624999999999999
0.0624999999999999
0.0624999999999999
0.0624999999999999
0.0624999999999999
             -1.25
0.0624999999999999
0.0624999999999999
0.0624999999999999
0.0624999999999999
0.0624999999999999
0.0624999999999999
0.0624999999999999
0.0624999999999999
            -0.375
0.0624999999999999
            -0.375
            -0.125
            -0.125
            -0.125
            -0.125
            -0.125
             0.125
             0.125
             0.125
             0.125
             0.125
             0.125
             0.125
  1.47222222222222
             0.125
             0.125
             0.125
             0.125
             0.125
             0.125
             0.125
            -0.125
            -0.125
            -0.125
            -0.125
            -0.125
            -0.375
0.0624999999999999
            -0.375
0.0624999999999999
0.0624999999999999
0.0624999999999999
0.0624999999999999
0.0624999999999999
0.0624999999999999
0.0624999999999999
0.0624999999999999
             -1.25
0.0624999999999999
0.0624999999999999
0.0624999999999999
0.0624999999999999
0.0624999999999999
0.0624999999999999
0.0624999999999999
0.0694444444444444
0.0694444444444444
-0.138888888888889
0.0694444444444444
 0.163036288715636
-0.326072577431273
 0.163036288715636
 0.173927422568727
-0.138888888888889
 0.138888888888889
 0.138888888888889
 0.138888888888889
 0.138888888888889
 -1.11111111111111
 0.138888888888889
 0.138888888888889
 0.138888888888889
 0.138888888888889
-0.138888888888889
-0.138888888888889
            -0.125
            -0.125
            -0.125
            -0.125
            -0.125
            -0.125
            -0.125
             0.125
             0.125
             0.125
             0.125
             0.125
             0.125
             0.125
             0.125
             0.125
 0.222222222222222
             0.125
             0.125
             0.125
             0.125
             0.125
             0.125
             0.125
             0.125
             0.125
            -0.125
            -0.125
            -0.125
            -0.125
            -0.125
            -0.125
            -0.125
            -0.125
             0.125
             0.125
             0.125
             0.125
             0.125
-0.777777777777777
             0.125
             0.125
             0.125
             0.125
             0.125
            -0.125
             0.125
             0.125
             0.125
             0.125
             0.125
             0.125
 -1.02777777777778
             0.125
             0.125
             0.125
             0.125
             0.125
             0.125
             0.125
             0.125
             0.125
             0.125
             0.125
 -1.38888888888889
             0.125
             0.125
             0.125
             0.125
             0.125
             0.125
             0.125
             0.125
             0.125
 -1.63888888888889
             0.125
             0.125
             0.125
             0.125
             -0.75
             -0.75
             -0.75
             -1.25
             -0.25
              -0.5
              -0.5
              -0.5
              -0.5
              -0.5
              -0.5
              -0.5
              0.25
              0.25
              0.25
              0.25
              0.25
              0.25
              0.25
              0.25
              0.25
              0.25
              0.25
              0.25
  7.05555555555555
              0.25
              0.25
              0.25
              0.25
              0.25
              0.25
              0.25
              0.25
              0.25
              0.25
              0.25
              0.25
              -0.5
              -0.5
              -0.5
              -0.5
              -0.5
              -0.5
              -0.5
             -0.25
             -1.25
             -0.75
             -0.75
             -0.75
             0.125
             0.125
             0.125
             0.125
 -1.63888888888889
             0.125
             0.125
             0.125
             0.125
             0.125
             0.125
             0.125
             0.125
             0.125
 -1.38888888888889
             0.125
             0.125
             0.125
             0.125
             0.125
             0.125
             0.125
             0.125
             0.125
             0.125
             0.125
 -1.02777777777778
             0.125
             0.125
             0.125
             0.125
             0.125
             0.125
            -0.125
             0.125
             0.125
             0.125
             0.125
             0.125
-0.777777777777778
             0.125
             0.125
             0.125
             0.125
             0.125
            -0.125
            -0.125
            -0.125
            -0.125
            -0.125
            -0.125
            -0.125
            -0.125
             0.125
             0.125
             0.125
             0.125
             0.125
             0.125
             0.125
             0.125
             0.125
 0.222222222222222
             0.125
             0.125
             0.125
             0.125
             0.125
             0.125
             0.125
             0.125
             0.125
            -0.125
            -0.125
            -0.125
            -0.125
            -0.125
            -0.125
            -0.125
-0.138888888888889
 0.326072577431273
 0.138888888888889
 0.138888888888889
 0.138888888888889
 0.138888888888889
-0.833333333333333
 0.138888888888889
 0.138888888888889
 0.138888888888889
 0.138888888888889
             0.125
             0.125
             0.125
             0.125
             0.125
             0.125
             0.125
 -1.63888888888889
             0.125
             0.125
             0.125
             0.125
             0.125
             0.125
             0.125
             0.125
             0.125
             0.125
             0.125
             0.125
             0.125
 -1.63888888888889
             0.125
             0.125
             0.125
             0.125
             0.125
             0.125
             0.125
             0.125
             0.125
             0.125
             0.125
 -1.63888888888889
             0.125
             0.125
             0.125
             0.125
             0.125
             0.125
             0.125
             0.125
             0.125
             -1.75
             0.125
             0.125
             0.125
             0.125
             -0.75
             -0.75
             -0.75
             -1.25
              -0.5
              -0.5
              -0.5
              -0.5
              -0.5
              -0.5
              -0.5
              -0.5
              0.25
              0.25
              0.25
              0.25
              0.25
              0.25
              0.25
              0.25
              0.25
              0.25
  10.9444444444444
              0.25
              0.25
              0.25
              0.25
              0.25
              0.25
              0.25
              0.25
              0.25
              0.25
              -0.5
              -0.5
              -0.5
              -0.5
              -0.5
              -0.5
              -0.5
              -0.5
             -1.25
             -0.75
             -0.75
             -0.75
             0.125
             0.125
             0.125
             0.125
             -1.75
             0.125
             0.125
             0.125
             0.125
             0.125
             0.125
             0.125
             0.125
             0.125
 -1.63888888888889
             0.125
             0.125
             0.125
             0.125
             0.125
             0.125
             0.125
             0.125
             0.125
             0.125
             0.125
 -1.63888888888889
             0.125
             0.125
             0.125
             0.125
             0.125
             0.125
             0.125
             0.125
             0.125
             0.125
             0.125
             0.125
             0.125
 -1.63888888888889
             0.125
             0.125
             0.125
             0.125
             0.125
             0.125
             0.125
 0.277777777777778
             0.125
             0.125
              -0.5
             0.125
             0.125
             0.125
             -0.75
             0.125
                -1
             -0.75
             -0.75
             -0.75
             -0.75
             -0.25
             -0.25
             -0.25
             -0.25
             -0.25
              0.25
              0.25
              0.25
              0.25
              0.25
              0.25
              0.25
  6.77777777777778
              0.25
              0.25
              0.25
              0.25
              0.25
              0.25
              0.25
             -0.25
             -0.25
             -0.25
             -0.25
             -0.25
             -0.75
             -0.75
             -0.75
             -0.75
                -1
             0.125
             -0.75
             0.125
             0.125
             0.125
              -0.5
             0.125
             0.125
 0.277777777777778
             0.125
                -1
             0.125
                -1
             -0.75
             -0.75
             -0.75
             -0.75
             -0.25
             -0.25
             -0.25
              0.25
              0.25
              0.25
              0.25
              0.25
              0.25
  6.77777777777778
              0.25
              0.25
              0.25
              0.25
              0.25
              0.25
             -0.25
             -0.25
             -0.25
             -0.75
             -0.75
             -0.75
             -0.75
                -1
             0.125
                -1
             0.125
 0.277777777777778
                -1
             -0.75
             -0.75
             -0.75
             -0.75
             -0.25
             -0.25
              0.25
              0.25
              0.25
              0.25
              0.25
              0.25
              0.25
               6.5
              0.25
              0.25
              0.25
              0.25
              0.25
              0.25
              0.25
             -0.25
             -0.25
             -0.75
             -0.75
             -0.75
             -0.75
                -1
             -0.75
             -0.75
             -0.75
             -0.75
             -0.25
             -0.25
              0.25
              0.25
              0.25
              0.25
              0.25
              0.25
              0.25
  7.72222222222222
              0.25
              0.25
              0.25
              0.25
              0.25
              0.25
              0.25
             -0.25
             -0.25
             -0.75
             -0.75
             -0.75
             -0.75
             -0.25
              0.25
              0.25
              0.25
              0.25
              0.25
              0.25
              0.25
              0.25
              0.25
  1.94444444444444
              0.25
              0.25
              0.25
              0.25
              0.25
              0.25
              0.25
              0.25
              0.25
             -0.25
              0.25
              0.25
              0.25
              0.25
              0.25
              0.25
              0.25
              0.25
              0.25
  1.94444444444444
              0.25
              0.25
              0.25
              0.25
              0.25
              0.25
              0.25
              0.25
              0.25
              0.25
              0.25
              0.25
              0.25
              0.25
              0.25
              0.25
  1.44444444444444
              0.25
              0.25
              0.25
              0.25
              0.25
              0.25
              0.25
              0.25
              0.25
              0.25
              0.25
              0.25
              0.25
  2.44444444444444
              0.25
              0.25
              0.25
              0.25
              0.25
              0.25
              0.25
 0.944444444444444
              0.25
  1.44444444444444
 0.444444444444444
-0.555555555555556
-0.777777777777778
              -2.5
              -1.5
              -0.5
                -3
              -2.5
                -2
              -1.5
              -1.5
              -1.5
              -1.5
              -1.5
              -1.5
              -1.5
                -1
                -1
              -0.5
              -0.5
               0.5
               0.5
               0.5
               0.5
               0.5
               0.5
               0.5
               0.5
               0.5
               0.5
               0.5
 -13.9135802469136
               0.5
               0.5
               0.5
               0.5
               0.5
               0.5
               0.5
               0.5
               0.5
               0.5
               0.5
              -0.5
              -0.5
                -1
                -1
              -1.5
              -1.5
              -1.5
              -1.5
              -1.5
              -1.5
              -1.5
                -2
              -2.5
                -3
              -0.5
              -1.5
              -2.5
-0.777777777777778
-0.555555555555556
 0.444444444444444
  1.44444444444444
              0.25
 0.944444444444444
              0.25
              0.25
              0.25
              0.25
              0.25
              0.25
              0.25
  2.44444444444444
              0.25
              0.25
              0.25
              0.25
              0.25
              0.25
              0.25
              0.25
              0.25
              0.25
              0.25
              0.25
              0.25
  1.44444444444444
              0.25
              0.25
              0.25
              0.25
              0.25
              0.25
              0.25
              0.25
              0.25
              0.25
              0.25
              0.25
              0.25
              0.25
              0.25
              0.25
  1.94444444444444
              0.25
              0.25
              0.25
              0.25
              0.25
              0.25
              0.25
              0.25
              0.25
             -0.25
              0.25
              0.25
              0.25
              0.25
              0.25
              0.25
              0.25
              0.25
              0.25
  1.94444444444444
              0.25
              0.25
              0.25
              0.25
              0.25
              0.25
              0.25
              0.25
              0.25
             -0.25
             -0.75
             -0.75
             -0.75
             -0.75
             -0.25
             -0.25
              0.25
              0.25
              0.25
              0.25
              0.25
              0.25
              0.25
  7.72222222222222
              0.25
              0.25
              0.25
              0.25
              0.25
              0.25
              0.25
             -0.25
             -0.25
             -0.75
             -0.75
             -0.75
             -0.75
                -1
             -0.75
             -0.75
             -0.75
             -0.75
             -0.25
             -0.25
              0.25
              0.25
              0.25
              0.25
              0.25
              0.25
              0.25
               6.5
              0.25
              0.25
              0.25
              0.25
              0.25
              0.25
              0.25
             -0.25
             -0.25
             -0.75
             -0.75
             -0.75
             -0.75
                -1
 0.277777777777778
             0.125
                -1
             0.125
                -1
             -0.75
             -0.75
             -0.75
             -0.75
             -0.25
             -0.25
             -0.25
              0.25
              0.25
              0.25
              0.25
              0.25
              0.25
  6.77777777777778
              0.25
              0.25
              0.25
              0.25
              0.25
              0.25
             -0.25
             -0.25
             -0.25
             -0.75
             -0.75
             -0.75
             -0.75
                -1
             0.125
                -1
             0.125
 0.277777777777778
             0.125
             0.125
              -0.5
             0.125
             0.125
             0.125
             -0.75
             0.125
                -1
             -0.75
             -0.75
             -0.75
             -0.75
             -0.25
             -0.25
             -0.25
             -0.25
             -0.25
              0.25
              0.25
              0.25
              0.25
              0.25
              0.25
              0.25
  6.77777777777778
              0.25
              0.25
              0.25
              0.25
              0.25
              0.25
              0.25
             -0.25
             -0.25
             -0.25
             -0.25
             -0.25
             -0.75
             -0.75
             -0.75
             -0.75
                -1
             0.125
             -0.75
             0.125
             0.125
             0.125
              -0.5
             0.125
             0.125
 0.277777777777778
             0.125
             0.125
             0.125
             0.125
             0.125
             0.125
             0.125
 -1.63888888888889
             0.125
             0.125
             0.125
             0.125
             0.125
             0.125
             0.125
             0.125
             0.125
             0.125
             0.125
             0.125
             0.125
 -1.63888888888889
             0.125
             0.125
             0.125
             0.125
             0.125
             0.125
             0.125
             0.125
             0.125
             0.125
             0.125
 -1.63888888888889
             0.125
             0.125
             0.125
             0.125
             0.125
             0.125
             0.125
             0.125
             0.125
             -1.75
             0.125
             0.125
             0.125
             0.125
             -0.75
             -0.75
             -0.75
             -1.25
              -0.5
              -0.5
              -0.5
              -0.5
              -0.5
              -0.5
              -0.5
              -0.5
              0.25
              0.25
              0.25
              0.25
              0.25
              0.25
              0.25
              0.25
              0.25
              0.25
  10.9444444444444
              0.25
              0.25
              0.25
              0.25
              0.25
              0.25
              0.25
              0.25
              0.25
              0.25
              -0.5
              -0.5
              -0.5
              -0.5
              -0.5
              -0.5
              -0.5
              -0.5
             -1.25
             -0.75
             -0.75
             -0.75
             0.125
             0.125
             0.125
             0.125
             -1.75
             0.125
             0.125
             0.125
             0.125
             0.125
             0.125
             0.125
             0.125
             0.125
 -1.63888888888889
             0.125
             0.125
             0.125
             0.125
             0.125
             0.125
             0.125
             0.125
             0.125
             0.125
             0.125
 -1.63888888888889
             0.125
             0.125
             0.125
             0.125
             0.125
             0.125
             0.125
             0.125
             0.125
             0.125
             0.125
             0.125
             0.125
 -1.63888888888889
             0.125
             0.125
             0.125
             0.125
             0.125
             0.125
             0.125
 0.138888888888889
 0.138888888888889
 0.138888888888889
 0.138888888888889
-0.833333333333333
 0.138888888888889
 0.138888888888889
 0.138888888888889
 0.138888888888889
 0.326072577431273
-0.138888888888889
            -0.125
            -0.125
            -0.125
            -0.125
            -0.125
            -0.125
            -0.125
             0.125
             0.125
             0.125
             0.125
             0.125
             0.125
             0.125
             0.125
             0.125
 0.222222222222222
             0.125
             0.125
             0.125
             0.125
             0.125
             0.125
             0.125
             0.125
             0.125
            -0.125
            -0.125
            -0.125
            -0.125
            -0.125
            -0.125
            -0.125
            -0.125
             0.125
             0.125
             0.125
             0.125
             0.125
-0.777777777777777
             0.125
             0.125
             0.125
             0.125
             0.125
            -0.125
             0.125
             0.125
             0.125
             0.125
             0.125
             0.125
 -1.02777777777778
             0.125
             0.125
             0.125
             0.125
             0.125
             0.125
             0.125
             0.125
             0.125
             0.125
             0.125
 -1.38888888888889
             0.125
             0.125
             0.125
             0.125
             0.125
             0.125
             0.125
             0.125
             0.125
 -1.63888888888889
             0.125
             0.125
             0.125
             0.125
             -0.75
             -0.75
             -0.75
             -1.25
             -0.25
              -0.5
              -0.5
              -0.5
              -0.5
              -0.5
              -0.5
              -0.5
              0.25
              0.25
              0.25
              0.25
              0.25
              0.25
              0.25
              0.25
              0.25
              0.25
              0.25
              0.25
  7.05555555555556
              0.25
              0.25
              0.25
              0.25
              0.25
              0.25
              0.25
              0.25
              0.25
              0.25
              0.25
              0.25
              -0.5
              -0.5
              -0.5
              -0.5
              -0.5
              -0.5
              -0.5
             -0.25
             -1.25
             -0.75
             -0.75
             -0.75
             0.125
             0.125
             0.125
             0.125
 -1.63888888888889
             0.125
             0.125
             0.125
             0.125
             0.125
             0.125
             0.125
             0.125
             0.125
 -1.38888888888889
             0.125
             0.125
             0.125
             0.125
             0.125
             0.125
             0.125
             0.125
             0.125
             0.125
             0.125
 -1.02777777777778
             0.125
             0.125
             0.125
             0.125
             0.125
             0.125
            -0.125
             0.125
             0.125
             0.125
             0.125
             0.125
-0.777777777777778
             0.125
             0.125
             0.125
             0.125
             0.125
            -0.125
            -0.125
            -0.125
            -0.125
            -0.125
            -0.125
            -0.125
            -0.125
             0.125
             0.125
             0.125
             0.125
             0.125
             0.125
             0.125
             0.125
             0.125
 0.222222222222222
             0.125
             0.125
             0.125
             0.125
             0.125
             0.125
             0.125
             0.125
             0.125
            -0.125
            -0.125
            -0.125
            -0.125
            -0.125
            -0.125
            -0.125
-0.138888888888889
-0.138888888888889
 0.138888888888889
 0.138888888888889
 0.138888888888889
 0.138888888888889
 -1.11111111111111
 0.138888888888889
 0.138888888888889
 0.138888888888889
 0.138888888888889
-0.138888888888889
 0.173927422568727
 0.163036288715636
-0.326072577431273
 0.163036288715636
0.0694444444444444
-0.138888888888889
0.0694444444444444
0.0694444444444444
0.0624999999999999
0.0624999999999999
0.0624999999999999
0.0624999999999999
0.0624999999999999
0.0624999999999999
0.0624999999999999
             -1.25
0.0624999999999999
0.0624999999999999
0.0624999999999999
0.0624999999999999
0.0624999999999999
0.0624999999999999
0.0624999999999999
0.0624999999999999
            -0.375
0.0624999999999999
            -0.375
            -0.125
            -0.125
            -0.125
            -0.125
            -0.125
             0.125
             0.125
             0.125
             0.125
             0.125
             0.125
             0.125
  1.47222222222222
             0.125
             0.125
             0.125
             0.125
             0.125
             0.125
             0.125
            -0.125
            -0.125
            -0.125
            -0.125
            -0.125
            -0.375
0.0624999999999999
            -0.375
0.0624999999999999
0.0624999999999999
0.0624999999999999
0.0624999999999999
0.0624999999999999
0.0624999999999999
0.0624999999999999
0.0624999999999999
             -1.25
0.0624999999999999
0.0624999999999999
0.0624999999999999
0.0624999999999999
0.0624999999999999
0.0624999999999999
0.0624999999999999
0.0694444444444444
-0.138888888888889
            -0.125
            -0.125
            -0.125
            -0.125
            -0.125
            -0.125
            -0.125
             0.125
             0.125
             0.125
             0.125
             0.125
             0.125
             0.125
             0.125
 0.472222222222222
             0.125
             0.125
             0.125
             0.125
             0.125
             0.125
             0.125
             0.125
            -0.125
            -0.125
            -0.125
            -0.125
            -0.125
            -0.125
            -0.125
            -0.125
             0.125
             0.125
             0.125
             0.125
             0.125
             0.125
             0.125
             0.125
             0.125
 -1.38888888888889
             0.125
             0.125
             0.125
             0.125
             0.125
             0.125
             0.125
             0.125
             0.125
            -0.125
             0.125
             0.125
             0.125
             0.125
             0.125
             0.125
             0.125
-0.888888888888889
             0.125
             0.125
             0.125
             0.125
             0.125
             0.125
             0.125
             0.125
             0.125
             0.125
             0.125
             0.125
             0.125
 -1.13888888888889
             0.125
             0.125
             0.125
             0.125
             0.125
             0.125
             0.125
             0.125
             0.125
             0.125
             0.125
             0.125
 -1.13888888888889
             0.125
             0.125
             0.125
             0.125
             0.125
             0.125
             0.125
             -1.25
             0.125
             -1.25
                -1
             -1.25
              -1.5
             -1.75
             -1.25
                -1
             -0.75
              -0.5
              -0.5
              -0.5
              0.25
              0.25
              0.25
              0.25
              0.25
              0.25
              0.25
              0.25
              0.25
              0.25
              13.5
              0.25
              0.25
              0.25
              0.25
              0.25
              0.25
              0.25
              0.25
              0.25
              0.25
              -0.5
              -0.5
              -0.5
             -0.75
                -1
             -1.25
             -1.75
              -1.5
             -1.25
                -1
             -1.25
             0.125
             -1.25
             0.125
             0.125
             0.125
             0.125
             0.125
             0.125
             0.125
 -1.13888888888889
             0.125
             0.125
             0.125
             0.125
             0.125
             0.125
             0.125
             0.125
             0.125
             0.125
             0.125
             0.125
 -1.13888888888889
             0.125
             0.125
             0.125
             0.125
             0.125
             0.125
             0.125
             0.125
             0.125
             0.125
             0.125
             0.125
             0.125
-0.888888888888889
             0.125
             0.125
             0.125
             0.125
             0.125
             0.125
             0.125
            -0.125
             0.125
             0.125
             0.125
             0.125
             0.125
             0.125
             0.125
             0.125
             0.125
 -1.38888888888889
             0.125
             0.125
             0.125
             0.125
             0.125
             0.125
             0.125
             0.125
             0.125
            -0.125
            -0.125
            -0.125
            -0.125
            -0.125
            -0.125
            -0.125
            -0.125
             0.125
             0.125
             0.125
             0.125
             0.125
             0.125
             0.125
             0.125
 0.472222222222222
             0.125
             0.125
             0.125
             0.125
             0.125
             0.125
             0.125
             0.125
            -0.125
            -0.125
            -0.125
            -0.125
            -0.125
            -0.125
            -0.125
-0.138888888888889
0.0694444444444444
0.0624999999999999
0.0624999999999999
0.0624999999999999
0.0624999999999999
0.0624999999999999
0.0624999999999999
0.0624999999999999
             -1.25
0.0624999999999999
0.0624999999999999
0.0624999999999999
0.0624999999999999
0.0624999999999999
0.0624999999999999
0.0624999999999999
0.0624999999999999
            -0.375
0.0624999999999999
            -0.375
            -0.125
            -0.125
            -0.125
            -0.125
            -0.125
             0.125
             0.125
             0.125
             0.125
             0.125
             0.125
             0.125
  1.47222222222222
             0.125
             0.125
             0.125
             0.125
             0.125
             0.125
             0.125
            -0.125
            -0.125
            -0.125
            -0.125
            -0.125
            -0.375
0.0624999999999999
            -0.375
0.0624999999999999
0.0624999999999999
0.0624999999999999
0.0624999999999999
0.0624999999999999
0.0624999999999999
0.0624999999999999
0.0624999999999999
             -1.25
0.0624999999999999
0.0624999999999999
0.0624999999999999
0.0624999999999999
0.0624999999999999
0.0624999999999999
0.0624999999999999
0.0694444444444444
0.0694444444444444
-0.138888888888889
0.0694444444444444
0.0694444444444444
0.0694444444444444
0.0694444444444444
-0.555555555555555
0.0694444444444444
0.0694444444444444
0.0694444444444444
-0.138888888888889
-0.138888888888889
-0.138888888888889
 0.138888888888889
 0.138888888888889
 0.138888888888889
 0.138888888888889
 0.138888888888889
 0.138888888888889
 0.138888888888889
 0.138888888888889
-0.987654320987654
 0.138888888888889
 0.138888888888889
 0.138888888888889
 0.138888888888889
 0.138888888888889
 0.138888888888889
 0.138888888888889
 0.138888888888889
-0.138888888888889
-0.138888888888889
-0.138888888888889
0.0694444444444444
0.0694444444444444
0.0694444444444444
-0.555555555555555
0.0694444444444444
0.0694444444444444
0.0694444444444444
0.0869637112843635
-0.173927422568727
0.0869637112843635
 0.163036288715636
 0.163036288715636
 0.163036288715636
-0.652145154862546
 0.163036288715636
 0.163036288715636
 0.163036288715636
0.0869637112843634
0.0694444444444444
0.0694444444444444
0.0694444444444444
0.0694444444444444
0.0694444444444444
0.0694444444444444
-0.972222222222222
0.0694444444444444
0.0694444444444444
0.0694444444444444
0.0694444444444444
0.0694444444444444
0.0694444444444444
0.0694444444444444
0.0624999999999999
0.0624999999999999
0.0624999999999999
0.0624999999999999
0.0624999999999999
0.0624999999999999
0.0624999999999999
0.0624999999999999
0.0624999999999999
0.0624999999999999
              -1.5
0.0624999999999999
0.0624999999999999
0.0624999999999999
0.0624999999999999
0.0624999999999999
0.0624999999999999
0.0624999999999999
0.0624999999999999
0.0624999999999999
0.0624999999999999
0.0694444444444444
0.0624999999999999
0.0624999999999999
0.0624999999999999
0.0624999999999999
0.0624999999999999
0.0624999999999999
0.0624999999999999
0.0624999999999999
            -1.375
0.0624999999999999
0.0624999999999999
0.0624999999999999
0.0624999999999999
0.0624999999999999
0.0624999999999999
0.0624999999999999
0.0624999999999999
0.0624999999999999
0.0624999999999999
0.0624999999999999
             -0.75
0.0624999999999999
0.0624999999999999
0.0624999999999999
0.0624999999999999
0.0624999999999999
             -0.75
0.0624999999999999
0.0624999999999999
0.0624999999999999
             -0.75
0.0624999999999999
             -0.75
            -0.125
            -0.125
            -0.125
            -0.125
             0.125
             0.125
             0.125
             0.125
             0.125
             0.125
             0.125
             0.125
             0.125
             0.125
             0.125
  3.72222222222222
             0.125
             0.125
             0.125
             0.125
             0.125
             0.125
             0.125
             0.125
             0.125
             0.125
             0.125
            -0.125
            -0.125
            -0.125
            -0.125
             -0.75
0.0624999999999999
             -0.75
0.0624999999999999
0.0624999999999999
0.0624999999999999
             -0.75
0.0624999999999999
0.0624999999999999
0.0624999999999999
0.0624999999999999
0.0624999999999999
             -0.75
0.0624999999999999
0.0624999999999999
0.0624999999999999
0.0624999999999999
0.0624999999999999
0.0624999999999999
0.0624999999999999
0.0624999999999999
0.0624999999999999
0.0624999999999999
0.0624999999999999
            -1.375
0.0624999999999999
0.0624999999999999
0.0624999999999999
0.0624999999999999
0.0624999999999999
0.0624999999999999
0.0624999999999999
0.0624999999999999
0.0694444444444444
0.0624999999999999
0.0624999999999999
0.0624999999999999
0.0624999999999999
0.0624999999999999
0.0624999999999999
0.0624999999999999
0.0624999999999999
0.0624999999999999
0.0624999999999999
              -1.5
0.0624999999999999
0.0624999999999999
0.0624999999999999
0.0624999999999999
0.0624999999999999
0.0624999999999999
0.0624999999999999
0.0624999999999999
0.0624999999999999
0.0624999999999999
0.0694444444444444
 0.163036288715636
0.0694444444444444
-0.138888888888889
0.0694444444444444
0.0694444444444444
0.0624999999999999
0.0624999999999999
0.0624999999999999
0.0624999999999999
0.0624999999999999
0.0624999999999999
0.0624999999999999
             -1.25
0.0624999999999999
0.0624999999999999
0.0624999999999999
0.0624999999999999
0.0624999999999999
0.0624999999999999
0.0624999999999999
0.0624999999999999
0.0624999999999999
              -0.5
0.0624999999999999
0.0624999999999999
            -0.375
            -0.375
             -0.25
            -0.125
            -0.125
            -0.125
             0.125
             0.125
             0.125
             0.125
             0.125
             0.125
             0.125
  2.22222222222222
             0.125
             0.125
             0.125
             0.125
             0.125
             0.125
             0.125
            -0.125
            -0.125
            -0.125
             -0.25
            -0.375
            -0.375
0.0624999999999999
0.0624999999999999
              -0.5
0.0624999999999999
0.0624999999999999
0.0624999999999999
0.0624999999999999
0.0624999999999999
0.0624999999999999
0.0624999999999999
0.0624999999999999
0.0624999999999999
             -1.25
0.0624999999999999
0.0624999999999999
0.0624999999999999
0.0624999999999999
0.0624999999999999
0.0624999999999999
0.0624999999999999
0.0694444444444444
-0.138888888888889
             -0.25
             -0.25
             -0.25
            -0.125
            -0.125
            -0.125
            -0.125
             0.125
             0.125
             0.125
             0.125
             0.125
             0.125
             0.125
             0.125
  1.22222222222222
             0.125
             0.125
             0.125
             0.125
             0.125
             0.125
             0.125
             0.125
            -0.125
            -0.125
            -0.125
            -0.125
             -0.25
             -0.25
             -0.25
            -0.125
            -0.125
             0.125
             0.125
             0.125
             0.125
             0.125
             0.125
             0.125
             0.125
             0.125
-0.888888888888889
             0.125
             0.125
             0.125
             0.125
             0.125
             0.125
             0.125
             0.125
             0.125
            -0.125
            -0.125
             0.125
             0.125
             0.125
             0.125
             0.125
             0.125
             0.125
             0.125
             0.125
 -1.13888888888889
             0.125
             0.125
             0.125
             0.125
             0.125
             0.125
             0.125
             0.125
             0.125
             0.125
             0.125
             0.125
             0.125
             0.125
             0.125
             0.125
-0.638888888888889
             0.125
             0.125
             0.125
             0.125
             0.125
             0.125
             0.125
             0.125
             0.125
             0.125
             0.125
             0.125
             0.125
-0.888888888888889
             0.125
             0.125
             0.125
             0.125
             0.125
             0.125
             0.125
             -1.25
             0.125
             -1.25
                -1
             -1.25
              -1.5
             -1.75
              -1.5
             -1.25
             -1.25
              -0.5
              -0.5
              -0.5
              0.25
              0.25
              0.25
              0.25
              0.25
              0.25
              0.25
              0.25
              0.25
              0.25
              12.5
              0.25
              0.25
              0.25
              0.25
              0.25
              0.25
              0.25
              0.25
              0.25
              0.25
              -0.5
              -0.5
              -0.5
             -1.25
             -1.25
              -1.5
             -1.75
              -1.5
             -1.25
                -1
             -1.25
             0.125
             -1.25
             0.125
             0.125
             0.125
             0.125
             0.125
             0.125
             0.125
-0.888888888888889
             0.125
             0.125
             0.125
             0.125
             0.125
             0.125
             0.125
             0.125
             0.125
             0.125
             0.125
             0.125
             0.125
-0.638888888888889
             0.125
             0.125
             0.125
             0.125
             0.125
             0.125
             0.125
             0.125
             0.125
             0.125
             0.125
             0.125
             0.125
             0.125
             0.125
             0.125
 -1.13888888888889
             0.125
             0.125
             0.125
             0.125
             0.125
             0.125
             0.125
             0.125
             0.125
            -0.125
            -0.125
             0.125
             0.125
             0.125
             0.125
             0.125
             0.125
             0.125
             0.125
             0.125
-0.888888888888889
             0.125
             0.125
             0.125
             0.125
             0.125
             0.125
             0.125
             0.125
             0.125
            -0.125
            -0.125
             -0.25
             -0.25
             -0.25
            -0.125
            -0.125
            -0.125
            -0.125
             0.125
             0.125
             0.125
             0.125
             0.125
             0.125
             0.125
             0.125
  1.22222222222222
             0.125
             0.125
             0.125
             0.125
             0.125
             0.125
             0.125
             0.125
            -0.125
            -0.125
            -0.125
            -0.125
             -0.25
             -0.25
             -0.25
-0.138888888888889
0.0694444444444444
0.0624999999999999
0.0624999999999999
0.0624999999999999
0.0624999999999999
0.0624999999999999
0.0624999999999999
0.0624999999999999
             -1.25
0.0624999999999999
0.0624999999999999
0.0624999999999999
0.0624999999999999
0.0624999999999999
0.0624999999999999
0.0624999999999999
0.0624999999999999
0.0624999999999999
              -0.5
0.0624999999999999
0.0624999999999999
            -0.375
            -0.375
             -0.25
            -0.125
            -0.125
            -0.125
             0.125
             0.125
             0.125
             0.125
             0.125
             0.125
             0.125
  2.22222222222222
             0.125
             0.125
             0.125
             0.125
             0.125
             0.125
             0.125
            -0.125
            -0.125
            -0.125
             -0.25
            -0.375
            -0.375
0.0624999999999999
0.0624999999999999
              -0.5
0.0624999999999999
0.0624999999999999
0.0624999999999999
0.0624999999999999
0.0624999999999999
0.0624999999999999
0.0624999999999999
0.0624999999999999
0.0624999999999999
             -1.25
0.0624999999999999
0.0624999999999999
0.0624999999999999
0.0624999999999999
0.0624999999999999
0.0624999999999999
0.0624999999999999
0.0694444444444444
0.0694444444444444
-0.138888888888889
0.0694444444444444
 0.163036288715636
0.0694444444444444
0.0624999999999999
0.0624999999999999
0.0624999999999999
0.0624999999999999
0.0624999999999999
0.0624999999999999
0.0624999999999999
0.0624999999999999
0.0624999999999999
0.0624999999999999
              -1.5
0.0624999999999999
0.0624999999999999
0.0624999999999999
0.0624999999999999
0.0624999999999999
0.0624999999999999
0.0624999999999999
0.0624999999999999
0.0624999999999999
0.0624999999999999
0.0694444444444444
0.0624999999999999
0.0624999999999999
0.0624999999999999
0.0624999999999999
0.0624999999999999
0.0624999999999999
0.0624999999999999
0.0624999999999999
            -1.375
0.0624999999999999
0.0624999999999999
0.0624999999999999
0.0624999999999999
0.0624999999999999
0.0624999999999999
0.0624999999999999
0.0624999999999999
0.0624999999999999
0.0624999999999999
0.0624999999999999
             -0.75
0.0624999999999999
0.0624999999999999
0.0624999999999999
0.0624999999999999
0.0624999999999999
             -0.75
0.0624999999999999
0.0624999999999999
0.0624999999999999
             -0.75
0.0624999999999999
             -0.75
            -0.125
            -0.125
            -0.125
            -0.125
             0.125
             0.125
             0.125
             0.125
             0.125
             0.125
             0.125
             0.125
             0.125
             0.125
             0.125
  3.72222222222222
             0.125
             0.125
             0.125
             0.125
             0.125
             0.125
             0.125
             0.125
             0.125
             0.125
             0.125
            -0.125
            -0.125
            -0.125
            -0.125
-0.749999999999999
0.0624999999999999
             -0.75
0.0624999999999999
0.0624999999999999
0.0624999999999999
             -0.75
0.0624999999999999
0.0624999999999999
0.0624999999999999
0.0624999999999999
0.0624999999999999
             -0.75
0.0624999999999999
0.0624999999999999
0.0624999999999999
0.0624999999999999
0.0624999999999999
0.0624999999999999
0.0624999999999999
0.0624999999999999
0.0624999999999999
0.0624999999999999
0.0624999999999999
            -1.375
0.0624999999999999
0.0624999999999999
0.0624999999999999
0.0624999999999999
0.0624999999999999
0.0624999999999999
0.0624999999999999
0.0624999999999999
0.0694444444444444
0.0624999999999999
0.0624999999999999
0.0624999999999999
0.0624999999999999
0.0624999999999999
0.0624999999999999
0.0624999999999999
0.0624999999999999
0.0624999999999999
0.0624999999999999
              -1.5
0.0624999999999999
0.0624999999999999
0.0624999999999999
0.0624999999999999
0.0624999999999999
0.0624999999999999
0.0624999999999999
0.0624999999999999
0.0624999999999999
0.0624999999999999
0.0694444444444444
0.0694444444444444
0.0694444444444444
0.0694444444444444
0.0694444444444444
0.0694444444444444
0.0694444444444444
-0.972222222222222
0.0694444444444444
0.0694444444444444
0.0694444444444444
0.0694444444444444
0.0694444444444444
0.0694444444444444
0.0869637112843635
0.0771604938271604
0.0694444444444444
0.0694444444444444
0.0694444444444444
0.0694444444444444
0.0694444444444444
0.0694444444444444
-0.972222222222222
0.0694444444444444
0.0694444444444444
0.0694444444444444
0.0694444444444444
0.0694444444444444
0.0694444444444444
0.0694444444444444
0.0694444444444444
0.0694444444444444
0.0694444444444444
0.0694444444444444
-0.833333333333333
0.0694444444444444
0.0694444444444444
0.0694444444444444
0.0694444444444444
0.0694444444444444
0.0694444444444444
0.0694444444444444
0.0694444444444444
-0.694444444444444
0.0694444444444444
0.0694444444444444
0.0694444444444444
-0.277777777777778
-0.277777777777778
-0.277777777777778
-0.138888888888889
 0.138888888888889
 0.138888888888889
 0.138888888888889
 0.138888888888889
 0.138888888888889
 0.138888888888889
 0.138888888888889
 0.138888888888889
 0.138888888888889
 0.401234567901234
 0.138888888888889
 0.138888888888889
 0.138888888888889
 0.138888888888889
 0.138888888888889
 0.138888888888889
 0.138888888888889
 0.138888888888889
 0.138888888888889
-0.138888888888889
-0.277777777777778
-0.277777777777778
-0.277777777777778
0.0694444444444444
0.0694444444444444
0.0694444444444444
-0.694444444444444
0.0694444444444444
0.0694444444444444
0.0694444444444444
0.0694444444444444
0.0694444444444444
0.0694444444444444
0.0694444444444444
0.0694444444444444
-0.833333333333333
0.0694444444444444
0.0694444444444444
0.0694444444444444
0.0694444444444444
0.0694444444444444
0.0694444444444444
0.0694444444444444
0.0694444444444444
0.0694444444444444
0.0694444444444444
0.0694444444444444
-0.972222222222222
0.0694444444444444
0.0694444444444444
0.0694444444444444
0.0694444444444444
0.0694444444444444
0.0694444444444444
0.0771604938271604
0.0869637112843635
0.0869637112843635
0.0869637112843635
-0.347854845137454
0.0869637112843635
0.0869637112843635
0.0869637112843635
