0.0869637
0.0869637
0.0869637
-0.347855
0.0869637
0.0869637
0.0869637
0.0771605
0.0694444
0.0694444
0.0694444
0.0694444
0.0694444
0.0694444
-0.972222
0.0694444
0.0694444
0.0694444
0.0694444
0.0694444
0.0694444
0.0694444
0.0694444
0.0694444
0.0694444
0.0694444
-0.833333
0.0694444
0.0694444
0.0694444
0.0694444
0.0694444
0.0694444
0.0694444
0.0694444
-0.694444
0.0694444
0.0694444
0.0694444
-0.277778
-0.277778
-0.277778
-0.138889
 0.138889
 0.138889
 0.138889
 0.138889
 0.138889
 0.138889
 0.138889
 0.138889
 0.138889
 0.401235
 0.138889
 0.138889
 0.138889
 0.138889
 0.138889
 0.138889
 0.138889
 0.138889
 0.138889
-0.138889
-0.277778
-0.277778
-0.277778
0.0694444
0.0694444
0.0694444
-0.694444
0.0694444
0.0694444
0.0694444
0.0694444
0.0694444
0.0694444
0.0694444
0.0694444
-0.833333
0.0694444
0.0694444
0.0694444
0.0694444
0.0694444
0.0694444
0.0694444
0.0694444
0.0694444
0.0694444
0.0694444
-0.972222
0.0694444
0.0694444
0.0694444
0.0694444
0.0694444
0.0694444
0.0771605
0.0869637
0.0694444
0.0694444
0.0694444
0.0694444
0.0694444
0.0694444
-0.972222
0.0694444
0.0694444
0.0694444
0.0694444
0.0694444
0.0694444
0.0694444
   0.0625
   0.0625
   0.0625
   0.0625
   0.0625
   0.0625
   0.0625
   0.0625
   0.0625
   0.0625
     -1.5
   0.0625
   0.0625
   0.0625
   0.0625
   0.0625
   0.0625
   0.0625
   0.0625
   0.0625
   0.0625
0.0694444
   0.0625
   0.0625
   0.0625
   0.0625
   0.0625
   0.0625
   0.0625
   0.0625
   -1.375
   0.0625
   0.0625
   0.0625
   0.0625
   0.0625
   0.0625
   0.0625
   0.0625
   0.0625
   0.0625
   0.0625
    -0.75
   0.0625
   0.0625
   0.0625
   0.0625
   0.0625
    -0.75
   0.0625
   0.0625
   0.0625
    -0.75
   0.0625
    -0.75
   -0.125
   -0.125
   -0.125
   -0.125
    0.125
    0.125
    0.125
    0.125
    0.125
    0.125
    0.125
    0.125
    0.125
    0.125
    0.125
  3.72222
    0.125
    0.125
    0.125
    0.125
    0.125
    0.125
    0.125
    0.125
    0.125
    0.125
    0.125
   -0.125
   -0.125
   -0.125
   -0.125
    -0.75
   0.0625
    -0.75
   0.0625
   0.0625
   0.0625
    -0.75
   0.0625
   0.0625
   0.0625
   0.0625
   0.0625
    -0.75
   0.0625
   0.0625
   0.0625
   0.0625
   0.0625
   0.0625
   0.0625
   0.0625
   0.0625
   0.0625
   0.0625
   -1.375
   0.0625
   0.0625
   0.0625
   0.0625
   0.0625
   0.0625
   0.0625
   0.0625
0.0694444
   0.0625
   0.0625
   0.0625
   0.0625
   0.0625
   0.0625
   0.0625
   0.0625
   0.0625
   0.0625
     -1.5
   0.0625
   0.0625
   0.0625
   0.0625
   0.0625
   0.0625
   0.0625
   0.0625
   0.0625
   0.0625
0.0694444
 0.163036
0.0694444
-0.138889
0.0694444
0.0694444
   0.0625
   0.0625
   0.0625
   0.0625
   0.0625
   0.0625
   0.0625
    -1.25
   0.0625
   0.0625
   0.0625
   0.0625
   0.0625
   0.0625
   0.0625
   0.0625
   0.0625
     -0.5
   0.0625
   0.0625
   -0.375
   -0.375
    -0.25
   -0.125
   -0.125
   -0.125
    0.125
    0.125
    0.125
    0.125
    0.125
    0.125
    0.125
  2.22222
    0.125
    0.125
    0.125
    0.125
    0.125
    0.125
    0.125
   -0.125
   -0.125
   -0.125
    -0.25
   -0.375
   -0.375
   0.0625
   0.0625
     -0.5
   0.0625
   0.0625
   0.0625
   0.0625
   0.0625
   0.0625
   0.0625
   0.0625
   0.0625
    -1.25
   0.0625
   0.0625
   0.0625
   0.0625
   0.0625
   0.0625
   0.0625
0.0694444
-0.138889
    -0.25
    -0.25
    -0.25
   -0.125
   -0.125
   -0.125
   -0.125
    0.125
    0.125
    0.125
    0.125
    0.125
    0.125
    0.125
    0.125
  1.22222
    0.125
    0.125
    0.125
    0.125
    0.125
    0.125
    0.125
    0.125
   -0.125
   -0.125
   -0.125
   -0.125
    -0.25
    -0.25
    -0.25
   -0.125
   -0.125
    0.125
    0.125
    0.125
    0.125
    0.125
    0.125
    0.125
    0.125
    0.125
-0.888889
    0.125
    0.125
    0.125
    0.125
    0.125
    0.125
    0.125
    0.125
    0.125
   -0.125
   -0.125
    0.125
    0.125
    0.125
    0.125
    0.125
    0.125
    0.125
    0.125
    0.125
 -1.13889
    0.125
    0.125
    0.125
    0.125
    0.125
    0.125
    0.125
    0.125
    0.125
    0.125
    0.125
    0.125
    0.125
    0.125
    0.125
    0.125
-0.638889
    0.125
    0.125
    0.125
    0.125
    0.125
    0.125
    0.125
    0.125
    0.125
    0.125
    0.125
    0.125
    0.125
-0.888889
    0.125
    0.125
    0.125
    0.125
    0.125
    0.125
    0.125
    -1.25
    0.125
    -1.25
       -1
    -1.25
     -1.5
    -1.75
     -1.5
    -1.25
    -1.25
     -0.5
     -0.5
     -0.5
     0.25
     0.25
     0.25
     0.25
     0.25
     0.25
     0.25
     0.25
     0.25
     0.25
     12.5
     0.25
     0.25
     0.25
     0.25
     0.25
     0.25
     0.25
     0.25
     0.25
     0.25
     -0.5
     -0.5
     -0.5
    -1.25
    -1.25
     -1.5
    -1.75
     -1.5
    -1.25
       -1
    -1.25
    0.125
    -1.25
    0.125
    0.125
    0.125
    0.125
    0.125
    0.125
    0.125
-0.888889
    0.125
    0.125
    0.125
    0.125
    0.125
    0.125
    0.125
    0.125
    0.125
    0.125
    0.125
    0.125
    0.125
-0.638889
    0.125
    0.125
    0.125
    0.125
    0.125
    0.125
    0.125
    0.125
    0.125
    0.125
    0.125
    0.125
    0.125
    0.125
    0.125
    0.125
 -1.13889
    0.125
    0.125
    0.125
    0.125
    0.125
    0.125
    0.125
    0.125
    0.125
   -0.125
   -0.125
    0.125
    0.125
    0.125
    0.125
    0.125
    0.125
    0.125
    0.125
    0.125
-0.888889
    0.125
    0.125
    0.125
    0.125
    0.125
    0.125
    0.125
    0.125
    0.125
   -0.125
   -0.125
    -0.25
    -0.25
    -0.25
   -0.125
   -0.125
   -0.125
   -0.125
    0.125
    0.125
    0.125
    0.125
    0.125
    0.125
    0.125
    0.125
  1.22222
    0.125
    0.125
    0.125
    0.125
    0.125
    0.125
    0.125
    0.125
   -0.125
   -0.125
   -0.125
   -0.125
    -0.25
    -0.25
    -0.25
-0.138889
0.0694444
   0.0625
   0.0625
   0.0625
   0.0625
   0.0625
   0.0625
   0.0625
    -1.25
   0.0625
   0.0625
   0.0625
   0.0625
   0.0625
   0.0625
   0.0625
   0.0625
   0.0625
     -0.5
   0.0625
   0.0625
   -0.375
   -0.375
    -0.25
   -0.125
   -0.125
   -0.125
    0.125
    0.125
    0.125
    0.125
    0.125
    0.125
    0.125
  2.22222
    0.125
    0.125
    0.125
    0.125
    0.125
    0.125
    0.125
   -0.125
   -0.125
   -0.125
    -0.25
   -0.375
   -0.375
   0.0625
   0.0625
     -0.5
   0.0625
   0.0625
   0.0625
   0.0625
   0.0625
   0.0625
   0.0625
   0.0625
   0.0625
    -1.25
   0.0625
   0.0625
   0.0625
   0.0625
   0.0625
   0.0625
   0.0625
0.0694444
0.0694444
-0.138889
0.0694444
 0.163036
0.0694444
   0.0625
   0.0625
   0.0625
   0.0625
   0.0625
   0.0625
   0.0625
   0.0625
   0.0625
   0.0625
     -1.5
   0.0625
   0.0625
   0.0625
   0.0625
   0.0625
   0.0625
   0.0625
   0.0625
   0.0625
   0.0625
0.0694444
   0.0625
   0.0625
   0.0625
   0.0625
   0.0625
   0.0625
   0.0625
   0.0625
   -1.375
   0.0625
   0.0625
   0.0625
   0.0625
   0.0625
   0.0625
   0.0625
   0.0625
   0.0625
   0.0625
   0.0625
    -0.75
   0.0625
   0.0625
   0.0625
   0.0625
   0.0625
    -0.75
   0.0625
   0.0625
   0.0625
    -0.75
   0.0625
    -0.75
   -0.125
   -0.125
   -0.125
   -0.125
    0.125
    0.125
    0.125
    0.125
    0.125
    0.125
    0.125
    0.125
    0.125
    0.125
    0.125
  3.72222
    0.125
    0.125
    0.125
    0.125
    0.125
    0.125
    0.125
    0.125
    0.125
    0.125
    0.125
   -0.125
   -0.125
   -0.125
   -0.125
    -0.75
   0.0625
    -0.75
   0.0625
   0.0625
   0.0625
    -0.75
   0.0625
   0.0625
   0.0625
   0.0625
   0.0625
    -0.75
   0.0625
   0.0625
   0.0625
   0.0625
   0.0625
   0.0625
   0.0625
   0.0625
   0.0625
   0.0625
   0.0625
   -1.375
   0.0625
   0.0625
   0.0625
   0.0625
   0.0625
   0.0625
   0.0625
   0.0625
0.0694444
   0.0625
   0.0625
   0.0625
   0.0625
   0.0625
   0.0625
   0.0625
   0.0625
   0.0625
   0.0625
     -1.5
   0.0625
   0.0625
   0.0625
   0.0625
   0.0625
   0.0625
   0.0625
   0.0625
   0.0625
   0.0625
0.0694444
0.0694444
0.0694444
0.0694444
0.0694444
0.0694444
0.0694444
-0.972222
0.0694444
0.0694444
0.0694444
0.0694444
0.0694444
0.0694444
0.0869637
 0.163036
 0.163036
 0.163036
-0.652145
 0.163036
 0.163036
 0.163036
0.0869637
-0.173927
0.0869637
0.0694444
0.0694444
0.0694444
-0.555556
0.0694444
0.0694444
0.0694444
-0.138889
-0.138889
-0.138889
 0.138889
 0.138889
 0.138889
 0.138889
 0.138889
 0.138889
 0.138889
 0.138889
-0.987654
 0.138889
 0.138889
 0.138889
 0.138889
 0.138889
 0.138889
 0.138889
 0.138889
-0.138889
-0.138889
-0.138889
0.0694444
0.0694444
0.0694444
-0.555556
0.0694444
0.0694444
0.0694444
0.0694444
-0.138889
0.0694444
0.0694444
   0.0625
   0.0625
   0.0625
   0.0625
   0.0625
   0.0625
   0.0625
    -1.25
   0.0625
   0.0625
   0.0625
   0.0625
   0.0625
   0.0625
   0.0625
   0.0625
   -0.375
   0.0625
   -0.375
   -0.125
   -0.125
   -0.125
   -0.125
   -0.125
    0.125
    0.125
    0.125
    0.125
    0.125
    0.125
    0.125
  1.47222
    0.125
    0.125
    0.125
    0.125
    0.125
    0.125
    0.125
   -0.125
   -0.125
   -0.125
   -0.125
   -0.125
   -0.375
   0.0625
   -0.375
   0.0625
   0.0625
   0.0625
   0.0625
   0.0625
   0.0625
   0.0625
   0.0625
    -1.25
   0.0625
   0.0625
   0.0625
   0.0625
   0.0625
   0.0625
   0.0625
0.0694444
-0.138889
   -0.125
   -0.125
   -0.125
   -0.125
   -0.125
   -0.125
   -0.125
    0.125
    0.125
    0.125
    0.125
    0.125
    0.125
    0.125
    0.125
 0.472222
    0.125
    0.125
    0.125
    0.125
    0.125
    0.125
    0.125
    0.125
   -0.125
   -0.125
   -0.125
   -0.125
   -0.125
   -0.125
   -0.125
   -0.125
    0.125
    0.125
    0.125
    0.125
    0.125
    0.125
    0.125
    0.125
    0.125
 -1.38889
    0.125
    0.125
    0.125
    0.125
    0.125
    0.125
    0.125
    0.125
    0.125
   -0.125
    0.125
    0.125
    0.125
    0.125
    0.125
    0.125
    0.125
-0.888889
    0.125
    0.125
    0.125
    0.125
    0.125
    0.125
    0.125
    0.125
    0.125
    0.125
    0.125
    0.125
    0.125
 -1.13889
    0.125
    0.125
    0.125
    0.125
    0.125
    0.125
    0.125
    0.125
    0.125
    0.125
    0.125
    0.125
 -1.13889
    0.125
    0.125
    0.125
    0.125
    0.125
    0.125
    0.125
    -1.25
    0.125
    -1.25
       -1
    -1.25
     -1.5
    -1.75
    -1.25
       -1
    -0.75
     -0.5
     -0.5
     -0.5
     0.25
     0.25
     0.25
     0.25
     0.25
     0.25
     0.25
     0.25
     0.25
     0.25
     13.5
     0.25
     0.25
     0.25
     0.25
     0.25
     0.25
     0.25
     0.25
     0.25
     0.25
     -0.5
     -0.5
     -0.5
    -0.75
       -1
    -1.25
    -1.75
     -1.5
    -1.25
       -1
    -1.25
    0.125
    -1.25
    0.125
    0.125
    0.125
    0.125
    0.125
    0.125
    0.125
 -1.13889
    0.125
    0.125
    0.125
    0.125
    0.125
    0.125
    0.125
    0.125
    0.125
    0.125
    0.125
    0.125
 -1.13889
    0.125
    0.125
    0.125
    0.125
    0.125
    0.125
    0.125
    0.125
    0.125
    0.125
    0.125
    0.125
    0.125
-0.888889
    0.125
    0.125
    0.125
    0.125
    0.125
    0.125
    0.125
   -0.125
    0.125
    0.125
    0.125
    0.125
    0.125
    0.125
    0.125
    0.125
    0.125
 -1.38889
    0.125
    0.125
    0.125
    0.125
    0.125
    0.125
    0.125
    0.125
    0.125
   -0.125
   -0.125
   -0.125
   -0.125
   -0.125
   -0.125
   -0.125
   -0.125
    0.125
    0.125
    0.125
    0.125
    0.125
    0.125
    0.125
    0.125
 0.472222
    0.125
    0.125
    0.125
    0.125
    0.125
    0.125
    0.125
    0.125
   -0.125
   -0.125
   -0.125
   -0.125
   -0.125
   -0.125
   -0.125
-0.138889
0.0694444
   0.0625
   0.0625
   0.0625
   0.0625
   0.0625
   0.0625
   0.0625
    -1.25
   0.0625
   0.0625
   0.0625
   0.0625
   0.0625
   0.0625
   0.0625
   0.0625
   -0.375
   0.0625
   -0.375
   -0.125
   -0.125
   -0.125
   -0.125
   -0.125
    0.125
    0.125
    0.125
    0.125
    0.125
    0.125
    0.125
  1.47222
    0.125
    0.125
    0.125
    0.125
    0.125
    0.125
    0.125
   -0.125
   -0.125
   -0.125
   -0.125
   -0.125
   -0.375
   0.0625
   -0.375
   0.0625
   0.0625
   0.0625
   0.0625
   0.0625
   0.0625
   0.0625
   0.0625
    -1.25
   0.0625
   0.0625
   0.0625
   0.0625
   0.0625
   0.0625
   0.0625
0.0694444
0.0694444
-0.138889
0.0694444
 0.163036
-0.326073
 0.163036
 0.173927
-0.138889
 0.138889
 0.138889
 0.138889
 0.138889
 -1.11111
 0.138889
 0.138889
 0.138889
 0.138889
-0.138889
-0.138889
   -0.125
   -0.125
   -0.125
   -0.125
   -0.125
   -0.125
   -0.125
    0.125
    0.125
    0.125
    0.125
    0.125
    0.125
    0.125
    0.125
    0.125
 0.222222
    0.125
    0.125
    0.125
    0.125
    0.125
    0.125
    0.125
    0.125
    0.125
   -0.125
   -0.125
   -0.125
   -0.125
   -0.125
   -0.125
   -0.125
   -0.125
    0.125
    0.125
    0.125
    0.125
    0.125
-0.777778
    0.125
    0.125
    0.125
    0.125
    0.125
   -0.125
    0.125
    0.125
    0.125
    0.125
    0.125
    0.125
 -1.02778
    0.125
    0.125
    0.125
    0.125
    0.125
    0.125
    0.125
    0.125
    0.125
    0.125
    0.125
 -1.38889
    0.125
    0.125
    0.125
    0.125
    0.125
    0.125
    0.125
    0.125
    0.125
 -1.63889
    0.125
    0.125
    0.125
    0.125
    -0.75
    -0.75
    -0.75
    -1.25
    -0.25
     -0.5
     -0.5
     -0.5
     -0.5
     -0.5
     -0.5
     -0.5
     0.25
     0.25
     0.25
     0.25
     0.25
     0.25
     0.25
     0.25
     0.25
     0.25
     0.25
     0.25
  7.05556
     0.25
     0.25
     0.25
     0.25
     0.25
     0.25
     0.25
     0.25
     0.25
     0.25
     0.25
     0.25
     -0.5
     -0.5
     -0.5
     -0.5
     -0.5
     -0.5
     -0.5
    -0.25
    -1.25
    -0.75
    -0.75
    -0.75
    0.125
    0.125
    0.125
    0.125
 -1.63889
    0.125
    0.125
    0.125
    0.125
    0.125
    0.125
    0.125
    0.125
    0.125
 -1.38889
    0.125
    0.125
    0.125
    0.125
    0.125
    0.125
    0.125
    0.125
    0.125
    0.125
    0.125
 -1.02778
    0.125
    0.125
    0.125
    0.125
    0.125
    0.125
   -0.125
    0.125
    0.125
    0.125
    0.125
    0.125
-0.777778
    0.125
    0.125
    0.125
    0.125
    0.125
   -0.125
   -0.125
   -0.125
   -0.125
   -0.125
   -0.125
   -0.125
   -0.125
    0.125
    0.125
    0.125
    0.125
    0.125
    0.125
    0.125
    0.125
    0.125
 0.222222
    0.125
    0.125
    0.125
    0.125
    0.125
    0.125
    0.125
    0.125
    0.125
   -0.125
   -0.125
   -0.125
   -0.125
   -0.125
   -0.125
   -0.125
-0.138889
 0.326073
 0.138889
 0.138889
 0.138889
 0.138889
-0.833333
 0.138889
 0.138889
 0.138889
 0.138889
    0.125
    0.125
    0.125
    0.125
    0.125
    0.125
    0.125
 -1.63889
    0.125
    0.125
    0.125
    0.125
    0.125
    0.125
    0.125
    0.125
    0.125
    0.125
    0.125
    0.125
    0.125
 -1.63889
    0.125
    0.125
    0.125
    0.125
    0.125
    0.125
    0.125
    0.125
    0.125
    0.125
    0.125
 -1.63889
    0.125
    0.125
    0.125
    0.125
    0.125
    0.125
    0.125
    0.125
    0.125
    -1.75
    0.125
    0.125
    0.125
    0.125
    -0.75
    -0.75
    -0.75
    -1.25
     -0.5
     -0.5
     -0.5
     -0.5
     -0.5
     -0.5
     -0.5
     -0.5
     0.25
     0.25
     0.25
     0.25
     0.25
     0.25
     0.25
     0.25
     0.25
     0.25
  10.9444
     0.25
     0.25
     0.25
     0.25
     0.25
     0.25
     0.25
     0.25
     0.25
     0.25
     -0.5
     -0.5
     -0.5
     -0.5
     -0.5
     -0.5
     -0.5
     -0.5
    -1.25
    -0.75
    -0.75
    -0.75
    0.125
    0.125
    0.125
    0.125
    -1.75
    0.125
    0.125
    0.125
    0.125
    0.125
    0.125
    0.125
    0.125
    0.125
 -1.63889
    0.125
    0.125
    0.125
    0.125
    0.125
    0.125
    0.125
    0.125
    0.125
    0.125
    0.125
 -1.63889
    0.125
    0.125
    0.125
    0.125
    0.125
    0.125
    0.125
    0.125
    0.125
    0.125
    0.125
    0.125
    0.125
 -1.63889
    0.125
    0.125
    0.125
    0.125
    0.125
    0.125
    0.125
 0.277778
    0.125
    0.125
     -0.5
    0.125
    0.125
    0.125
    -0.75
    0.125
       -1
    -0.75
    -0.75
    -0.75
    -0.75
    -0.25
    -0.25
    -0.25
    -0.25
    -0.25
     0.25
     0.25
     0.25
     0.25
     0.25
     0.25
     0.25
  6.77778
     0.25
     0.25
     0.25
     0.25
     0.25
     0.25
     0.25
    -0.25
    -0.25
    -0.25
    -0.25
    -0.25
    -0.75
    -0.75
    -0.75
    -0.75
       -1
    0.125
    -0.75
    0.125
    0.125
    0.125
     -0.5
    0.125
    0.125
 0.277778
    0.125
       -1
    0.125
       -1
    -0.75
    -0.75
    -0.75
    -0.75
    -0.25
    -0.25
    -0.25
     0.25
     0.25
     0.25
     0.25
     0.25
     0.25
  6.77778
     0.25
     0.25
     0.25
     0.25
     0.25
     0.25
    -0.25
    -0.25
    -0.25
    -0.75
    -0.75
    -0.75
    -0.75
       -1
    0.125
       -1
    0.125
 0.277778
       -1
    -0.75
    -0.75
    -0.75
    -0.75
    -0.25
    -0.25
     0.25
     0.25
     0.25
     0.25
     0.25
     0.25
     0.25
      6.5
     0.25
     0.25
     0.25
     0.25
     0.25
     0.25
     0.25
    -0.25
    -0.25
    -0.75
    -0.75
    -0.75
    -0.75
       -1
    -0.75
    -0.75
    -0.75
    -0.75
    -0.25
    -0.25
     0.25
     0.25
     0.25
     0.25
     0.25
     0.25
     0.25
  7.72222
     0.25
     0.25
     0.25
     0.25
     0.25
     0.25
     0.25
    -0.25
    -0.25
    -0.75
    -0.75
    -0.75
    -0.75
    -0.25
     0.25
     0.25
     0.25
     0.25
     0.25
     0.25
     0.25
     0.25
     0.25
  1.94444
     0.25
     0.25
     0.25
     0.25
     0.25
     0.25
     0.25
     0.25
     0.25
    -0.25
     0.25
     0.25
     0.25
     0.25
     0.25
     0.25
     0.25
     0.25
     0.25
  1.94444
     0.25
     0.25
     0.25
     0.25
     0.25
     0.25
     0.25
     0.25
     0.25
     0.25
     0.25
     0.25
     0.25
     0.25
     0.25
     0.25
  1.44444
     0.25
     0.25
     0.25
     0.25
     0.25
     0.25
     0.25
     0.25
     0.25
     0.25
     0.25
     0.25
     0.25
  2.44444
     0.25
     0.25
     0.25
     0.25
     0.25
     0.25
     0.25
 0.944444
     0.25
  1.44444
 0.444444
-0.555556
-0.777778
     -2.5
     -1.5
     -0.5
       -3
     -2.5
       -2
     -1.5
     -1.5
     -1.5
     -1.5
     -1.5
     -1.5
     -1.5
       -1
       -1
     -0.5
     -0.5
      0.5
      0.5
      0.5
      0.5
      0.5
      0.5
      0.5
      0.5
      0.5
      0.5
      0.5
 -13.9136
      0.5
      0.5
      0.5
      0.5
      0.5
      0.5
      0.5
      0.5
      0.5
      0.5
      0.5
     -0.5
     -0.5
       -1
       -1
     -1.5
     -1.5
     -1.5
     -1.5
     -1.5
     -1.5
     -1.5
       -2
     -2.5
       -3
     -0.5
     -1.5
     -2.5
-0.777778
-0.555556
 0.444444
  1.44444
     0.25
 0.944444
     0.25
     0.25
     0.25
     0.25
     0.25
     0.25
     0.25
  2.44444
     0.25
     0.25
     0.25
     0.25
     0.25
     0.25
     0.25
     0.25
     0.25
     0.25
     0.25
     0.25
     0.25
  1.44444
     0.25
     0.25
     0.25
     0.25
     0.25
     0.25
     0.25
     0.25
     0.25
     0.25
     0.25
     0.25
     0.25
     0.25
     0.25
     0.25
  1.94444
     0.25
     0.25
     0.25
     0.25
     0.25
     0.25
     0.25
     0.25
     0.25
    -0.25
     0.25
     0.25
     0.25
     0.25
     0.25
     0.25
     0.25
     0.25
     0.25
  1.94444
     0.25
     0.25
     0.25
     0.25
     0.25
     0.25
     0.25
     0.25
     0.25
    -0.25
    -0.75
    -0.75
    -0.75
    -0.75
    -0.25
    -0.25
     0.25
     0.25
     0.25
     0.25
     0.25
     0.25
     0.25
  7.72222
     0.25
     0.25
     0.25
     0.25
     0.25
     0.25
     0.25
    -0.25
    -0.25
    -0.75
    -0.75
    -0.75
    -0.75
       -1
    -0.75
    -0.75
    -0.75
    -0.75
    -0.25
    -0.25
     0.25
     0.25
     0.25
     0.25
     0.25
     0.25
     0.25
      6.5
     0.25
     0.25
     0.25
     0.25
     0.25
     0.25
     0.25
    -0.25
    -0.25
    -0.75
    -0.75
    -0.75
    -0.75
       -1
 0.277778
    0.125
       -1
    0.125
       -1
    -0.75
    -0.75
    -0.75
    -0.75
    -0.25
    -0.25
    -0.25
     0.25
     0.25
     0.25
     0.25
     0.25
     0.25
  6.77778
     0.25
     0.25
     0.25
     0.25
     0.25
     0.25
    -0.25
    -0.25
    -0.25
    -0.75
    -0.75
    -0.75
    -0.75
       -1
    0.125
       -1
    0.125
 0.277778
    0.125
    0.125
     -0.5
    0.125
    0.125
    0.125
    -0.75
    0.125
       -1
    -0.75
    -0.75
    -0.75
    -0.75
    -0.25
    -0.25
    -0.25
    -0.25
    -0.25
     0.25
     0.25
     0.25
     0.25
     0.25
     0.25
     0.25
  6.77778
     0.25
     0.25
     0.25
     0.25
     0.25
     0.25
     0.25
    -0.25
    -0.25
    -0.25
    -0.25
    -0.25
    -0.75
    -0.75
    -0.75
    -0.75
       -1
    0.125
    -0.75
    0.125
    0.125
    0.125
     -0.5
    0.125
    0.125
 0.277778
    0.125
    0.125
    0.125
    0.125
    0.125
    0.125
    0.125
 -1.63889
    0.125
    0.125
    0.125
    0.125
    0.125
    0.125
    0.125
    0.125
    0.125
    0.125
    0.125
    0.125
    0.125
 -1.63889
    0.125
    0.125
    0.125
    0.125
    0.125
    0.125
    0.125
    0.125
    0.125
    0.125
    0.125
 -1.63889
    0.125
    0.125
    0.125
    0.125
    0.125
    0.125
    0.125
    0.125
    0.125
    -1.75
    0.125
    0.125
    0.125
    0.125
    -0.75
    -0.75
    -0.75
    -1.25
     -0.5
     -0.5
     -0.5
     -0.5
     -0.5
     -0.5
     -0.5
     -0.5
     0.25
     0.25
     0.25
     0.25
     0.25
     0.25
     0.25
     0.25
     0.25
     0.25
  10.9444
     0.25
     0.25
     0.25
     0.25
     0.25
     0.25
     0.25
     0.25
     0.25
     0.25
     -0.5
     -0.5
     -0.5
     -0.5
     -0.5
     -0.5
     -0.5
     -0.5
    -1.25
    -0.75
    -0.75
    -0.75
    0.125
    0.125
    0.125
    0.125
    -1.75
    0.125
    0.125
    0.125
    0.125
    0.125
    0.125
    0.125
    0.125
    0.125
 -1.63889
    0.125
    0.125
    0.125
    0.125
    0.125
    0.125
    0.125
    0.125
    0.125
    0.125
    0.125
 -1.63889
    0.125
    0.125
    0.125
    0.125
    0.125
    0.125
    0.125
    0.125
    0.125
    0.125
    0.125
    0.125
    0.125
 -1.63889
    0.125
    0.125
    0.125
    0.125
    0.125
    0.125
    0.125
 0.138889
 0.138889
 0.138889
 0.138889
-0.833333
 0.138889
 0.138889
 0.138889
 0.138889
 0.326073
-0.138889
   -0.125
   -0.125
   -0.125
   -0.125
   -0.125
   -0.125
   -0.125
    0.125
    0.125
    0.125
    0.125
    0.125
    0.125
    0.125
    0.125
    0.125
 0.222222
    0.125
    0.125
    0.125
    0.125
    0.125
    0.125
    0.125
    0.125
    0.125
   -0.125
   -0.125
   -0.125
   -0.125
   -0.125
   -0.125
   -0.125
   -0.125
    0.125
    0.125
    0.125
    0.125
    0.125
-0.777778
    0.125
    0.125
    0.125
    0.125
    0.125
   -0.125
    0.125
    0.125
    0.125
    0.125
    0.125
    0.125
 -1.02778
    0.125
    0.125
    0.125
    0.125
    0.125
    0.125
    0.125
    0.125
    0.125
    0.125
    0.125
 -1.38889
    0.125
    0.125
    0.125
    0.125
    0.125
    0.125
    0.125
    0.125
    0.125
 -1.63889
    0.125
    0.125
    0.125
    0.125
    -0.75
    -0.75
    -0.75
    -1.25
    -0.25
     -0.5
     -0.5
     -0.5
     -0.5
     -0.5
     -0.5
     -0.5
     0.25
     0.25
     0.25
     0.25
     0.25
     0.25
     0.25
     0.25
     0.25
     0.25
     0.25
     0.25
  7.05556
     0.25
     0.25
     0.25
     0.25
     0.25
     0.25
     0.25
     0.25
     0.25
     0.25
     0.25
     0.25
     -0.5
     -0.5
     -0.5
     -0.5
     -0.5
     -0.5
     -0.5
    -0.25
    -1.25
    -0.75
    -0.75
    -0.75
    0.125
    0.125
    0.125
    0.125
 -1.63889
    0.125
    0.125
    0.125
    0.125
    0.125
    0.125
    0.125
    0.125
    0.125
 -1.38889
    0.125
    0.125
    0.125
    0.125
    0.125
    0.125
    0.125
    0.125
    0.125
    0.125
    0.125
 -1.02778
    0.125
    0.125
    0.125
    0.125
    0.125
    0.125
   -0.125
    0.125
    0.125
    0.125
    0.125
    0.125
-0.777778
    0.125
    0.125
    0.125
    0.125
    0.125
   -0.125
   -0.125
   -0.125
   -0.125
   -0.125
   -0.125
   -0.125
   -0.125
    0.125
    0.125
    0.125
    0.125
    0.125
    0.125
    0.125
    0.125
    0.125
 0.222222
    0.125
    0.125
    0.125
    0.125
    0.125
    0.125
    0.125
    0.125
    0.125
   -0.125
   -0.125
   -0.125
   -0.125
   -0.125
   -0.125
   -0.125
-0.138889
-0.138889
 0.138889
 0.138889
 0.138889
 0.138889
 -1.11111
 0.138889
 0.138889
 0.138889
 0.138889
-0.138889
 0.173927
 0.163036
-0.326073
 0.163036
0.0694444
-0.138889
0.0694444
0.0694444
   0.0625
   0.0625
   0.0625
   0.0625
   0.0625
   0.0625
   0.0625
    -1.25
   0.0625
   0.0625
   0.0625
   0.0625
   0.0625
   0.0625
   0.0625
   0.0625
   -0.375
   0.0625
   -0.375
   -0.125
   -0.125
   -0.125
   -0.125
   -0.125
    0.125
    0.125
    0.125
    0.125
    0.125
    0.125
    0.125
  1.47222
    0.125
    0.125
    0.125
    0.125
    0.125
    0.125
    0.125
   -0.125
   -0.125
   -0.125
   -0.125
   -0.125
   -0.375
   0.0625
   -0.375
   0.0625
   0.0625
   0.0625
   0.0625
   0.0625
   0.0625
   0.0625
   0.0625
    -1.25
   0.0625
   0.0625
   0.0625
   0.0625
   0.0625
   0.0625
   0.0625
0.0694444
-0.138889
   -0.125
   -0.125
   -0.125
   -0.125
   -0.125
   -0.125
   -0.125
    0.125
    0.125
    0.125
    0.125
    0.125
    0.125
    0.125
    0.125
 0.472222
    0.125
    0.125
    0.125
    0.125
    0.125
    0.125
    0.125
    0.125
   -0.125
   -0.125
   -0.125
   -0.125
   -0.125
   -0.125
   -0.125
   -0.125
    0.125
    0.125
    0.125
    0.125
    0.125
    0.125
    0.125
    0.125
    0.125
 -1.38889
    0.125
    0.125
    0.125
    0.125
    0.125
    0.125
    0.125
    0.125
    0.125
   -0.125
    0.125
    0.125
    0.125
    0.125
    0.125
    0.125
    0.125
-0.888889
    0.125
    0.125
    0.125
    0.125
    0.125
    0.125
    0.125
    0.125
    0.125
    0.125
    0.125
    0.125
    0.125
 -1.13889
    0.125
    0.125
    0.125
    0.125
    0.125
    0.125
    0.125
    0.125
    0.125
    0.125
    0.125
    0.125
 -1.13889
    0.125
    0.125
    0.125
    0.125
    0.125
    0.125
    0.125
    -1.25
    0.125
    -1.25
       -1
    -1.25
     -1.5
    -1.75
    -1.25
       -1
    -0.75
     -0.5
     -0.5
     -0.5
     0.25
     0.25
     0.25
     0.25
     0.25
     0.25
     0.25
     0.25
     0.25
     0.25
     13.5
     0.25
     0.25
     0.25
     0.25
     0.25
     0.25
     0.25
     0.25
     0.25
     0.25
     -0.5
     -0.5
     -0.5
    -0.75
       -1
    -1.25
    -1.75
     -1.5
    -1.25
       -1
    -1.25
    0.125
    -1.25
    0.125
    0.125
    0.125
    0.125
    0.125
    0.125
    0.125
 -1.13889
    0.125
    0.125
    0.125
    0.125
    0.125
    0.125
    0.125
    0.125
    0.125
    0.125
    0.125
    0.125
 -1.13889
    0.125
    0.125
    0.125
    0.125
    0.125
    0.125
    0.125
    0.125
    0.125
    0.125
    0.125
    0.125
    0.125
-0.888889
    0.125
    0.125
    0.125
    0.125
    0.125
    0.125
    0.125
   -0.125
    0.125
    0.125
    0.125
    0.125
    0.125
    0.125
    0.125
    0.125
    0.125
 -1.38889
    0.125
    0.125
    0.125
    0.125
    0.125
    0.125
    0.125
    0.125
    0.125
   -0.125
   -0.125
   -0.125
   -0.125
   -0.125
   -0.125
   -0.125
   -0.125
    0.125
    0.125
    0.125
    0.125
    0.125
    0.125
    0.125
    0.125
 0.472222
    0.125
    0.125
    0.125
    0.125
    0.125
    0.125
    0.125
    0.125
   -0.125
   -0.125
   -0.125
   -0.125
   -0.125
   -0.125
   -0.125
-0.138889
0.0694444
   0.0625
   0.0625
   0.0625
   0.0625
   0.0625
   0.0625
   0.0625
    -1.25
   0.0625
   0.0625
   0.0625
   0.0625
   0.0625
   0.0625
   0.0625
   0.0625
   -0.375
   0.0625
   -0.375
   -0.125
   -0.125
   -0.125
   -0.125
   -0.125
    0.125
    0.125
    0.125
    0.125
    0.125
    0.125
    0.125
  1.47222
    0.125
    0.125
    0.125
    0.125
    0.125
    0.125
    0.125
   -0.125
   -0.125
   -0.125
   -0.125
   -0.125
   -0.375
   0.0625
   -0.375
   0.0625
   0.0625
   0.0625
   0.0625
   0.0625
   0.0625
   0.0625
   0.0625
    -1.25
   0.0625
   0.0625
   0.0625
   0.0625
   0.0625
   0.0625
   0.0625
0.0694444
0.0694444
-0.138889
0.0694444
0.0694444
0.0694444
0.0694444
-0.555556
0.0694444
0.0694444
0.0694444
-0.138889
-0.138889
-0.138889
 0.138889
 0.138889
 0.138889
 0.138889
 0.138889
 0.138889
 0.138889
 0.138889
-0.987654
 0.138889
 0.138889
 0.138889
 0.138889
 0.138889
 0.138889
 0.138889
 0.138889
-0.138889
-0.138889
-0.138889
0.0694444
0.0694444
0.0694444
-0.555556
0.0694444
0.0694444
0.0694444
0.0869637
-0.173927
0.0869637
 0.163036
 0.163036
 0.163036
-0.652145
 0.163036
 0.163036
 0.163036
0.0869637
0.0694444
0.0694444
0.0694444
0.0694444
0.0694444
0.0694444
-0.972222
0.0694444
0.0694444
0.0694444
0.0694444
0.0694444
0.0694444
0.0694444
   0.0625
   0.0625
   0.0625
   0.0625
   0.0625
   0.0625
   0.0625
   0.0625
   0.0625
   0.0625
     -1.5
   0.0625
   0.0625
   0.0625
   0.0625
   0.0625
   0.0625
   0.0625
   0.0625
   0.0625
   0.0625
0.0694444
   0.0625
   0.0625
   0.0625
   0.0625
   0.0625
   0.0625
   0.0625
   0.0625
   -1.375
   0.0625
   0.0625
   0.0625
   0.0625
   0.0625
   0.0625
   0.0625
   0.0625
   0.0625
   0.0625
   0.0625
    -0.75
   0.0625
   0.0625
   0.0625
   0.0625
   0.0625
    -0.75
   0.0625
   0.0625
   0.0625
    -0.75
   0.0625
    -0.75
   -0.125
   -0.125
   -0.125
   -0.125
    0.125
    0.125
    0.125
    0.125
    0.125
    0.125
    0.125
    0.125
    0.125
    0.125
    0.125
  3.72222
    0.125
    0.125
    0.125
    0.125
    0.125
    0.125
    0.125
    0.125
    0.125
    0.125
    0.125
   -0.125
   -0.125
   -0.125
   -0.125
    -0.75
   0.0625
    -0.75
   0.0625
   0.0625
   0.0625
    -0.75
   0.0625
   0.0625
   0.0625
   0.0625
   0.0625
    -0.75
   0.0625
   0.0625
   0.0625
   0.0625
   0.0625
   0.0625
   0.0625
   0.0625
   0.0625
   0.0625
   0.0625
   -1.375
   0.0625
   0.0625
   0.0625
   0.0625
   0.0625
   0.0625
   0.0625
   0.0625
0.0694444
   0.0625
   0.0625
   0.0625
   0.0625
   0.0625
   0.0625
   0.0625
   0.0625
   0.0625
   0.0625
     -1.5
   0.0625
   0.0625
   0.0625
   0.0625
   0.0625
   0.0625
   0.0625
   0.0625
   0.0625
   0.0625
0.0694444
 0.163036
0.0694444
-0.138889
0.0694444
0.0694444
   0.0625
   0.0625
   0.0625
   0.0625
   0.0625
   0.0625
   0.0625
    -1.25
   0.0625
   0.0625
   0.0625
   0.0625
   0.0625
   0.0625
   0.0625
   0.0625
   0.0625
     -0.5
   0.0625
   0.0625
   -0.375
   -0.375
    -0.25
   -0.125
   -0.125
   -0.125
    0.125
    0.125
    0.125
    0.125
    0.125
    0.125
    0.125
  2.22222
    0.125
    0.125
    0.125
    0.125
    0.125
    0.125
    0.125
   -0.125
   -0.125
   -0.125
    -0.25
   -0.375
   -0.375
   0.0625
   0.0625
     -0.5
   0.0625
   0.0625
   0.0625
   0.0625
   0.0625
   0.0625
   0.0625
   0.0625
   0.0625
    -1.25
   0.0625
   0.0625
   0.0625
   0.0625
   0.0625
   0.0625
   0.0625
0.0694444
-0.138889
    -0.25
    -0.25
    -0.25
   -0.125
   -0.125
   -0.125
   -0.125
    0.125
    0.125
    0.125
    0.125
    0.125
    0.125
    0.125
    0.125
  1.22222
    0.125
    0.125
    0.125
    0.125
    0.125
    0.125
    0.125
    0.125
   -0.125
   -0.125
   -0.125
   -0.125
    -0.25
    -0.25
    -0.25
   -0.125
   -0.125
    0.125
    0.125
    0.125
    0.125
    0.125
    0.125
    0.125
    0.125
    0.125
-0.888889
    0.125
    0.125
    0.125
    0.125
    0.125
    0.125
    0.125
    0.125
    0.125
   -0.125
   -0.125
    0.125
    0.125
    0.125
    0.125
    0.125
    0.125
    0.125
    0.125
    0.125
 -1.13889
    0.125
    0.125
    0.125
    0.125
    0.125
    0.125
    0.125
    0.125
    0.125
    0.125
    0.125
    0.125
    0.125
    0.125
    0.125
    0.125
-0.638889
    0.125
    0.125
    0.125
    0.125
    0.125
    0.125
    0.125
    0.125
    0.125
    0.125
    0.125
    0.125
    0.125
-0.888889
    0.125
    0.125
    0.125
    0.125
    0.125
    0.125
    0.125
    -1.25
    0.125
    -1.25
       -1
    -1.25
     -1.5
    -1.75
     -1.5
    -1.25
    -1.25
     -0.5
     -0.5
     -0.5
     0.25
     0.25
     0.25
     0.25
     0.25
     0.25
     0.25
     0.25
     0.25
     0.25
     12.5
     0.25
     0.25
     0.25
     0.25
     0.25
     0.25
     0.25
     0.25
     0.25
     0.25
     -0.5
     -0.5
     -0.5
    -1.25
    -1.25
     -1.5
    -1.75
     -1.5
    -1.25
       -1
    -1.25
    0.125
    -1.25
    0.125
    0.125
    0.125
    0.125
    0.125
    0.125
    0.125
-0.888889
    0.125
    0.125
    0.125
    0.125
    0.125
    0.125
    0.125
    0.125
    0.125
    0.125
    0.125
    0.125
    0.125
-0.638889
    0.125
    0.125
    0.125
    0.125
    0.125
    0.125
    0.125
    0.125
    0.125
    0.125
    0.125
    0.125
    0.125
    0.125
    0.125
    0.125
 -1.13889
    0.125
    0.125
    0.125
    0.125
    0.125
    0.125
    0.125
    0.125
    0.125
   -0.125
   -0.125
    0.125
    0.125
    0.125
    0.125
    0.125
    0.125
    0.125
    0.125
    0.125
-0.888889
    0.125
    0.125
    0.125
    0.125
    0.125
    0.125
    0.125
    0.125
    0.125
   -0.125
   -0.125
    -0.25
    -0.25
    -0.25
   -0.125
   -0.125
   -0.125
   -0.125
    0.125
    0.125
    0.125
    0.125
    0.125
    0.125
    0.125
    0.125
  1.22222
    0.125
    0.125
    0.125
    0.125
    0.125
    0.125
    0.125
    0.125
   -0.125
   -0.125
   -0.125
   -0.125
    -0.25
    -0.25
    -0.25
-0.138889
0.0694444
   0.0625
   0.0625
   0.0625
   0.0625
   0.0625
   0.0625
   0.0625
    -1.25
   0.0625
   0.0625
   0.0625
   0.0625
   0.0625
   0.0625
   0.0625
   0.0625
   0.0625
     -0.5
   0.0625
   0.0625
   -0.375
   -0.375
    -0.25
   -0.125
   -0.125
   -0.125
    0.125
    0.125
    0.125
    0.125
    0.125
    0.125
    0.125
  2.22222
    0.125
    0.125
    0.125
    0.125
    0.125
    0.125
    0.125
   -0.125
   -0.125
   -0.125
    -0.25
   -0.375
   -0.375
   0.0625
   0.0625
     -0.5
   0.0625
   0.0625
   0.0625
   0.0625
   0.0625
   0.0625
   0.0625
   0.0625
   0.0625
    -1.25
   0.0625
   0.0625
   0.0625
   0.0625
   0.0625
   0.0625
   0.0625
0.0694444
0.0694444
-0.138889
0.0694444
 0.163036
0.0694444
   0.0625
   0.0625
   0.0625
   0.0625
   0.0625
   0.0625
   0.0625
   0.0625
   0.0625
   0.0625
     -1.5
   0.0625
   0.0625
   0.0625
   0.0625
   0.0625
   0.0625
   0.0625
   0.0625
   0.0625
   0.0625
0.0694444
   0.0625
   0.0625
   0.0625
   0.0625
   0.0625
   0.0625
   0.0625
   0.0625
   -1.375
   0.0625
   0.0625
   0.0625
   0.0625
   0.0625
   0.0625
   0.0625
   0.0625
   0.0625
   0.0625
   0.0625
    -0.75
   0.0625
   0.0625
   0.0625
   0.0625
   0.0625
    -0.75
   0.0625
   0.0625
   0.0625
    -0.75
   0.0625
    -0.75
   -0.125
   -0.125
   -0.125
   -0.125
    0.125
    0.125
    0.125
    0.125
    0.125
    0.125
    0.125
    0.125
    0.125
    0.125
    0.125
  3.72222
    0.125
    0.125
    0.125
    0.125
    0.125
    0.125
    0.125
    0.125
    0.125
    0.125
    0.125
   -0.125
   -0.125
   -0.125
   -0.125
    -0.75
   0.0625
    -0.75
   0.0625
   0.0625
   0.0625
    -0.75
   0.0625
   0.0625
   0.0625
   0.0625
   0.0625
    -0.75
   0.0625
   0.0625
   0.0625
   0.0625
   0.0625
   0.0625
   0.0625
   0.0625
   0.0625
   0.0625
   0.0625
   -1.375
   0.0625
   0.0625
   0.0625
   0.0625
   0.0625
   0.0625
   0.0625
   0.0625
0.0694444
   0.0625
   0.0625
   0.0625
   0.0625
   0.0625
   0.0625
   0.0625
   0.0625
   0.0625
   0.0625
     -1.5
   0.0625
   0.0625
   0.0625
   0.0625
   0.0625
   0.0625
   0.0625
   0.0625
   0.0625
   0.0625
0.0694444
0.0694444
0.0694444
0.0694444
0.0694444
0.0694444
0.0694444
-0.972222
0.0694444
0.0694444
0.0694444
0.0694444
0.0694444
0.0694444
0.0869637
0.0771605
0.0694444
0.0694444
0.0694444
0.0694444
0.0694444
0.0694444
-0.972222
0.0694444
0.0694444
0.0694444
0.0694444
0.0694444
0.0694444
0.0694444
0.0694444
0.0694444
0.0694444
0.0694444
-0.833333
0.0694444
0.0694444
0.0694444
0.0694444
0.0694444
0.0694444
0.0694444
0.0694444
-0.694444
0.0694444
0.0694444
0.0694444
-0.277778
-0.277778
-0.277778
-0.138889
 0.138889
 0.138889
 0.138889
 0.138889
 0.138889
 0.138889
 0.138889
 0.138889
 0.138889
 0.401235
 0.138889
 0.138889
 0.138889
 0.138889
 0.138889
 0.138889
 0.138889
 0.138889
 0.138889
-0.138889
-0.277778
-0.277778
-0.277778
0.0694444
0.0694444
0.0694444
-0.694444
0.0694444
0.0694444
0.0694444
0.0694444
0.0694444
0.0694444
0.0694444
0.0694444
-0.833333
0.0694444
0.0694444
0.0694444
0.0694444
0.0694444
0.0694444
0.0694444
0.0694444
0.0694444
0.0694444
0.0694444
-0.972222
0.0694444
0.0694444
0.0694444
0.0694444
0.0694444
0.0694444
0.0771605
0.0869637
0.0869637
0.0869637
-0.347855
0.0869637
0.0869637
0.0869637
